{"ip":0,"fr":60,"v":"5.1.20","assets":[],"layers":[{"ty":4,"nm":"hand","ip":0,"st":0,"ind":8,"hix":1,"ks":{"o":{"a":1,"k":[{"t":0,"s":[0],"e":[0],"i":{"x":[0.515],"y":[0.955]},"o":{"x":[0.455],"y":[0.03]}},{"t":28,"s":[0],"e":[100],"i":{"x":[0.515],"y":[0.955]},"o":{"x":[0.455],"y":[0.03]}},{"t":30}]},"or":{"a":0,"k":[0,0,0]},"a":{"a":0,"k":[35.5,35.5,0]},"p":{"s":true,"x":{"a":1,"k":[{"t":0,"s":[314.6010469638981],"e":[401.072],"i":{"x":[0.515],"y":[0.955]},"o":{"x":[0.455],"y":[0.03]}},{"t":30,"s":[401.072],"e":[413.2055209960937],"i":{"x":[0.515],"y":[0.955]},"o":{"x":[0.455],"y":[0.03]}},{"t":36,"s":[413.2055209960937],"e":[396.558],"i":{"x":[0.515],"y":[0.955]},"o":{"x":[0.455],"y":[0.03]}},{"t":42,"s":[396.558],"e":[413.2055209960938],"i":{"x":[0.515],"y":[0.955]},"o":{"x":[0.455],"y":[0.03]}},{"t":48,"s":[413.2055209960938],"e":[395.921],"i":{"x":[0.515],"y":[0.955]},"o":{"x":[0.455],"y":[0.03]}},{"t":54}]},"y":{"a":1,"k":[{"t":0,"s":[404.4172984145753],"e":[365.6410827636719],"i":{"x":[0.515],"y":[0.955]},"o":{"x":[0.455],"y":[0.03]}},{"t":30,"s":[365.6410827636719],"e":[331.8965974121094],"i":{"x":[0.515],"y":[0.955]},"o":{"x":[0.455],"y":[0.03]}},{"t":36,"s":[331.8965974121094],"e":[365.2415986328125],"i":{"x":[0.515],"y":[0.955]},"o":{"x":[0.455],"y":[0.03]}},{"t":42,"s":[365.2415986328125],"e":[331.53658154296875],"i":{"x":[0.515],"y":[0.955]},"o":{"x":[0.455],"y":[0.03]}},{"t":48,"s":[331.53658154296875],"e":[365.2415986328125],"i":{"x":[0.515],"y":[0.955]},"o":{"x":[0.455],"y":[0.03]}},{"t":54}]}},"rx":{"a":0,"k":0},"ry":{"a":0,"k":0},"rz":{"a":0,"k":0},"s":{"a":0,"k":[100,100,100]}},"shapes":[{"ty":"gr","nm":"hand shape group","it":[{"ty":"sh","ks":{"a":0,"k":{"c":true,"v":[[-14.7067507,46.2380139],[-4.23675069,53.9920139],[-17.5837507,52.1520139],[-28.2947507,33.9290139]],"i":[[-5.064,-3.897999999999996],[1.213,-2.0800000000000054],[5.495999999999999,3.259999999999998],[-2.288999999999998,2.7040000000000006]],"o":[[5.06200001,3.8980000000000032],[-1.1189999999999998,1.9179999999999993],[-5.748999999999999,-3.4080000000000013],[0.8800000000000026,-1.0390000000000015]]}}},{"ty":"st","o":{"a":0,"k":0},"w":{"a":0,"k":0},"c":{"a":0,"k":[0,0,0,0]},"lc":3,"lj":1,"ml":1},{"ty":"fl","o":{"a":0,"k":0},"c":{"a":0,"k":[0,0,0,0]},"r":1},{"ty":"tr","o":{"a":0,"k":100},"a":{"a":0,"k":[0,0]},"s":{"a":0,"k":[-100,100]},"p":{"a":0,"k":[29,6]},"r":{"a":0,"k":0}}]},{"ty":"gr","nm":"hand shape group","it":[{"ty":"sh","ks":{"a":0,"k":{"c":true,"v":[[-14.7067507,46.2380139],[-4.23675069,53.9920139],[-17.5837507,52.1520139],[-28.2947507,33.9290139]],"i":[[-5.064,-3.897999999999996],[1.213,-2.0800000000000054],[5.495999999999999,3.259999999999998],[-2.288999999999998,2.7040000000000006]],"o":[[5.06200001,3.8980000000000032],[-1.1189999999999998,1.9179999999999993],[-5.748999999999999,-3.4080000000000013],[0.8800000000000026,-1.0390000000000015]]}}},{"ty":"st","o":{"a":0,"k":0},"w":{"a":0,"k":0},"c":{"a":0,"k":[0,0,0,0]},"lc":3,"lj":1,"ml":1},{"ty":"fl","o":{"a":0,"k":0},"c":{"a":0,"k":[0,0,0,0]},"r":1},{"ty":"tr","o":{"a":0,"k":100},"a":{"a":0,"k":[0,0]},"s":{"a":0,"k":[100,100]},"p":{"a":0,"k":[0,0]},"r":{"a":0,"k":0}}]},{"ty":"gr","nm":"hand shape group","it":[{"ty":"sh","ks":{"a":0,"k":{"c":true,"v":[[1.19824931,6.7560139],[-7.27375069,6.4350139],[-15.7457507,1.4800139],[-5.76575069,-0.591986104]],"i":[[0.6559999999999999,-2.3360000000000003],[3.9939999999999998,1.1229999999999993],[-0.6569999999999983,2.338],[-3.995,-1.122999996]],"o":[[-0.6569999990000001,2.338],[-3.99500001,-1.1210000000000004],[0.657,-2.338000004],[3.9939999999999998,1.121]]}}},{"ty":"st","o":{"a":0,"k":0},"w":{"a":0,"k":0},"c":{"a":0,"k":[0,0,0,0]},"lc":3,"lj":1,"ml":1},{"ty":"fl","o":{"a":0,"k":0},"c":{"a":0,"k":[0,0,0,0]},"r":1},{"ty":"tr","o":{"a":0,"k":100},"a":{"a":0,"k":[0,0]},"s":{"a":0,"k":[-100,100]},"p":{"a":0,"k":[29,6]},"r":{"a":0,"k":0}}]},{"ty":"gr","nm":"hand shape group","it":[{"ty":"sh","ks":{"a":0,"k":{"c":true,"v":[[1.19824931,6.7560139],[-7.27375069,6.4350139],[-15.7457507,1.4800139],[-5.76575069,-0.591986104]],"i":[[0.6559999999999999,-2.3360000000000003],[3.9939999999999998,1.1229999999999993],[-0.6569999999999983,2.338],[-3.995,-1.122999996]],"o":[[-0.6569999990000001,2.338],[-3.99500001,-1.1210000000000004],[0.657,-2.338000004],[3.9939999999999998,1.121]]}}},{"ty":"st","o":{"a":0,"k":0},"w":{"a":0,"k":0},"c":{"a":0,"k":[0,0,0,0]},"lc":3,"lj":1,"ml":1},{"ty":"fl","o":{"a":0,"k":0},"c":{"a":0,"k":[0,0,0,0]},"r":1},{"ty":"tr","o":{"a":0,"k":100},"a":{"a":0,"k":[0,0]},"s":{"a":0,"k":[100,100]},"p":{"a":0,"k":[0,0]},"r":{"a":0,"k":0}}]},{"ty":"gr","nm":"hand shape group","it":[{"ty":"sh","ks":{"a":0,"k":{"c":true,"v":[[7.35524931,20.2990139],[0.0802493112,20.3440139],[-9.19275069,15.8670139],[1.97024931,13.8670139]],"i":[[0.7810000000000006,-2.251999999999999],[3.7549999988,1.2979999999999983],[-0.7799999999999994,2.2540000000000013],[-3.754,-1.2989999999999995]],"o":[[-0.7799999999999994,2.253],[-3.7550000012,-1.301000000000002],[0.7810000000000006,-2.2520000000000007],[3.7540000000000004,1.3010000000000002]]}}},{"ty":"st","o":{"a":0,"k":0},"w":{"a":0,"k":0},"c":{"a":0,"k":[0,0,0,0]},"lc":3,"lj":1,"ml":1},{"ty":"fl","o":{"a":0,"k":0},"c":{"a":0,"k":[0,0,0,0]},"r":1},{"ty":"tr","o":{"a":0,"k":100},"a":{"a":0,"k":[0,0]},"s":{"a":0,"k":[-100,100]},"p":{"a":0,"k":[29,6]},"r":{"a":0,"k":0}}]},{"ty":"gr","nm":"hand shape group","it":[{"ty":"sh","ks":{"a":0,"k":{"c":true,"v":[[7.35524931,20.2990139],[0.0802493112,20.3440139],[-9.19275069,15.8670139],[1.97024931,13.8670139]],"i":[[0.7810000000000006,-2.251999999999999],[3.7549999988,1.2979999999999983],[-0.7799999999999994,2.2540000000000013],[-3.754,-1.2989999999999995]],"o":[[-0.7799999999999994,2.253],[-3.7550000012,-1.301000000000002],[0.7810000000000006,-2.2520000000000007],[3.7540000000000004,1.3010000000000002]]}}},{"ty":"st","o":{"a":0,"k":0},"w":{"a":0,"k":0},"c":{"a":0,"k":[0,0,0,0]},"lc":3,"lj":1,"ml":1},{"ty":"fl","o":{"a":0,"k":0},"c":{"a":0,"k":[0,0,0,0]},"r":1},{"ty":"tr","o":{"a":0,"k":100},"a":{"a":0,"k":[0,0]},"s":{"a":0,"k":[100,100]},"p":{"a":0,"k":[0,0]},"r":{"a":0,"k":0}}]},{"ty":"gr","nm":"hand shape group","it":[{"ty":"sh","ks":{"a":0,"k":{"c":true,"v":[[14.5462493,35.2090139],[6.71324931,33.2910139],[-1.81975069,29.7150139],[7.53524931,27.7630139]],"i":[[0.9589999999999996,-2.2390000000000043],[3.4849999900000004,0.9099999999999966],[-0.3899999999999999,2.2570000000000014],[-3.5490000000000004,-0.615000000000002]],"o":[[-0.9039999999999999,2.1069999999999993],[-3.677,-0.9590000000000032],[0.3919999999999999,-2.2620000000000005],[3.549999989999999,0.6159999999999997]]}}},{"ty":"st","o":{"a":0,"k":0},"w":{"a":0,"k":0},"c":{"a":0,"k":[0,0,0,0]},"lc":3,"lj":1,"ml":1},{"ty":"fl","o":{"a":0,"k":0},"c":{"a":0,"k":[0,0,0,0]},"r":1},{"ty":"tr","o":{"a":0,"k":100},"a":{"a":0,"k":[0,0]},"s":{"a":0,"k":[-100,100]},"p":{"a":0,"k":[29,6]},"r":{"a":0,"k":0}}]},{"ty":"gr","nm":"hand shape group","it":[{"ty":"sh","ks":{"a":0,"k":{"c":true,"v":[[14.5462493,35.2090139],[6.71324931,33.2910139],[-1.81975069,29.7150139],[7.53524931,27.7630139]],"i":[[0.9589999999999996,-2.2390000000000043],[3.4849999900000004,0.9099999999999966],[-0.3899999999999999,2.2570000000000014],[-3.5490000000000004,-0.615000000000002]],"o":[[-0.9039999999999999,2.1069999999999993],[-3.677,-0.9590000000000032],[0.3919999999999999,-2.2620000000000005],[3.549999989999999,0.6159999999999997]]}}},{"ty":"st","o":{"a":0,"k":0},"w":{"a":0,"k":0},"c":{"a":0,"k":[0,0,0,0]},"lc":3,"lj":1,"ml":1},{"ty":"fl","o":{"a":0,"k":0},"c":{"a":0,"k":[0,0,0,0]},"r":1},{"ty":"tr","o":{"a":0,"k":100},"a":{"a":0,"k":[0,0]},"s":{"a":0,"k":[100,100]},"p":{"a":0,"k":[0,0]},"r":{"a":0,"k":0}}]},{"ty":"gr","nm":"hand shape group","it":[{"ty":"sh","ks":{"a":0,"k":{"c":true,"v":[[-1.24975069,52.2670139],[-1.27575069,52.2650139],[-1.72875069,51.7610139],[-1.20375069,48.8880139],[-0.718750689,47.4330139],[0.191249311,45.3590139],[1.33024931,43.6910139],[2.79424931,42.0960139],[3.31324931,41.6480139],[3.82024931,41.2130139],[5.07824931,40.2790139],[8.27624931,39.2400139],[9.66824931,39.1990139],[12.3012493,40.2950139],[12.4032493,40.9650139],[11.7322493,41.0660139],[9.54124931,40.1500139],[8.43524931,40.1830139],[5.58824931,41.0880139],[4.43924931,41.9430139],[3.93124931,42.3830139],[3.43724931,42.8060139],[2.09524931,44.2690139],[1.01324931,45.8510139],[0.165249311,47.8060139],[-0.274750689,49.1190139],[-0.771750689,51.8120139]],"i":[[0.254000001,0],[0.008000000000000007,0.0020000000000024443],[-0.014000000000000012,0.26599999999999824],[-0.30900000000000016,1.0750000000000028],[-0.21399999999999997,0.4480000000000004],[-0.376,0.661999999999999],[-0.42199999899999996,0.5279999999999987],[-0.6280000000000001,0.5739999999999981],[-0.1769999999999996,0.1490000000000009],[-0.1599999999999997,0.142000000000003],[-0.42900000000000027,0.30699999999999505],[-1.011000000000001,0.11299999999999955],[-0.5229999999999997,-0.07000000000000028],[-0.8160000000000007,-0.6039999999999992],[0.15700000000000003,-0.21100000000000563],[0.2110000000000003,0.1559999999999988],[0.7789999900000009,0.1039999999999992],[0.34999999999999964,-0.07799999999999585],[0.9610000000000003,-0.49199999999999733],[0.36599999999999966,-0.2909999999999968],[0.1819999999999995,-0.15500000000000114],[0.15600000000000014,-0.14000000000000057],[0.3280000000000003,-0.4589999999999961],[0.33299999999999996,-0.5289999999999964],[0.244,-0.6700000000000017],[0.097,-0.4589999999999961],[0.041000000000000036,-0.786999999999999]],"o":[[-0.009000000000000119,0],[-0.264,-0.012999999999998124],[0.04499999999999993,-0.8590000000000018],[0.10499999999999998,-0.5049999999999955],[0.24200000000000005,-0.6659999999999968],[0.359,-0.5700000000000003],[0.3520000000000001,-0.49200000000000443],[0.16699999999999982,-0.1490000000000009],[0.17400000000000038,-0.1460000000000008],[0.4019999999999997,-0.32099999999999795],[1.1359999999999992,-0.5920000000000059],[0.4079999999999995,-0.09600000000000364],[0.9299999900000007,0.125],[0.2129999999999992,0.15800000000000125],[-0.1590000000000007,0.21399999999999864],[-0.6950000000000003,-0.5140000000000029],[-0.41600000000000037,-0.055999999999997385],[-0.9459999999999997,0.10999999999999943],[-0.3680000000000003,0.26899999999999835],[-0.14400000000000013,0.13300000000000267],[-0.16900000000000004,0.14000000000000057],[-0.5739999999999998,0.5259999999999962],[-0.4039999999999999,0.5060000000000002],[-0.329999999,0.5820000000000007],[-0.1979999998,0.4159999999999968],[-0.29600000000000004,1.0350000000000037],[-0.013000000000000012,0.2560000000000002]]}}},{"ty":"st","o":{"a":0,"k":0},"w":{"a":0,"k":0},"c":{"a":0,"k":[0,0,0,0]},"lc":3,"lj":1,"ml":1},{"ty":"fl","o":{"a":0,"k":100},"r":2,"c":{"a":0,"k":[0.7372549019607844,0.3843137254901961,0.1803921568627451,1]}},{"ty":"tr","o":{"a":0,"k":100},"a":{"a":0,"k":[0,0]},"s":{"a":0,"k":[-100,100]},"p":{"a":0,"k":[29,6]},"r":{"a":0,"k":0}}]},{"ty":"gr","nm":"hand shape group","it":[{"ty":"sh","ks":{"a":0,"k":{"c":true,"v":[[-1.26475069,26.1910139],[-0.00575068879,25.9080139],[3.51824931,25.4100139],[9.33924931,26.1420139],[9.82624931,25.3280139],[9.85924931,25.1950139],[9.92724931,24.9800139],[7.75224931,16.7480139],[1.35524931,12.8380139],[1.35024931,12.8380139],[-1.70775069,12.5450139],[-5.87475069,13.0130139],[-6.79675069,13.2170139],[-8.80375069,13.7420139],[-9.09075069,13.8340139],[-9.25875069,13.8850139],[-16.8897507,18.6950139],[-17.5677507,18.7130139],[-17.5857507,18.0350139],[-9.61875069,12.9960139],[-9.33075069,12.9060139],[-9.16275069,12.8550139],[-7.01675069,12.2830139],[-6.03475069,12.0680139],[-1.74475069,11.5880139],[1.32024931,11.8450139],[1.35124931,11.8200139],[2.70924931,5.3400139],[2.55024931,4.9490139],[2.42624931,4.6600139],[0.376249311,1.5450139],[0.365249311,1.5330139],[-0.888750689,0.490013896],[-1.25175069,0.289013896],[-4.84775069,-1.4099861],[-5.92775069,-1.6569861],[-6.31275069,-1.7369861],[-7.08875069,-1.8869861],[-11.1417507,-1.9319861],[-11.8917507,-1.8479861],[-12.9027507,-1.6819861],[-14.7817507,-1.2799861],[-14.8967507,-1.2539861],[-16.2887507,-0.892986104],[-16.9377507,-0.673986104],[-22.0057507,1.8510139],[-27.3317507,7.1870139],[-28.8847507,9.8060139],[-31.3017507,32.6460139],[-30.2627507,36.9310139],[-28.0187507,42.5600139],[-23.5697507,48.6360139],[-23.0937507,49.1030139],[-9.42575069,56.0170139],[-9.12375069,56.0410139],[1.50824931,53.1910139],[2.17024931,53.3380139],[2.02224931,54.0000139],[-8.34675069,57.0150139],[-9.22375069,56.9980139],[-9.36575069,56.9700139],[-9.49675069,56.9740139],[-23.7387507,49.8100139],[-24.2257507,49.3380139],[-28.8657507,43.0090139],[-31.1847507,37.1930139],[-32.2447507,32.8220139],[-29.7577507,9.4120139],[-28.1247507,6.6480139],[-22.5277507,1.0450139],[-17.2487507,-1.5799861],[-16.9067507,-1.6949861],[-16.5377507,-1.8209861],[-16.3227507,-1.8989861],[-15.6767507,-2.0729861],[-14.9247507,-2.2519861],[-13.0477507,-2.6289861],[-12.0557507,-2.7929861],[-11.2797507,-2.8829861],[-6.98075069,-2.8399861],[-6.08875069,-2.6679861],[-5.73675069,-2.5959861],[-4.56375069,-2.3259861],[-0.769750689,-0.538986104],[-0.405750689,-0.337986104],[0.807249311,0.621013896],[8.18124931,0.361013896],[11.5292493,3.4220139],[12.3002493,11.2630139],[14.6942493,11.9920139],[17.4432493,14.0800139],[17.9042493,14.7010139],[19.1532493,19.9900139],[15.5102493,24.8400139],[13.8252493,25.5620139],[10.6062493,25.9350139],[10.2642493,26.5130139],[12.5042493,27.9120139],[16.5062493,34.5370139],[16.5602493,34.7520139],[16.5972493,34.8750139],[14.0592493,44.3590139],[13.9432493,44.4700139],[13.8192493,44.6030139],[11.0662493,47.1750139],[10.3922493,47.1030139],[10.4652493,46.4310139],[13.0922493,43.9800139],[13.3342493,43.7300139],[15.6612493,35.0880139],[15.5662493,34.7240139],[11.8892493,28.6480139],[9.31324931,27.1580139],[9.28324931,27.1460139],[3.58324931,26.3670139],[0.129249311,26.7910139],[-1.08475069,27.0600139],[-1.99875069,27.3160139],[-3.28675069,27.8100139],[-4.15675069,28.2460139],[-6.52475069,29.8340139],[-11.4507507,36.0130139],[-12.1137507,36.1520139],[-12.2527507,35.4900139],[-7.05975069,29.0950139],[-5.01075069,27.6600139],[-3.97675069,27.1210139],[-2.38875069,26.5080139]],"i":[[-0.2809999999999999,0.07599999999999696],[-0.31000000020999996,0.06099999999999994],[-1.1439999999999997,0.07600000000000051],[-1.7309999999999999,-0.6289999999999978],[-0.11599999999999966,0.2950000000000017],[-0.014999999999998792,0.04299999999999926],[-0.0389999999999997,0.08000000000000185],[2.30299999,2.5700000000000003],[2.425,0.5820000000000007],[0.0020000000000000018,0],[0.978000001,-0.06700000000000017],[1.3090000000000002,-0.29600000000000115],[0.2859999999999996,-0.08199999999999896],[0.5960000000000001,-0.2110000000000003],[0.11500000000000021,-0.030000000000001137],[0.049999999999998934,-0.02400000000000091],[2,-2.117000000000001],[0.1930000000000014,0.18100000000000094],[-0.18200000000000216,0.1930000000000014],[-3.25500001,1.1639999999999997],[-0.11599999999999966,0.028999999999999915],[-0.05000000000000071,0.02200000000000024],[-0.7459999999999996,0.13899999999999935],[-0.39200000000000035,0.04499999999999993],[-1.504,0.0129999999999999],[-1.0569999989999999,-0.23599999999999888],[-0.009000000000000119,0.006000000000000227],[1.037,2.8180000000000005],[0.052000000000000046,0.11699999999999999],[0.03399999999999981,0.08800000000000008],[0.861999999,0.9200000000000002],[0.0030000000000000027,0.0040000000000000036],[0.39099999999999996,0.238],[0,0],[1.2319999999999998,0.42699999600000005],[0.3540000000000001,0.07299999999999995],[0,0],[0.19200000000000017,0.016000000000000014],[1.404000009999999,-0.16000000000000014],[0,0],[0,0],[0,0],[0.040000000000000924,-0.0040000000000000036],[0,0],[0,0],[1.690999999999999,-1.0700000040000002],[1.4640000000000022,-2.189],[0.4610000000000021,-0.9879999999999995],[-1.514000000000003,-8.076],[-0.4819999999999993,-1.6970000000000027],[-0.9200000000000017,-1.713000000000001],[-1.8000000000000007,-1.8079999999999998],[-0.14399999999999835,-0.11500000000000199],[-5.093000010000001,-0.37300000000000466],[-0.16800000000000104,-0.043000000000006366],[-3.223,2.040999999999997],[-0.1419999999999999,-0.22500000000000142],[0.2240000000000002,-0.14099999999999824],[3.7230000000000008,0],[0.2939999999999987,0.012000000000000455],[0.04600000000000115,0.016000000000005343],[0.027000000000001023,0.001999999999995339],[4.245000000000001,4.427999999999997],[0.18099999999999739,0.1910000000000025],[1.2369999999999983,2.363999999999997],[0.5859999999999985,2.088000000000001],[0.23199999999999932,1.2539999999999978],[-3.1999999999999993,7.264000000000001],[-0.5300000000000011,0.7720000000000002],[-2.232000000000003,1.478],[-1.796000000000003,0.6559999959999999],[0,0],[-0.13200000000000145,0.04100000000000015],[0,0],[0,0],[0,0],[0,0],[0,0],[0,0],[-1.3860000000000001,-0.19700000000000006],[-0.24499999999999922,-0.06500000000000039],[0,0],[-0.399,-0.11199999999999966],[-1.2010000010000002,-0.7309999959999999],[0,0],[-0.42,-0.403],[-2.391,-1.101],[-0.827,-1.4090000000000003],[1.036999999999999,-2.535],[-0.7679999999999989,-0.32399999999999984],[-0.7840000000000025,-0.9080000000000013],[-0.14300000000000068,-0.22299999999999898],[0.21300000000000097,-1.9819999999999993],[2.171000000000001,-1.0839999999999996],[0.6430000000000007,-0.19099999999999895],[1.1799999999999997,0.07099999999999795],[0.13100000000000023,-0.18299999999999983],[-0.7319999999999993,-0.5840000000000032],[-0.6810000000000009,-2.6819999999999986],[-0.0329999999999977,-0.0730000000000004],[-0.005000000000002558,-0.04099999999999682],[2.2219999999999995,-2.9609999999999985],[0.04499999999999993,-0.028999999999996362],[0.0730000000000004,-0.09000000000000341],[1.0669999999999984,-0.8610000000000042],[0.16699999999999982,0.20899999999999608],[-0.20700000000000074,0.16599999999999682],[-0.7410000000000014,0.8189999999999955],[-0.10200000000000031,0.08199999999999363],[0.47199999999999953,3.021000000000001],[0.007999999999999119,0.06099999999999994],[1.8160000000000007,1.5760000000000005],[0.8599999900000004,0.31400000000000006],[0.009999999999999787,0.004000000000001336],[2.111,-0.14300000000000068],[1.2439999990000001,-0.23799999999999955],[0.3110000009999999,-0.08999999999999986],[0,0],[0.4939999999999998,-0.24200000000000088],[0.12199999999999989,-0.05700000000000216],[0.6290000000000004,-0.482999999999997],[2.019000010000001,-3.0849999999999937],[0.21600000000000108,0.14500000000000313],[-0.1460000000000008,0.22099999999999653],[-1.5430000000000001,1.1659999999999968],[-0.9299999999999997,0.5100000000000016],[-0.13500000000000023,0.06400000000000006],[-0.5449999999999999,0.19699999999999918]],"o":[[0.34500000100000006,-0.0920000000000023],[1.23099999879,-0.24200000000000088],[2.1320000000000006,-0.14099999999999824],[0.20700000000000074,-0.24599999999999866],[0.006999999999999673,-0.04499999999999815],[0.012000000000000455,-0.05900000000000105],[0.8599999899999986,-2.8919999999999995],[-1.8199999999999994,-2.0139999999999993],[-0.0020000000000000018,0],[-1.051999999,-0.2579999999999991],[-1.4640000000000002,0.0129999999999999],[-0.36599999999999966,0.04299999999999926],[-0.7330000000000005,0.136000000000001],[-0.05799999999999983,0.028999999999999915],[-0.058999999999999275,0.014999999999998792],[-3.147000010000001,1.125],[-0.1819999999999986,0.19000000000000128],[-0.19200000000000017,-0.1819999999999986],[2.105999999999998,-2.2269999999999985],[0.05799999999999983,-0.026999999999999247],[0.05799999999999983,-0.016000000000000014],[0.690999999999999,-0.24799999999999933],[0.2680000000000007,-0.0779999999999994],[1.3250000000000002,-0.30100000000000016],[0.967000001,-0.06700000000000017],[0.01200000000000001,-0.009000000000000341],[1.951,-1.5429999999999993],[-0.04800000000000004,-0.14699999999999935],[-0.04599999999999982,-0.10199999999999942],[-0.4950000000000001,-1.141],[-0.003999999999999948,-0.0040000000000000036],[-0.45099999980000005,-0.4610000000000001],[0,0],[-1.159,-0.7030000000000001],[-0.35000000000000053,-0.09800000000000009],[0,0],[-0.31700000000000017,-0.08400000000000007],[-1.3319999999999999,-0.19099999999999984],[0,0],[0,0],[0,0],[-0.03700000000000081,0.014000000000000012],[0,0],[0,0],[-1.713000000000001,0.6269999997],[-2.117000000000001,1.401],[-0.5109999999999992,0.742],[-3.115999999999996,7.077000000000002],[0.2270000000000003,1.2250000000000014],[0.5680000000000014,2.0219999999999985],[1.1949999999999967,2.2819999999999965],[0.18799999999999883,0.1980000000000004],[4.120000000000001,4.292999999999999],[-0.0010000000000012221,-0.005000000000002558],[3.8369999999999997,0.15199999999999392],[0.22299999999999986,-0.142000000000003],[0.1419999999999999,0.22399999999999665],[-3.162,2.003999999999998],[-0.29100000000000037,0],[-0.04800000000000004,-0.001999999999995339],[-0.026999999999999247,0.0020000000000024443],[-5.3390000099999995,-0.392000000000003],[-0.1280000000000001,-0.09499999999999886],[-1.8930000000000007,-1.9029999999999987],[-0.9520000000000017,-1.7710000000000008],[-0.49099999999999966,-1.7279999999999944],[-1.5489999999999995,-8.269000000000002],[0.49499999999999744,-1.0649999999999995],[1.5330000000000013,-2.2909999999999995],[1.7590000000000003,-1.1120000043],[0,0],[0.11799999999999855,-0.04400000000000004],[0,0],[0,0],[0,0],[0,0],[0,0],[0,0],[1.5170000099999985,-0.16999999999999993],[0.2859999999999996,0.02300000000000013],[0,0],[0.37600000000000033,0.07800000000000029],[1.327,0.4590000000000001],[0,0],[0.39700000021,0.24399999970000003],[2.567999999,-1.2770000000000001],[1.4260000000000002,0.6510000039999999],[1.5500000000000007,2.672],[0.8229999999999986,0.1609999999999996],[1.0710000000000015,0.49799999999999933],[0.1839999999999975,0.1949999999999985],[1.0519999999999996,1.5719999999999992],[-0.24499999999999744,2.134999999999998],[-0.48099999999999987,0.2890000000000015],[-0.9849999999999994,0.31700000000000017],[-0.09800000000000075,0.2029999999999994],[0.7580000000000009,0.3460000000000001],[1.979000000000001,1.7189999999999976],[0.015999999999998238,0.10099999999999909],[0.018000000000000682,0.03900000000000148],[0.5380000000000003,3.3320000000000007],[-0.030999999999998806,0.04299999999999926],[-0.016000000000000014,0.012000000000000455],[-0.7909999999999986,0.8770000000000024],[-0.20300000000000118,0.16899999999999693],[-0.16600000000000037,-0.2049999999999983],[1.0269999999999992,-0.8300000000000054],[0.05799999999999983,-0.07200000000000273],[2.016,-2.713000000000001],[-0.07000000000000028,-0.1739999999999995],[-0.6210000000000004,-2.439],[-0.8209999999999997,-0.6559999999999988],[-0.009999999999999787,-0.004000000000001336],[-1.6700000000000008,-0.6600000000000001],[-1.0919999999999996,0.07199999999999918],[0,0],[-0.2100000000000002,0.06299999999999883],[-0.4990000000000001,0.19899999999999807],[-0.15600000000000014,0.07699999999999818],[-0.673,0.3009999999999984],[-1.351,1.0370000000000026],[-0.14700000000000024,0.22300000000000608],[-0.22199999999999953,-0.142000000000003],[2.071999999999999,-3.1679999999999993],[0.4980000000000002,-0.3760000000000012],[0.057000000000000384,-0.030999999999998806],[0.5549999999999997,-0.2640000000000029],[0.25100000000000033,-0.0920000000000023]]}}},{"ty":"sh","ks":{"a":0,"k":{"c":true,"v":[[10.9202493,24.9900139],[13.5412493,24.6480139],[15.0502493,24.0000139],[18.2012493,19.8860139],[17.1022493,15.2260139],[16.7302493,14.7200139],[14.3052493,12.8690139],[11.8002493,12.1460139],[11.4772493,12.1050139],[7.34524931,12.5410139],[6.74824931,12.2170139],[7.07124931,11.6210139],[11.3112493,11.1350139],[10.7012493,3.9060139],[7.78124931,1.2320139],[1.49124931,1.3570139],[3.31524931,4.3010139],[3.42424931,4.5560139],[3.61424931,5.0270139],[2.44024931,12.1440139],[8.46524931,16.1070139],[10.9202493,24.9900139]],"i":[[0,0],[-0.8060000000000009,0.25800000000000267],[-0.4490000000000016,0.26699999999999946],[-0.20899999999999963,1.8130000000000024],[0.9259999999999984,1.3849999999999998],[0.1529999999999987,0.16300000000000026],[0.9420000000000002,0.43900000000000006],[0.8689999999999998,0.14499999999999957],[0.12100000000000044,0.0470000000000006],[1.3320000000000007,-0.39700000000000024],[0.07599999999999962,0.2530000000000001],[-0.25399999999999956,0.07600000000000051],[-1.4399999900000005,-0.0840000000000014],[1.4369999999999994,2.477],[1.2420000000000009,0.567],[2.1950000000000003,-1.0210000040000002],[-0.46399999999999997,-1.069],[-0.03699999999999992,-0.08399999999999963],[-0.052000000000000046,-0.16199999999999992],[1.8670000000000004,-1.770999999999999],[-1.737000000000001,-1.9219999999999988],[0.843,-3.1350000000000016]],"o":[[0.9529999999999994,0.030999999999998806],[0.581999999999999,-0.17599999999999838],[1.9209999999999994,-0.9609999999999985],[0.18599999999999994,-1.75],[-0.11200000000000188,-0.1750000000000007],[-0.7160000000000011,-0.8279999999999994],[-0.7889999999999997,-0.3340000000000014],[-0.0810000000000013,0.009999999999999787],[-1.4120000000000008,-0.10299999999999976],[-0.2569999999999997,0.07200000000000095],[-0.07399999999999984,-0.25399999999999956],[1.37,-0.4079999999999995],[1.032,-2.3230000000000004],[-0.7229999899999999,-1.2320000000000002],[-2.0309999999999997,-0.9350000040000002],[0.7489999999999999,0.8889999999999998],[0.03600000000000003,0.09499999999999975],[0.06700000000000017,0.14900000000000002],[1.088,2.949],[2.2659999999999996,0.7110000000000003],[2.4739999899999994,2.7600000000000016],[0,0]]}}},{"ty":"st","o":{"a":0,"k":0},"w":{"a":0,"k":0},"c":{"a":0,"k":[0,0,0,0]},"lc":3,"lj":1,"ml":1},{"ty":"fl","o":{"a":0,"k":100},"r":2,"c":{"a":0,"k":[0.7372549019607844,0.3843137254901961,0.1803921568627451,1]}},{"ty":"tr","o":{"a":0,"k":100},"a":{"a":0,"k":[0,0]},"s":{"a":0,"k":[-100,100]},"p":{"a":0,"k":[29,6]},"r":{"a":0,"k":0}}]},{"ty":"gr","nm":"hand shape group","it":[{"ty":"sh","ks":{"a":0,"k":{"c":true,"v":[[-27.7297507,6.9200139],[-29.3197507,9.6030139],[-31.7737507,32.7340139],[-30.7237507,37.0640139],[-28.4407507,42.7870139],[-23.9087507,48.9740139],[-23.3927507,49.4780139],[-9.46175069,56.4960139],[-9.20275069,56.5170139],[1.76524931,53.5950139],[-0.284750689,47.6400139],[-0.743750689,49.0210139],[-1.24975069,51.7870139],[-0.743750689,49.0210139],[-0.284750689,47.6400139],[0.607249311,45.5950139],[1.70524931,43.9900139],[3.11724931,42.4510139],[4.14124931,41.5680139],[5.36924931,40.6620139],[8.32924931,39.7170139],[9.60424931,39.6750139],[12.0162493,40.6810139],[9.60424931,39.6750139],[8.32924931,39.7170139],[9.38924931,42.7650139],[10.7652493,46.8020139],[13.4472493,44.3020139],[13.6762493,44.0720139],[16.1252493,34.9530139],[16.0412493,34.6560139],[12.2042493,28.2870139],[9.46924931,26.7050139],[3.55124931,25.8880139],[0.0342493112,26.4370139],[-1.06675069,26.6640139],[-1.45775069,26.8100139],[-2.09675069,27.0370139],[-3.70575069,27.7280139],[-3.89775069,27.8530139],[-6.58675069,29.3830139],[-6.73475069,29.4510139],[-11.8527507,35.7520139],[-6.73475069,29.4510139],[-6.58675069,29.3830139],[-3.89775069,27.8530139],[-3.70575069,27.7280139],[-2.09675069,27.0370139],[-1.45775069,26.8100139],[-1.06675069,26.6640139],[0.0342493112,26.4370139],[3.55124931,25.8880139],[9.46924931,26.7050139],[10.2992493,25.4330139],[10.2942493,25.3850139],[10.3702493,25.1700139],[8.10824931,16.4280139],[1.46524931,12.3730139],[-1.74075069,12.0660139],[-5.98175069,12.5450139],[-6.92975069,12.7560139],[-8.96375069,13.2910139],[-9.45775069,13.4490139],[-17.2377507,18.3650139],[-9.45775069,13.4490139],[-8.96375069,13.2910139],[-6.92975069,12.7560139],[-5.98175069,12.5450139],[-1.74075069,12.0660139],[1.46524931,12.3730139],[1.64824931,12.1950139],[3.15824931,5.1760139],[2.87524931,4.4920139],[0.718249311,1.2090139],[-0.638750689,0.0820138957],[-1.01975069,-0.130986104],[-4.69075069,-1.8629861],[-6.21175069,-2.2049861],[-7.04775069,-2.3659861],[-11.1947507,-2.4079861],[-11.7497507,-2.3459861],[-12.0017507,-2.3169861],[-12.2477507,-2.2399861],[-12.2997507,-2.2329861],[-12.3497507,-2.2269861],[-12.2997507,-2.2329861],[-12.9547507,-2.1579861],[-14.7557507,-1.8029861],[-14.9507507,-1.7289861],[-15.5517507,-1.6099861],[-16.1987507,-1.4359861],[-16.3927507,-1.3639861],[-17.0837507,-1.1309861],[-22.2627507,1.4450139]],"i":[[1.443999999999999,-2.157],[0.4529999999999994,-0.9700000000000006],[-1.5390000000000015,-8.213000000000001],[-0.4220000000000006,-1.4879999999999995],[-0.907,-1.6879999999999953],[-1.7880000000000003,-1.7929999999999993],[-0.16900000000000048,-0.13300000000000267],[-5.208000009999999,-0.38300000000000267],[-0.10800000000000054,-0.036999999999999034],[-3.34,2.1159999999999997],[0,0],[0.09899999999999998,-0.4720000000000013],[0.04899999999999993,-0.9259999999999948],[-0.2570000010000001,0.8969999999999985],[-0.20700000000000002,0.43200000000000216],[-0.342,0.6020000000000039],[-0.4039999999999999,0.5060000000000002],[-0.5110000000000001,0.4650000000000034],[-0.3240000000000003,0.2910000000000039],[-0.4269999999999996,0.3049999999999997],[-0.9580000000000002,0.10699999999999932],[-0.4169999999999998,-0.05600000000000449],[-0.7799999999999994,-0.5760000000000005],[0.8309999900000005,0.10999999999999943],[0.44899999999999984,-0.10199999999999676],[0,0],[0,0],[-0.7719999999999985,0.8539999999999992],[-0.09299999999999997,0.06199999999999761],[0.5100000000000016,3.161999999999999],[0.006000000000000227,0.04899999999999949],[1.927999999999999,1.6739999999999995],[0.9619999899999989,0.3509999999999991],[2.232,-0.15000000000000213],[1.2429999988,-0.29299999999999926],[0.34800000099999984,-0.08800000000000097],[0.1439999999999999,-0.0660000000000025],[0.246,-0.08000000000000185],[0.532,-0.2630000000000017],[0.04400000000000004,-0.05600000000000094],[0.8949999999999996,-0.6630000000000003],[0.04600000000000026,-0.05699999999999861],[2.0940000100000002,-3.200000000000003],[-1.315999999999999,1.0180000000000007],[-0.051000000000000156,0.004999999999999005],[-0.9289999999999998,0.35999999999999943],[-0.04499999999999993,0.05900000000000105],[-0.5390000000000001,0.21499999999999986],[-0.19700000000000006,0.0730000000000004],[-0.14400000000000013,0.06799999999999784],[-0.3550000002,0.04100000000000037],[-1.117,0.07499999999999929],[-1.7110000000000003,-0.6780000000000008],[-0.15799999999999947,0.4280000000000008],[0,0],[-0.04399999999999871,0.05600000000000094],[2.454999990000001,2.7399999999999984],[2.467,0.5899999999999999],[1.117000001,-0.07399999999999984],[1.3470000000000004,-0.3050000000000015],[0.2989999999999995,-0.08599999999999852],[0.6379999999999999,-0.22699999999999854],[0.14699999999999847,-0.06800000000000139],[2.0569999999999986,-2.176000000000002],[-3.1450000100000004,1.1229999999999993],[-0.14700000000000024,0.06600000000000072],[-0.7000000000000002,0.12900000000000134],[-0.3519999999999994,0.0389999999999997],[-1.479,0.014000000000001123],[-0.9999999989999999,-0.24799999999999933],[-0.04600000000000004,0.05900000000000105],[1.1030000000000002,2.9940000000000007],[0.07299999999999995,0.19500000000000028],[0.868999999,0.9239999999999999],[0.495,0.3030000003],[0,0],[1.2229999999999999,0.42300000000000004],[0.46999999999999975,0.10099999999999998],[0.258,0.02200000000000024],[1.3630000100000004,-0.1549999999999998],[0.1509999999999998,-0.016999999999999904],[0.051000000000000156,-0.006000000000000227],[0.04499999999999993,-0.05500000000000016],[-0.006000000000000227,-0.04999999999999982],[0,0],[0,0],[0,0],[0.5999999999999996,-0.119],[0,0],[0.19399999999999906,-0.07400000000000007],[0,0],[0.04899999999999949,-0.0050000000000001155],[0.2469999999999999,-0.07999999999999985],[1.6700000000000017,-1.0570000039999998]],"o":[[-0.5719999999999992,0.8300000000000001],[-3.174999999999997,7.2109999999999985],[0.25900000000000034,1.4009999999999962],[0.5990000000000002,2.128999999999998],[1.2369999999999983,2.365000000000002],[0.1739999999999995,0.18599999999999994],[4.114000000000001,4.290999999999997],[0.05000000000000071,-0.003999999999997783],[3.9560000000000004,0.16799999999999926],[0,0],[-0.20700000000000002,0.43200000000000216],[-0.2570000010000001,0.8969999999999985],[0.04899999999999993,-0.9259999999999948],[0.09899999999999998,-0.4720000000000013],[0.2730000002,-0.7460000000000022],[0.347,-0.5479999999999947],[0.397,-0.5549999999999997],[0.32399999999999984,-0.29299999999999926],[0.37600000000000033,-0.2989999999999995],[1.0140000000000002,-0.5219999999999985],[0.44899999999999984,-0.10199999999999676],[0.8309999900000005,0.10999999999999943],[-0.7799999999999994,-0.5760000000000005],[-0.4169999999999998,-0.05600000000000449],[0,0],[0,0],[1.0309999999999988,-0.8299999999999983],[0.04499999999999993,-0.055999999999997385],[2.1790000000000003,-2.9040000000000035],[-0.06800000000000139,-0.14699999999999847],[-0.6440000000000001,-2.536999999999999],[-0.8410000000000011,-0.6720000000000006],[-1.7110000000000003,-0.6780000000000008],[-1.117,0.07499999999999929],[-0.3550000002,0.04100000000000037],[-0.14400000000000013,0.06799999999999784],[-0.19700000000000006,0.0730000000000004],[-0.5390000000000001,0.21499999999999986],[-0.04499999999999993,0.05900000000000105],[-0.9289999999999998,0.35999999999999943],[-0.051000000000000156,0.004999999999999005],[-1.315999999999999,1.0180000000000007],[2.0940000100000002,-3.200000000000003],[0.04600000000000026,-0.05699999999999861],[0.8949999999999996,-0.6630000000000003],[0.04400000000000004,-0.05600000000000094],[0.532,-0.2630000000000017],[0.246,-0.08000000000000185],[0.1439999999999999,-0.0660000000000025],[0.34800000099999984,-0.08800000000000097],[1.2429999988,-0.29299999999999926],[2.232,-0.15000000000000213],[0.41499999999999915,-0.40600000000000236],[0,0],[0.04399999999999871,-0.054999999999999716],[0.9329999999999998,-3.068999999999999],[-1.9289999999999994,-2.135],[-0.9999999989999999,-0.24799999999999933],[-1.479,0.014000000000001123],[-0.3519999999999994,0.0389999999999997],[-0.7000000000000002,0.12900000000000134],[-0.14700000000000024,0.06600000000000072],[-3.1450000100000004,1.1229999999999993],[2.0569999999999986,-2.176000000000002],[0.14699999999999847,-0.06800000000000139],[0.6379999999999999,-0.22699999999999854],[0.2989999999999995,-0.08599999999999852],[1.3470000000000004,-0.3050000000000015],[1.117000001,-0.07399999999999984],[0.04300000000000015,-0.058999999999999275],[2.114,-1.6679999999999993],[-0.07799999999999985,-0.24800000000000022],[-0.5489999999999999,-1.2679999999999998],[-0.408,-0.4160000039999999],[0,0],[-1.2069999999999999,-0.732],[-0.5280000000000005,-0.1469999999999998],[-0.26500000000000057,-0.07099999999999973],[-1.4029999999999996,-0.19899999999999984],[-0.20199999999999996,0.020999999999999908],[-0.10100000000000087,0.01200000000000001],[-0.10200000000000031,0.009999999999999787],[-0.058000000000001606,-0.04300000000000015],[0,0],[0,0],[0,0],[-0.6010000000000009,0.11699999999999999],[0,0],[-0.2029999999999994,0.02400000000000002],[0,0],[-0.04299999999999926,0.05499999999999994],[-0.2480000000000011,0.07899999999999996],[-1.815999999999999,0.663999996],[-2.235999999999997,1.481]]}}},{"ty":"st","o":{"a":0,"k":0},"w":{"a":0,"k":0},"c":{"a":0,"k":[0,0,0,0]},"lc":3,"lj":1,"ml":1},{"ty":"fl","o":{"a":0,"k":0},"c":{"a":0,"k":[0,0,0,0]},"r":1},{"ty":"tr","o":{"a":0,"k":100},"a":{"a":0,"k":[0,0]},"s":{"a":0,"k":[-100,100]},"p":{"a":0,"k":[29,6]},"r":{"a":0,"k":0}}]},{"ty":"gr","nm":"hand shape group","it":[{"ty":"sh","ks":{"a":0,"k":{"c":true,"v":[[-27.7297507,6.9200139],[-29.3197507,9.6030139],[-31.7737507,32.7340139],[-30.7237507,37.0640139],[-28.4407507,42.7870139],[-23.9087507,48.9740139],[-23.3927507,49.4780139],[-9.46175069,56.4960139],[-9.20275069,56.5170139],[1.76524931,53.5950139],[-0.284750689,47.6400139],[-0.743750689,49.0210139],[-1.24975069,51.7870139],[-0.743750689,49.0210139],[-0.284750689,47.6400139],[0.607249311,45.5950139],[1.70524931,43.9900139],[3.11724931,42.4510139],[4.14124931,41.5680139],[5.36924931,40.6620139],[8.32924931,39.7170139],[9.60424931,39.6750139],[12.0162493,40.6810139],[9.60424931,39.6750139],[8.32924931,39.7170139],[9.38924931,42.7650139],[10.7652493,46.8020139],[13.4472493,44.3020139],[13.6762493,44.0720139],[16.1252493,34.9530139],[16.0412493,34.6560139],[12.2042493,28.2870139],[9.46924931,26.7050139],[3.55124931,25.8880139],[0.0342493112,26.4370139],[-1.06675069,26.6640139],[-1.45775069,26.8100139],[-2.09675069,27.0370139],[-3.70575069,27.7280139],[-3.89775069,27.8530139],[-6.58675069,29.3830139],[-6.73475069,29.4510139],[-11.8527507,35.7520139],[-6.73475069,29.4510139],[-6.58675069,29.3830139],[-3.89775069,27.8530139],[-3.70575069,27.7280139],[-2.09675069,27.0370139],[-1.45775069,26.8100139],[-1.06675069,26.6640139],[0.0342493112,26.4370139],[3.55124931,25.8880139],[9.46924931,26.7050139],[10.2992493,25.4330139],[10.2942493,25.3850139],[10.3702493,25.1700139],[8.10824931,16.4280139],[1.46524931,12.3730139],[-1.74075069,12.0660139],[-5.98175069,12.5450139],[-6.92975069,12.7560139],[-8.96375069,13.2910139],[-9.45775069,13.4490139],[-17.2377507,18.3650139],[-9.45775069,13.4490139],[-8.96375069,13.2910139],[-6.92975069,12.7560139],[-5.98175069,12.5450139],[-1.74075069,12.0660139],[1.46524931,12.3730139],[1.64824931,12.1950139],[3.15824931,5.1760139],[2.87524931,4.4920139],[0.718249311,1.2090139],[-0.638750689,0.0820138957],[-1.01975069,-0.130986104],[-4.69075069,-1.8629861],[-6.21175069,-2.2049861],[-7.04775069,-2.3659861],[-11.1947507,-2.4079861],[-11.7497507,-2.3459861],[-12.0017507,-2.3169861],[-12.2477507,-2.2399861],[-12.2997507,-2.2329861],[-12.3497507,-2.2269861],[-12.2997507,-2.2329861],[-12.9547507,-2.1579861],[-14.7557507,-1.8029861],[-14.9507507,-1.7289861],[-15.5517507,-1.6099861],[-16.1987507,-1.4359861],[-16.3927507,-1.3639861],[-17.0837507,-1.1309861],[-22.2627507,1.4450139]],"i":[[1.443999999999999,-2.157],[0.4529999999999994,-0.9700000000000006],[-1.5390000000000015,-8.213000000000001],[-0.4220000000000006,-1.4879999999999995],[-0.907,-1.6879999999999953],[-1.7880000000000003,-1.7929999999999993],[-0.16900000000000048,-0.13300000000000267],[-5.208000009999999,-0.38300000000000267],[-0.10800000000000054,-0.036999999999999034],[-3.34,2.1159999999999997],[0,0],[0.09899999999999998,-0.4720000000000013],[0.04899999999999993,-0.9259999999999948],[-0.2570000010000001,0.8969999999999985],[-0.20700000000000002,0.43200000000000216],[-0.342,0.6020000000000039],[-0.4039999999999999,0.5060000000000002],[-0.5110000000000001,0.4650000000000034],[-0.3240000000000003,0.2910000000000039],[-0.4269999999999996,0.3049999999999997],[-0.9580000000000002,0.10699999999999932],[-0.4169999999999998,-0.05600000000000449],[-0.7799999999999994,-0.5760000000000005],[0.8309999900000005,0.10999999999999943],[0.44899999999999984,-0.10199999999999676],[0,0],[0,0],[-0.7719999999999985,0.8539999999999992],[-0.09299999999999997,0.06199999999999761],[0.5100000000000016,3.161999999999999],[0.006000000000000227,0.04899999999999949],[1.927999999999999,1.6739999999999995],[0.9619999899999989,0.3509999999999991],[2.232,-0.15000000000000213],[1.2429999988,-0.29299999999999926],[0.34800000099999984,-0.08800000000000097],[0.1439999999999999,-0.0660000000000025],[0.246,-0.08000000000000185],[0.532,-0.2630000000000017],[0.04400000000000004,-0.05600000000000094],[0.8949999999999996,-0.6630000000000003],[0.04600000000000026,-0.05699999999999861],[2.0940000100000002,-3.200000000000003],[-1.315999999999999,1.0180000000000007],[-0.051000000000000156,0.004999999999999005],[-0.9289999999999998,0.35999999999999943],[-0.04499999999999993,0.05900000000000105],[-0.5390000000000001,0.21499999999999986],[-0.19700000000000006,0.0730000000000004],[-0.14400000000000013,0.06799999999999784],[-0.3550000002,0.04100000000000037],[-1.117,0.07499999999999929],[-1.7110000000000003,-0.6780000000000008],[-0.15799999999999947,0.4280000000000008],[0,0],[-0.04399999999999871,0.05600000000000094],[2.454999990000001,2.7399999999999984],[2.467,0.5899999999999999],[1.117000001,-0.07399999999999984],[1.3470000000000004,-0.3050000000000015],[0.2989999999999995,-0.08599999999999852],[0.6379999999999999,-0.22699999999999854],[0.14699999999999847,-0.06800000000000139],[2.0569999999999986,-2.176000000000002],[-3.1450000100000004,1.1229999999999993],[-0.14700000000000024,0.06600000000000072],[-0.7000000000000002,0.12900000000000134],[-0.3519999999999994,0.0389999999999997],[-1.479,0.014000000000001123],[-0.9999999989999999,-0.24799999999999933],[-0.04600000000000004,0.05900000000000105],[1.1030000000000002,2.9940000000000007],[0.07299999999999995,0.19500000000000028],[0.868999999,0.9239999999999999],[0.495,0.3030000003],[0,0],[1.2229999999999999,0.42300000000000004],[0.46999999999999975,0.10099999999999998],[0.258,0.02200000000000024],[1.3630000100000004,-0.1549999999999998],[0.1509999999999998,-0.016999999999999904],[0.051000000000000156,-0.006000000000000227],[0.04499999999999993,-0.05500000000000016],[-0.006000000000000227,-0.04999999999999982],[0,0],[0,0],[0,0],[0.5999999999999996,-0.119],[0,0],[0.19399999999999906,-0.07400000000000007],[0,0],[0.04899999999999949,-0.0050000000000001155],[0.2469999999999999,-0.07999999999999985],[1.6700000000000017,-1.0570000039999998]],"o":[[-0.5719999999999992,0.8300000000000001],[-3.174999999999997,7.2109999999999985],[0.25900000000000034,1.4009999999999962],[0.5990000000000002,2.128999999999998],[1.2369999999999983,2.365000000000002],[0.1739999999999995,0.18599999999999994],[4.114000000000001,4.290999999999997],[0.05000000000000071,-0.003999999999997783],[3.9560000000000004,0.16799999999999926],[0,0],[-0.20700000000000002,0.43200000000000216],[-0.2570000010000001,0.8969999999999985],[0.04899999999999993,-0.9259999999999948],[0.09899999999999998,-0.4720000000000013],[0.2730000002,-0.7460000000000022],[0.347,-0.5479999999999947],[0.397,-0.5549999999999997],[0.32399999999999984,-0.29299999999999926],[0.37600000000000033,-0.2989999999999995],[1.0140000000000002,-0.5219999999999985],[0.44899999999999984,-0.10199999999999676],[0.8309999900000005,0.10999999999999943],[-0.7799999999999994,-0.5760000000000005],[-0.4169999999999998,-0.05600000000000449],[0,0],[0,0],[1.0309999999999988,-0.8299999999999983],[0.04499999999999993,-0.055999999999997385],[2.1790000000000003,-2.9040000000000035],[-0.06800000000000139,-0.14699999999999847],[-0.6440000000000001,-2.536999999999999],[-0.8410000000000011,-0.6720000000000006],[-1.7110000000000003,-0.6780000000000008],[-1.117,0.07499999999999929],[-0.3550000002,0.04100000000000037],[-0.14400000000000013,0.06799999999999784],[-0.19700000000000006,0.0730000000000004],[-0.5390000000000001,0.21499999999999986],[-0.04499999999999993,0.05900000000000105],[-0.9289999999999998,0.35999999999999943],[-0.051000000000000156,0.004999999999999005],[-1.315999999999999,1.0180000000000007],[2.0940000100000002,-3.200000000000003],[0.04600000000000026,-0.05699999999999861],[0.8949999999999996,-0.6630000000000003],[0.04400000000000004,-0.05600000000000094],[0.532,-0.2630000000000017],[0.246,-0.08000000000000185],[0.1439999999999999,-0.0660000000000025],[0.34800000099999984,-0.08800000000000097],[1.2429999988,-0.29299999999999926],[2.232,-0.15000000000000213],[0.41499999999999915,-0.40600000000000236],[0,0],[0.04399999999999871,-0.054999999999999716],[0.9329999999999998,-3.068999999999999],[-1.9289999999999994,-2.135],[-0.9999999989999999,-0.24799999999999933],[-1.479,0.014000000000001123],[-0.3519999999999994,0.0389999999999997],[-0.7000000000000002,0.12900000000000134],[-0.14700000000000024,0.06600000000000072],[-3.1450000100000004,1.1229999999999993],[2.0569999999999986,-2.176000000000002],[0.14699999999999847,-0.06800000000000139],[0.6379999999999999,-0.22699999999999854],[0.2989999999999995,-0.08599999999999852],[1.3470000000000004,-0.3050000000000015],[1.117000001,-0.07399999999999984],[0.04300000000000015,-0.058999999999999275],[2.114,-1.6679999999999993],[-0.07799999999999985,-0.24800000000000022],[-0.5489999999999999,-1.2679999999999998],[-0.408,-0.4160000039999999],[0,0],[-1.2069999999999999,-0.732],[-0.5280000000000005,-0.1469999999999998],[-0.26500000000000057,-0.07099999999999973],[-1.4029999999999996,-0.19899999999999984],[-0.20199999999999996,0.020999999999999908],[-0.10100000000000087,0.01200000000000001],[-0.10200000000000031,0.009999999999999787],[-0.058000000000001606,-0.04300000000000015],[0,0],[0,0],[0,0],[-0.6010000000000009,0.11699999999999999],[0,0],[-0.2029999999999994,0.02400000000000002],[0,0],[-0.04299999999999926,0.05499999999999994],[-0.2480000000000011,0.07899999999999996],[-1.815999999999999,0.663999996],[-2.235999999999997,1.481]]}}},{"ty":"st","o":{"a":0,"k":0},"w":{"a":0,"k":0},"c":{"a":0,"k":[0,0,0,0]},"lc":3,"lj":1,"ml":1},{"ty":"fl","o":{"a":0,"k":0},"c":{"a":0,"k":[0,0,0,0]},"r":1},{"ty":"tr","o":{"a":0,"k":100},"a":{"a":0,"k":[0,0]},"s":{"a":0,"k":[100,100]},"p":{"a":0,"k":[0,0]},"r":{"a":0,"k":0}}]},{"ty":"gr","nm":"hand shape group","it":[{"ty":"sh","ks":{"a":0,"k":{"c":true,"v":[[-27.7297507,6.9200139],[-29.3197507,9.6030139],[-31.7737507,32.7340139],[-30.7237507,37.0640139],[-28.4407507,42.7870139],[-23.9087507,48.9740139],[-23.3927507,49.4780139],[-9.46175069,56.4960139],[-9.20275069,56.5170139],[1.76524931,53.5950139],[-0.284750689,47.6400139],[-0.743750689,49.0210139],[-1.24975069,51.7870139],[-0.743750689,49.0210139],[-0.284750689,47.6400139],[0.607249311,45.5950139],[1.70524931,43.9900139],[3.11724931,42.4510139],[4.14124931,41.5680139],[5.36924931,40.6620139],[8.32924931,39.7170139],[9.60424931,39.6750139],[12.0162493,40.6810139],[9.60424931,39.6750139],[8.32924931,39.7170139],[9.38924931,42.7650139],[10.7652493,46.8020139],[13.4472493,44.3020139],[13.6762493,44.0720139],[16.1252493,34.9530139],[16.0412493,34.6560139],[12.2042493,28.2870139],[9.46924931,26.7050139],[3.55124931,25.8880139],[0.0342493112,26.4370139],[-1.06675069,26.6640139],[-1.45775069,26.8100139],[-2.09675069,27.0370139],[-3.70575069,27.7280139],[-3.89775069,27.8530139],[-6.58675069,29.3830139],[-6.73475069,29.4510139],[-11.8527507,35.7520139],[-6.73475069,29.4510139],[-6.58675069,29.3830139],[-3.89775069,27.8530139],[-3.70575069,27.7280139],[-2.09675069,27.0370139],[-1.45775069,26.8100139],[-1.06675069,26.6640139],[0.0342493112,26.4370139],[3.55124931,25.8880139],[9.46924931,26.7050139],[10.2992493,25.4330139],[10.2942493,25.3850139],[10.3702493,25.1700139],[8.10824931,16.4280139],[1.46524931,12.3730139],[-1.74075069,12.0660139],[-5.98175069,12.5450139],[-6.92975069,12.7560139],[-8.96375069,13.2910139],[-9.45775069,13.4490139],[-17.2377507,18.3650139],[-9.45775069,13.4490139],[-8.96375069,13.2910139],[-6.92975069,12.7560139],[-5.98175069,12.5450139],[-1.74075069,12.0660139],[1.46524931,12.3730139],[1.64824931,12.1950139],[3.15824931,5.1760139],[2.87524931,4.4920139],[0.718249311,1.2090139],[-0.638750689,0.0820138957],[-1.01975069,-0.130986104],[-4.69075069,-1.8629861],[-6.21175069,-2.2049861],[-7.04775069,-2.3659861],[-11.1947507,-2.4079861],[-11.7497507,-2.3459861],[-12.0017507,-2.3169861],[-12.2477507,-2.2399861],[-12.2997507,-2.2329861],[-12.3497507,-2.2269861],[-12.2997507,-2.2329861],[-12.9547507,-2.1579861],[-14.7557507,-1.8029861],[-14.9507507,-1.7289861],[-15.5517507,-1.6099861],[-16.1987507,-1.4359861],[-16.3927507,-1.3639861],[-17.0837507,-1.1309861],[-22.2627507,1.4450139]],"i":[[1.443999999999999,-2.157],[0.4529999999999994,-0.9700000000000006],[-1.5390000000000015,-8.213000000000001],[-0.4220000000000006,-1.4879999999999995],[-0.907,-1.6879999999999953],[-1.7880000000000003,-1.7929999999999993],[-0.16900000000000048,-0.13300000000000267],[-5.208000009999999,-0.38300000000000267],[-0.10800000000000054,-0.036999999999999034],[-3.34,2.1159999999999997],[0,0],[0.09899999999999998,-0.4720000000000013],[0.04899999999999993,-0.9259999999999948],[-0.2570000010000001,0.8969999999999985],[-0.20700000000000002,0.43200000000000216],[-0.342,0.6020000000000039],[-0.4039999999999999,0.5060000000000002],[-0.5110000000000001,0.4650000000000034],[-0.3240000000000003,0.2910000000000039],[-0.4269999999999996,0.3049999999999997],[-0.9580000000000002,0.10699999999999932],[-0.4169999999999998,-0.05600000000000449],[-0.7799999999999994,-0.5760000000000005],[0.8309999900000005,0.10999999999999943],[0.44899999999999984,-0.10199999999999676],[0,0],[0,0],[-0.7719999999999985,0.8539999999999992],[-0.09299999999999997,0.06199999999999761],[0.5100000000000016,3.161999999999999],[0.006000000000000227,0.04899999999999949],[1.927999999999999,1.6739999999999995],[0.9619999899999989,0.3509999999999991],[2.232,-0.15000000000000213],[1.2429999988,-0.29299999999999926],[0.34800000099999984,-0.08800000000000097],[0.1439999999999999,-0.0660000000000025],[0.246,-0.08000000000000185],[0.532,-0.2630000000000017],[0.04400000000000004,-0.05600000000000094],[0.8949999999999996,-0.6630000000000003],[0.04600000000000026,-0.05699999999999861],[2.0940000100000002,-3.200000000000003],[-1.315999999999999,1.0180000000000007],[-0.051000000000000156,0.004999999999999005],[-0.9289999999999998,0.35999999999999943],[-0.04499999999999993,0.05900000000000105],[-0.5390000000000001,0.21499999999999986],[-0.19700000000000006,0.0730000000000004],[-0.14400000000000013,0.06799999999999784],[-0.3550000002,0.04100000000000037],[-1.117,0.07499999999999929],[-1.7110000000000003,-0.6780000000000008],[-0.15799999999999947,0.4280000000000008],[0,0],[-0.04399999999999871,0.05600000000000094],[2.454999990000001,2.7399999999999984],[2.467,0.5899999999999999],[1.117000001,-0.07399999999999984],[1.3470000000000004,-0.3050000000000015],[0.2989999999999995,-0.08599999999999852],[0.6379999999999999,-0.22699999999999854],[0.14699999999999847,-0.06800000000000139],[2.0569999999999986,-2.176000000000002],[-3.1450000100000004,1.1229999999999993],[-0.14700000000000024,0.06600000000000072],[-0.7000000000000002,0.12900000000000134],[-0.3519999999999994,0.0389999999999997],[-1.479,0.014000000000001123],[-0.9999999989999999,-0.24799999999999933],[-0.04600000000000004,0.05900000000000105],[1.1030000000000002,2.9940000000000007],[0.07299999999999995,0.19500000000000028],[0.868999999,0.9239999999999999],[0.495,0.3030000003],[0,0],[1.2229999999999999,0.42300000000000004],[0.46999999999999975,0.10099999999999998],[0.258,0.02200000000000024],[1.3630000100000004,-0.1549999999999998],[0.1509999999999998,-0.016999999999999904],[0.051000000000000156,-0.006000000000000227],[0.04499999999999993,-0.05500000000000016],[-0.006000000000000227,-0.04999999999999982],[0,0],[0,0],[0,0],[0.5999999999999996,-0.119],[0,0],[0.19399999999999906,-0.07400000000000007],[0,0],[0.04899999999999949,-0.0050000000000001155],[0.2469999999999999,-0.07999999999999985],[1.6700000000000017,-1.0570000039999998]],"o":[[-0.5719999999999992,0.8300000000000001],[-3.174999999999997,7.2109999999999985],[0.25900000000000034,1.4009999999999962],[0.5990000000000002,2.128999999999998],[1.2369999999999983,2.365000000000002],[0.1739999999999995,0.18599999999999994],[4.114000000000001,4.290999999999997],[0.05000000000000071,-0.003999999999997783],[3.9560000000000004,0.16799999999999926],[0,0],[-0.20700000000000002,0.43200000000000216],[-0.2570000010000001,0.8969999999999985],[0.04899999999999993,-0.9259999999999948],[0.09899999999999998,-0.4720000000000013],[0.2730000002,-0.7460000000000022],[0.347,-0.5479999999999947],[0.397,-0.5549999999999997],[0.32399999999999984,-0.29299999999999926],[0.37600000000000033,-0.2989999999999995],[1.0140000000000002,-0.5219999999999985],[0.44899999999999984,-0.10199999999999676],[0.8309999900000005,0.10999999999999943],[-0.7799999999999994,-0.5760000000000005],[-0.4169999999999998,-0.05600000000000449],[0,0],[0,0],[1.0309999999999988,-0.8299999999999983],[0.04499999999999993,-0.055999999999997385],[2.1790000000000003,-2.9040000000000035],[-0.06800000000000139,-0.14699999999999847],[-0.6440000000000001,-2.536999999999999],[-0.8410000000000011,-0.6720000000000006],[-1.7110000000000003,-0.6780000000000008],[-1.117,0.07499999999999929],[-0.3550000002,0.04100000000000037],[-0.14400000000000013,0.06799999999999784],[-0.19700000000000006,0.0730000000000004],[-0.5390000000000001,0.21499999999999986],[-0.04499999999999993,0.05900000000000105],[-0.9289999999999998,0.35999999999999943],[-0.051000000000000156,0.004999999999999005],[-1.315999999999999,1.0180000000000007],[2.0940000100000002,-3.200000000000003],[0.04600000000000026,-0.05699999999999861],[0.8949999999999996,-0.6630000000000003],[0.04400000000000004,-0.05600000000000094],[0.532,-0.2630000000000017],[0.246,-0.08000000000000185],[0.1439999999999999,-0.0660000000000025],[0.34800000099999984,-0.08800000000000097],[1.2429999988,-0.29299999999999926],[2.232,-0.15000000000000213],[0.41499999999999915,-0.40600000000000236],[0,0],[0.04399999999999871,-0.054999999999999716],[0.9329999999999998,-3.068999999999999],[-1.9289999999999994,-2.135],[-0.9999999989999999,-0.24799999999999933],[-1.479,0.014000000000001123],[-0.3519999999999994,0.0389999999999997],[-0.7000000000000002,0.12900000000000134],[-0.14700000000000024,0.06600000000000072],[-3.1450000100000004,1.1229999999999993],[2.0569999999999986,-2.176000000000002],[0.14699999999999847,-0.06800000000000139],[0.6379999999999999,-0.22699999999999854],[0.2989999999999995,-0.08599999999999852],[1.3470000000000004,-0.3050000000000015],[1.117000001,-0.07399999999999984],[0.04300000000000015,-0.058999999999999275],[2.114,-1.6679999999999993],[-0.07799999999999985,-0.24800000000000022],[-0.5489999999999999,-1.2679999999999998],[-0.408,-0.4160000039999999],[0,0],[-1.2069999999999999,-0.732],[-0.5280000000000005,-0.1469999999999998],[-0.26500000000000057,-0.07099999999999973],[-1.4029999999999996,-0.19899999999999984],[-0.20199999999999996,0.020999999999999908],[-0.10100000000000087,0.01200000000000001],[-0.10200000000000031,0.009999999999999787],[-0.058000000000001606,-0.04300000000000015],[0,0],[0,0],[0,0],[-0.6010000000000009,0.11699999999999999],[0,0],[-0.2029999999999994,0.02400000000000002],[0,0],[-0.04299999999999926,0.05499999999999994],[-0.2480000000000011,0.07899999999999996],[-1.815999999999999,0.663999996],[-2.235999999999997,1.481]]}}},{"ty":"st","o":{"a":0,"k":0},"w":{"a":0,"k":0},"c":{"a":0,"k":[0,0,0,0]},"lc":3,"lj":1,"ml":1},{"ty":"fl","o":{"a":0,"k":0},"c":{"a":0,"k":[0,0,0,0]},"r":1},{"ty":"tr","o":{"a":0,"k":100},"a":{"a":0,"k":[0,0]},"s":{"a":0,"k":[-100,100]},"p":{"a":0,"k":[29,6]},"r":{"a":0,"k":0}}]},{"ty":"gr","nm":"hand shape group","it":[{"ty":"sh","ks":{"a":0,"k":{"c":true,"v":[[-27.7297507,6.9200139],[-29.3197507,9.6030139],[-31.7737507,32.7340139],[-30.7237507,37.0640139],[-28.4407507,42.7870139],[-23.9087507,48.9740139],[-23.3927507,49.4780139],[-9.46175069,56.4960139],[-9.20275069,56.5170139],[1.76524931,53.5950139],[-0.284750689,47.6400139],[-0.743750689,49.0210139],[-1.24975069,51.7870139],[-0.743750689,49.0210139],[-0.284750689,47.6400139],[0.607249311,45.5950139],[1.70524931,43.9900139],[3.11724931,42.4510139],[4.14124931,41.5680139],[5.36924931,40.6620139],[8.32924931,39.7170139],[9.60424931,39.6750139],[12.0162493,40.6810139],[9.60424931,39.6750139],[8.32924931,39.7170139],[9.38924931,42.7650139],[10.7652493,46.8020139],[13.4472493,44.3020139],[13.6762493,44.0720139],[16.1252493,34.9530139],[16.0412493,34.6560139],[12.2042493,28.2870139],[9.46924931,26.7050139],[3.55124931,25.8880139],[0.0342493112,26.4370139],[-1.06675069,26.6640139],[-1.45775069,26.8100139],[-2.09675069,27.0370139],[-3.70575069,27.7280139],[-3.89775069,27.8530139],[-6.58675069,29.3830139],[-6.73475069,29.4510139],[-11.8527507,35.7520139],[-6.73475069,29.4510139],[-6.58675069,29.3830139],[-3.89775069,27.8530139],[-3.70575069,27.7280139],[-2.09675069,27.0370139],[-1.45775069,26.8100139],[-1.06675069,26.6640139],[0.0342493112,26.4370139],[3.55124931,25.8880139],[9.46924931,26.7050139],[10.2992493,25.4330139],[10.2942493,25.3850139],[10.3702493,25.1700139],[8.10824931,16.4280139],[1.46524931,12.3730139],[-1.74075069,12.0660139],[-5.98175069,12.5450139],[-6.92975069,12.7560139],[-8.96375069,13.2910139],[-9.45775069,13.4490139],[-17.2377507,18.3650139],[-9.45775069,13.4490139],[-8.96375069,13.2910139],[-6.92975069,12.7560139],[-5.98175069,12.5450139],[-1.74075069,12.0660139],[1.46524931,12.3730139],[1.64824931,12.1950139],[3.15824931,5.1760139],[2.87524931,4.4920139],[0.718249311,1.2090139],[-0.638750689,0.0820138957],[-1.01975069,-0.130986104],[-4.69075069,-1.8629861],[-6.21175069,-2.2049861],[-7.04775069,-2.3659861],[-11.1947507,-2.4079861],[-11.7497507,-2.3459861],[-12.0017507,-2.3169861],[-12.2477507,-2.2399861],[-12.2997507,-2.2329861],[-12.3497507,-2.2269861],[-12.2997507,-2.2329861],[-12.9547507,-2.1579861],[-14.7557507,-1.8029861],[-14.9507507,-1.7289861],[-15.5517507,-1.6099861],[-16.1987507,-1.4359861],[-16.3927507,-1.3639861],[-17.0837507,-1.1309861],[-22.2627507,1.4450139]],"i":[[1.443999999999999,-2.157],[0.4529999999999994,-0.9700000000000006],[-1.5390000000000015,-8.213000000000001],[-0.4220000000000006,-1.4879999999999995],[-0.907,-1.6879999999999953],[-1.7880000000000003,-1.7929999999999993],[-0.16900000000000048,-0.13300000000000267],[-5.208000009999999,-0.38300000000000267],[-0.10800000000000054,-0.036999999999999034],[-3.34,2.1159999999999997],[0,0],[0.09899999999999998,-0.4720000000000013],[0.04899999999999993,-0.9259999999999948],[-0.2570000010000001,0.8969999999999985],[-0.20700000000000002,0.43200000000000216],[-0.342,0.6020000000000039],[-0.4039999999999999,0.5060000000000002],[-0.5110000000000001,0.4650000000000034],[-0.3240000000000003,0.2910000000000039],[-0.4269999999999996,0.3049999999999997],[-0.9580000000000002,0.10699999999999932],[-0.4169999999999998,-0.05600000000000449],[-0.7799999999999994,-0.5760000000000005],[0.8309999900000005,0.10999999999999943],[0.44899999999999984,-0.10199999999999676],[0,0],[0,0],[-0.7719999999999985,0.8539999999999992],[-0.09299999999999997,0.06199999999999761],[0.5100000000000016,3.161999999999999],[0.006000000000000227,0.04899999999999949],[1.927999999999999,1.6739999999999995],[0.9619999899999989,0.3509999999999991],[2.232,-0.15000000000000213],[1.2429999988,-0.29299999999999926],[0.34800000099999984,-0.08800000000000097],[0.1439999999999999,-0.0660000000000025],[0.246,-0.08000000000000185],[0.532,-0.2630000000000017],[0.04400000000000004,-0.05600000000000094],[0.8949999999999996,-0.6630000000000003],[0.04600000000000026,-0.05699999999999861],[2.0940000100000002,-3.200000000000003],[-1.315999999999999,1.0180000000000007],[-0.051000000000000156,0.004999999999999005],[-0.9289999999999998,0.35999999999999943],[-0.04499999999999993,0.05900000000000105],[-0.5390000000000001,0.21499999999999986],[-0.19700000000000006,0.0730000000000004],[-0.14400000000000013,0.06799999999999784],[-0.3550000002,0.04100000000000037],[-1.117,0.07499999999999929],[-1.7110000000000003,-0.6780000000000008],[-0.15799999999999947,0.4280000000000008],[0,0],[-0.04399999999999871,0.05600000000000094],[2.454999990000001,2.7399999999999984],[2.467,0.5899999999999999],[1.117000001,-0.07399999999999984],[1.3470000000000004,-0.3050000000000015],[0.2989999999999995,-0.08599999999999852],[0.6379999999999999,-0.22699999999999854],[0.14699999999999847,-0.06800000000000139],[2.0569999999999986,-2.176000000000002],[-3.1450000100000004,1.1229999999999993],[-0.14700000000000024,0.06600000000000072],[-0.7000000000000002,0.12900000000000134],[-0.3519999999999994,0.0389999999999997],[-1.479,0.014000000000001123],[-0.9999999989999999,-0.24799999999999933],[-0.04600000000000004,0.05900000000000105],[1.1030000000000002,2.9940000000000007],[0.07299999999999995,0.19500000000000028],[0.868999999,0.9239999999999999],[0.495,0.3030000003],[0,0],[1.2229999999999999,0.42300000000000004],[0.46999999999999975,0.10099999999999998],[0.258,0.02200000000000024],[1.3630000100000004,-0.1549999999999998],[0.1509999999999998,-0.016999999999999904],[0.051000000000000156,-0.006000000000000227],[0.04499999999999993,-0.05500000000000016],[-0.006000000000000227,-0.04999999999999982],[0,0],[0,0],[0,0],[0.5999999999999996,-0.119],[0,0],[0.19399999999999906,-0.07400000000000007],[0,0],[0.04899999999999949,-0.0050000000000001155],[0.2469999999999999,-0.07999999999999985],[1.6700000000000017,-1.0570000039999998]],"o":[[-0.5719999999999992,0.8300000000000001],[-3.174999999999997,7.2109999999999985],[0.25900000000000034,1.4009999999999962],[0.5990000000000002,2.128999999999998],[1.2369999999999983,2.365000000000002],[0.1739999999999995,0.18599999999999994],[4.114000000000001,4.290999999999997],[0.05000000000000071,-0.003999999999997783],[3.9560000000000004,0.16799999999999926],[0,0],[-0.20700000000000002,0.43200000000000216],[-0.2570000010000001,0.8969999999999985],[0.04899999999999993,-0.9259999999999948],[0.09899999999999998,-0.4720000000000013],[0.2730000002,-0.7460000000000022],[0.347,-0.5479999999999947],[0.397,-0.5549999999999997],[0.32399999999999984,-0.29299999999999926],[0.37600000000000033,-0.2989999999999995],[1.0140000000000002,-0.5219999999999985],[0.44899999999999984,-0.10199999999999676],[0.8309999900000005,0.10999999999999943],[-0.7799999999999994,-0.5760000000000005],[-0.4169999999999998,-0.05600000000000449],[0,0],[0,0],[1.0309999999999988,-0.8299999999999983],[0.04499999999999993,-0.055999999999997385],[2.1790000000000003,-2.9040000000000035],[-0.06800000000000139,-0.14699999999999847],[-0.6440000000000001,-2.536999999999999],[-0.8410000000000011,-0.6720000000000006],[-1.7110000000000003,-0.6780000000000008],[-1.117,0.07499999999999929],[-0.3550000002,0.04100000000000037],[-0.14400000000000013,0.06799999999999784],[-0.19700000000000006,0.0730000000000004],[-0.5390000000000001,0.21499999999999986],[-0.04499999999999993,0.05900000000000105],[-0.9289999999999998,0.35999999999999943],[-0.051000000000000156,0.004999999999999005],[-1.315999999999999,1.0180000000000007],[2.0940000100000002,-3.200000000000003],[0.04600000000000026,-0.05699999999999861],[0.8949999999999996,-0.6630000000000003],[0.04400000000000004,-0.05600000000000094],[0.532,-0.2630000000000017],[0.246,-0.08000000000000185],[0.1439999999999999,-0.0660000000000025],[0.34800000099999984,-0.08800000000000097],[1.2429999988,-0.29299999999999926],[2.232,-0.15000000000000213],[0.41499999999999915,-0.40600000000000236],[0,0],[0.04399999999999871,-0.054999999999999716],[0.9329999999999998,-3.068999999999999],[-1.9289999999999994,-2.135],[-0.9999999989999999,-0.24799999999999933],[-1.479,0.014000000000001123],[-0.3519999999999994,0.0389999999999997],[-0.7000000000000002,0.12900000000000134],[-0.14700000000000024,0.06600000000000072],[-3.1450000100000004,1.1229999999999993],[2.0569999999999986,-2.176000000000002],[0.14699999999999847,-0.06800000000000139],[0.6379999999999999,-0.22699999999999854],[0.2989999999999995,-0.08599999999999852],[1.3470000000000004,-0.3050000000000015],[1.117000001,-0.07399999999999984],[0.04300000000000015,-0.058999999999999275],[2.114,-1.6679999999999993],[-0.07799999999999985,-0.24800000000000022],[-0.5489999999999999,-1.2679999999999998],[-0.408,-0.4160000039999999],[0,0],[-1.2069999999999999,-0.732],[-0.5280000000000005,-0.1469999999999998],[-0.26500000000000057,-0.07099999999999973],[-1.4029999999999996,-0.19899999999999984],[-0.20199999999999996,0.020999999999999908],[-0.10100000000000087,0.01200000000000001],[-0.10200000000000031,0.009999999999999787],[-0.058000000000001606,-0.04300000000000015],[0,0],[0,0],[0,0],[-0.6010000000000009,0.11699999999999999],[0,0],[-0.2029999999999994,0.02400000000000002],[0,0],[-0.04299999999999926,0.05499999999999994],[-0.2480000000000011,0.07899999999999996],[-1.815999999999999,0.663999996],[-2.235999999999997,1.481]]}}},{"ty":"st","o":{"a":0,"k":0},"w":{"a":0,"k":0},"c":{"a":0,"k":[0,0,0,0]},"lc":3,"lj":1,"ml":1},{"ty":"fl","o":{"a":0,"k":0},"c":{"a":0,"k":[0,0,0,0]},"r":1},{"ty":"tr","o":{"a":0,"k":100},"a":{"a":0,"k":[0,0]},"s":{"a":0,"k":[100,100]},"p":{"a":0,"k":[0,0]},"r":{"a":0,"k":0}}]},{"ty":"gr","nm":"hand shape group","it":[{"ty":"sh","ks":{"a":0,"k":{"c":true,"v":[[13.8882493,55.9100139],[10.7652493,46.8020139],[9.38924931,42.7650139],[5.34924931,45.0110139],[11.0082493,61.1930139],[11.8922493,60.8900139],[13.7092493,59.7650139]],"i":[[0.5969999999999995,1.6699999999999946],[0,0],[0,0],[1.1069999999999993,-1.5050000000000026],[0,0],[0,0],[-0.35299999999999976,0.49799999999999756]],"o":[[0,0],[0,0],[-1.5830000000000002,0.026000000000003354],[0,0],[0,0],[0.8410000000000011,-0.25],[0.7160000000000011,-0.8999999999999986]]}}},{"ty":"st","o":{"a":0,"k":0},"w":{"a":0,"k":0},"c":{"a":0,"k":[0,0,0,0]},"lc":3,"lj":1,"ml":1},{"ty":"fl","o":{"a":0,"k":100},"r":2,"c":{"a":0,"k":[0.984313725490196,0.8666666666666667,0.5294117647058824,1]}},{"ty":"tr","o":{"a":0,"k":100},"a":{"a":0,"k":[0,0]},"s":{"a":0,"k":[-100,100]},"p":{"a":0,"k":[29,6]},"r":{"a":0,"k":0}}]},{"ty":"gr","nm":"hand shape group","it":[{"ty":"sh","ks":{"a":0,"k":{"c":true,"v":[[9.65624931,43.4070139],[8.32924931,39.7170139],[5.36924931,40.6620139],[4.14124931,41.5680139],[3.11724931,42.4510139],[1.70524931,43.9900139],[0.607249311,45.5950139],[-0.284750689,47.6400139],[1.76524931,53.5950139],[1.85024931,53.8920139],[1.85524931,53.9430139],[3.75524931,59.4550139],[6.22224931,62.2970139],[8.05124931,62.1910139],[8.29924931,62.1130139],[12.1152493,60.9070139],[6.32324931,45.6150139],[9.49024931,43.5730139]],"i":[[0,0],[0,0],[1.0140000000000002,-0.5219999999999985],[0.37600000000000033,-0.2989999999999995],[0.32399999999999984,-0.29299999999999926],[0.397,-0.5549999999999997],[0.347,-0.5479999999999947],[0.2730000002,-0.7460000000000022],[0,0],[0,0],[0,0],[0,0],[-1.0999999999999996,-0.23500000000000654],[-0.6439999999999992,0.1739999999999995],[-0.09600000000000009,0.06099999999999994],[0,0],[0,0],[-1.5829999999999993,0.02499999999999858]],"o":[[0,0],[-0.9580000000000002,0.10699999999999932],[-0.4269999999999996,0.3049999999999997],[-0.3240000000000003,0.2910000000000039],[-0.5110000000000001,0.4650000000000034],[-0.4039999999999999,0.5060000000000002],[-0.342,0.6020000000000039],[0,0],[0,0],[0,0],[0,0],[0.5419999999999998,1.6270000000000024],[0.5740000000000007,0.08799999999999386],[0.051000000000000156,-0.006000000000000227],[0,0],[0,0],[1.1060000000000008,-1.5060000000000002],[0,0]]}}},{"ty":"st","o":{"a":0,"k":0},"w":{"a":0,"k":0},"c":{"a":0,"k":[0,0,0,0]},"lc":3,"lj":1,"ml":1},{"ty":"fl","o":{"a":0,"k":100},"r":2,"c":{"a":0,"k":[0.9019607843137255,0.6470588235294118,0.17647058823529413,1]}},{"ty":"tr","o":{"a":0,"k":100},"a":{"a":0,"k":[0,0]},"s":{"a":0,"k":[-100,100]},"p":{"a":0,"k":[29,6]},"r":{"a":0,"k":0}}]},{"ty":"gr","nm":"hand shape group","it":[{"ty":"sh","ks":{"a":0,"k":{"c":true,"v":[[0.718249311,1.2090139],[2.87524931,4.4920139],[3.15824931,5.1760139],[1.64824931,12.1950139],[1.46524931,12.3730139],[8.10824931,16.4280139],[10.3702493,25.1700139],[10.2942493,25.3850139],[10.2992493,25.4330139],[13.6872493,25.1030139],[15.2962493,24.4100139],[18.6762493,19.9390139],[17.5022493,14.9610139],[17.0802493,14.3920139],[14.5082493,12.4330139],[11.8122493,11.6640139],[11.6062493,11.6360139],[7.20824931,12.0800139],[11.6062493,11.6360139],[11.1162493,3.6660139],[7.98124931,0.797013896]],"i":[[2.552999999,-1.364000004],[-0.5489999999999999,-1.2679999999999998],[-0.07900000000000018,-0.24800000000000022],[2.114,-1.6679999999999993],[0.04300000000000015,-0.058999999999999275],[-1.9289999999999994,-2.135],[0.9329999999999998,-3.068999999999999],[0.04399999999999871,-0.054999999999999716],[0,0],[-0.9859999999999989,0.31700000000000017],[-0.5289999999999999,0.3160000000000025],[-0.23199999999999932,2.022000000000002],[0.9840000000000018,1.4719999999999995],[0.17400000000000304,0.18599999999999994],[0.9710000000000001,0.4529999999999994],[0.9390000000000001,0.15000000000000036],[0.05599999999999916,0.04499999999999993],[1.384999999999999,-0.4120000000000008],[-1.5500000000000007,-0.13199999999999967],[1.5869999999999997,2.7340000000000004],[1.3479999999999999,0.615000004]],"o":[[0.868999999,0.9239999999999999],[0.07299999999999995,0.19500000000000028],[1.1030000000000002,2.9940000000000007],[-0.04600000000000004,0.05900000000000105],[2.467,0.5899999999999999],[2.454999990000001,2.7399999999999984],[-0.04399999999999871,0.05600000000000094],[0,0],[1.2889999999999997,0.11200000000000188],[0.5449999999999999,-0.16199999999999903],[1.9840000000000018,-0.9899999999999984],[0.20000000000000284,-1.8629999999999995],[-0.12399999999999878,-0.19399999999999906],[-0.7639999999999993,-0.8840000000000003],[-0.8599999999999994,-0.36100000000000065],[-0.04899999999999949,0.006000000000000227],[-1.5500000000000007,-0.13199999999999967],[1.384999999999999,-0.4120000000000008],[1.2469999999999999,-2.542],[-0.7599999999999998,-1.295],[-2.317,-1.069]]}}},{"ty":"st","o":{"a":0,"k":0},"w":{"a":0,"k":0},"c":{"a":0,"k":[0,0,0,0]},"lc":3,"lj":1,"ml":1},{"ty":"fl","o":{"a":0,"k":0},"c":{"a":0,"k":[0,0,0,0]},"r":1},{"ty":"tr","o":{"a":0,"k":100},"a":{"a":0,"k":[0,0]},"s":{"a":0,"k":[-100,100]},"p":{"a":0,"k":[29,6]},"r":{"a":0,"k":0}}]},{"ty":"gr","nm":"hand shape group","it":[{"ty":"sh","ks":{"a":0,"k":{"c":true,"v":[[0.718249311,1.2090139],[2.87524931,4.4920139],[3.15824931,5.1760139],[1.64824931,12.1950139],[1.46524931,12.3730139],[8.10824931,16.4280139],[10.3702493,25.1700139],[10.2942493,25.3850139],[10.2992493,25.4330139],[13.6872493,25.1030139],[15.2962493,24.4100139],[18.6762493,19.9390139],[17.5022493,14.9610139],[17.0802493,14.3920139],[14.5082493,12.4330139],[11.8122493,11.6640139],[11.6062493,11.6360139],[7.20824931,12.0800139],[11.6062493,11.6360139],[11.1162493,3.6660139],[7.98124931,0.797013896]],"i":[[2.552999999,-1.364000004],[-0.5489999999999999,-1.2679999999999998],[-0.07900000000000018,-0.24800000000000022],[2.114,-1.6679999999999993],[0.04300000000000015,-0.058999999999999275],[-1.9289999999999994,-2.135],[0.9329999999999998,-3.068999999999999],[0.04399999999999871,-0.054999999999999716],[0,0],[-0.9859999999999989,0.31700000000000017],[-0.5289999999999999,0.3160000000000025],[-0.23199999999999932,2.022000000000002],[0.9840000000000018,1.4719999999999995],[0.17400000000000304,0.18599999999999994],[0.9710000000000001,0.4529999999999994],[0.9390000000000001,0.15000000000000036],[0.05599999999999916,0.04499999999999993],[1.384999999999999,-0.4120000000000008],[-1.5500000000000007,-0.13199999999999967],[1.5869999999999997,2.7340000000000004],[1.3479999999999999,0.615000004]],"o":[[0.868999999,0.9239999999999999],[0.07299999999999995,0.19500000000000028],[1.1030000000000002,2.9940000000000007],[-0.04600000000000004,0.05900000000000105],[2.467,0.5899999999999999],[2.454999990000001,2.7399999999999984],[-0.04399999999999871,0.05600000000000094],[0,0],[1.2889999999999997,0.11200000000000188],[0.5449999999999999,-0.16199999999999903],[1.9840000000000018,-0.9899999999999984],[0.20000000000000284,-1.8629999999999995],[-0.12399999999999878,-0.19399999999999906],[-0.7639999999999993,-0.8840000000000003],[-0.8599999999999994,-0.36100000000000065],[-0.04899999999999949,0.006000000000000227],[-1.5500000000000007,-0.13199999999999967],[1.384999999999999,-0.4120000000000008],[1.2469999999999999,-2.542],[-0.7599999999999998,-1.295],[-2.317,-1.069]]}}},{"ty":"st","o":{"a":0,"k":0},"w":{"a":0,"k":0},"c":{"a":0,"k":[0,0,0,0]},"lc":3,"lj":1,"ml":1},{"ty":"fl","o":{"a":0,"k":0},"c":{"a":0,"k":[0,0,0,0]},"r":1},{"ty":"tr","o":{"a":0,"k":100},"a":{"a":0,"k":[0,0]},"s":{"a":0,"k":[100,100]},"p":{"a":0,"k":[0,0]},"r":{"a":0,"k":0}}]},{"ty":"gr","nm":"hand shape group","it":[{"ty":"sh","ks":{"a":0,"k":{"c":true,"v":[[0.718249311,1.2090139],[2.87524931,4.4920139],[3.15824931,5.1760139],[1.64824931,12.1950139],[1.46524931,12.3730139],[8.10824931,16.4280139],[10.3702493,25.1700139],[10.2942493,25.3850139],[10.2992493,25.4330139],[13.6872493,25.1030139],[15.2962493,24.4100139],[18.6762493,19.9390139],[17.5022493,14.9610139],[17.0802493,14.3920139],[14.5082493,12.4330139],[11.8122493,11.6640139],[11.6062493,11.6360139],[7.20824931,12.0800139],[11.6062493,11.6360139],[11.1162493,3.6660139],[7.98124931,0.797013896]],"i":[[2.552999999,-1.364000004],[-0.5489999999999999,-1.2679999999999998],[-0.07900000000000018,-0.24800000000000022],[2.114,-1.6679999999999993],[0.04300000000000015,-0.058999999999999275],[-1.9289999999999994,-2.135],[0.9329999999999998,-3.068999999999999],[0.04399999999999871,-0.054999999999999716],[0,0],[-0.9859999999999989,0.31700000000000017],[-0.5289999999999999,0.3160000000000025],[-0.23199999999999932,2.022000000000002],[0.9840000000000018,1.4719999999999995],[0.17400000000000304,0.18599999999999994],[0.9710000000000001,0.4529999999999994],[0.9390000000000001,0.15000000000000036],[0.05599999999999916,0.04499999999999993],[1.384999999999999,-0.4120000000000008],[-1.5500000000000007,-0.13199999999999967],[1.5869999999999997,2.7340000000000004],[1.3479999999999999,0.615000004]],"o":[[0.868999999,0.9239999999999999],[0.07299999999999995,0.19500000000000028],[1.1030000000000002,2.9940000000000007],[-0.04600000000000004,0.05900000000000105],[2.467,0.5899999999999999],[2.454999990000001,2.7399999999999984],[-0.04399999999999871,0.05600000000000094],[0,0],[1.2889999999999997,0.11200000000000188],[0.5449999999999999,-0.16199999999999903],[1.9840000000000018,-0.9899999999999984],[0.20000000000000284,-1.8629999999999995],[-0.12399999999999878,-0.19399999999999906],[-0.7639999999999993,-0.8840000000000003],[-0.8599999999999994,-0.36100000000000065],[-0.04899999999999949,0.006000000000000227],[-1.5500000000000007,-0.13199999999999967],[1.384999999999999,-0.4120000000000008],[1.2469999999999999,-2.542],[-0.7599999999999998,-1.295],[-2.317,-1.069]]}}},{"ty":"st","o":{"a":0,"k":0},"w":{"a":0,"k":0},"c":{"a":0,"k":[0,0,0,0]},"lc":3,"lj":1,"ml":1},{"ty":"fl","o":{"a":0,"k":0},"c":{"a":0,"k":[0,0,0,0]},"r":1},{"ty":"tr","o":{"a":0,"k":100},"a":{"a":0,"k":[0,0]},"s":{"a":0,"k":[-100,100]},"p":{"a":0,"k":[29,6]},"r":{"a":0,"k":0}}]},{"ty":"gr","nm":"hand shape group","it":[{"ty":"sh","ks":{"a":0,"k":{"c":true,"v":[[0.718249311,1.2090139],[2.87524931,4.4920139],[3.15824931,5.1760139],[1.64824931,12.1950139],[1.46524931,12.3730139],[8.10824931,16.4280139],[10.3702493,25.1700139],[10.2942493,25.3850139],[10.2992493,25.4330139],[13.6872493,25.1030139],[15.2962493,24.4100139],[18.6762493,19.9390139],[17.5022493,14.9610139],[17.0802493,14.3920139],[14.5082493,12.4330139],[11.8122493,11.6640139],[11.6062493,11.6360139],[7.20824931,12.0800139],[11.6062493,11.6360139],[11.1162493,3.6660139],[7.98124931,0.797013896]],"i":[[2.552999999,-1.364000004],[-0.5489999999999999,-1.2679999999999998],[-0.07900000000000018,-0.24800000000000022],[2.114,-1.6679999999999993],[0.04300000000000015,-0.058999999999999275],[-1.9289999999999994,-2.135],[0.9329999999999998,-3.068999999999999],[0.04399999999999871,-0.054999999999999716],[0,0],[-0.9859999999999989,0.31700000000000017],[-0.5289999999999999,0.3160000000000025],[-0.23199999999999932,2.022000000000002],[0.9840000000000018,1.4719999999999995],[0.17400000000000304,0.18599999999999994],[0.9710000000000001,0.4529999999999994],[0.9390000000000001,0.15000000000000036],[0.05599999999999916,0.04499999999999993],[1.384999999999999,-0.4120000000000008],[-1.5500000000000007,-0.13199999999999967],[1.5869999999999997,2.7340000000000004],[1.3479999999999999,0.615000004]],"o":[[0.868999999,0.9239999999999999],[0.07299999999999995,0.19500000000000028],[1.1030000000000002,2.9940000000000007],[-0.04600000000000004,0.05900000000000105],[2.467,0.5899999999999999],[2.454999990000001,2.7399999999999984],[-0.04399999999999871,0.05600000000000094],[0,0],[1.2889999999999997,0.11200000000000188],[0.5449999999999999,-0.16199999999999903],[1.9840000000000018,-0.9899999999999984],[0.20000000000000284,-1.8629999999999995],[-0.12399999999999878,-0.19399999999999906],[-0.7639999999999993,-0.8840000000000003],[-0.8599999999999994,-0.36100000000000065],[-0.04899999999999949,0.006000000000000227],[-1.5500000000000007,-0.13199999999999967],[1.384999999999999,-0.4120000000000008],[1.2469999999999999,-2.542],[-0.7599999999999998,-1.295],[-2.317,-1.069]]}}},{"ty":"st","o":{"a":0,"k":0},"w":{"a":0,"k":0},"c":{"a":0,"k":[0,0,0,0]},"lc":3,"lj":1,"ml":1},{"ty":"fl","o":{"a":0,"k":0},"c":{"a":0,"k":[0,0,0,0]},"r":1},{"ty":"tr","o":{"a":0,"k":100},"a":{"a":0,"k":[0,0]},"s":{"a":0,"k":[100,100]},"p":{"a":0,"k":[0,0]},"r":{"a":0,"k":0}}]}],"op":54},{"ty":4,"nm":"board","ip":0,"st":0,"ind":7,"hix":8,"ks":{"o":{"a":1,"k":[{"t":0,"s":[100],"e":[0],"i":{"x":[0.515],"y":[0.955]},"o":{"x":[0.455],"y":[0.03]}},{"t":29,"s":[0],"e":[100],"i":{"x":[0.515],"y":[0.955]},"o":{"x":[0.455],"y":[0.03]}},{"t":30}]},"or":{"a":0,"k":[0,0,0]},"a":{"a":0,"k":[215,178.5,0]},"p":{"s":true,"x":{"a":1,"k":[{"t":0,"s":[1064.465],"e":[1270.094],"i":{"x":[0.515],"y":[0.955]},"o":{"x":[0.455],"y":[0.03]}},{"t":18,"s":[1270.094],"e":[450.238],"i":{"x":[0.515],"y":[0.955]},"o":{"x":[0.455],"y":[0.03]}},{"t":30,"s":[450.238],"e":[462.37152099609375],"i":{"x":[0.515],"y":[0.955]},"o":{"x":[0.455],"y":[0.03]}},{"t":36,"s":[462.37152099609375],"e":[445.724],"i":{"x":[0.515],"y":[0.955]},"o":{"x":[0.455],"y":[0.03]}},{"t":42,"s":[445.724],"e":[462.37152099609375],"i":{"x":[0.515],"y":[0.955]},"o":{"x":[0.455],"y":[0.03]}},{"t":48,"s":[462.37152099609375],"e":[445.087],"i":{"x":[0.515],"y":[0.955]},"o":{"x":[0.455],"y":[0.03]}},{"t":54}]},"y":{"a":1,"k":[{"t":0,"s":[191.591],"e":[153.30351257324222],"i":{"x":[0.515],"y":[0.955]},"o":{"x":[0.455],"y":[0.03]}},{"t":18,"s":[153.30351257324222],"e":[232.697],"i":{"x":[0.515],"y":[0.955]},"o":{"x":[0.455],"y":[0.03]}},{"t":30,"s":[232.697],"e":[198.9525146484375],"i":{"x":[0.515],"y":[0.955]},"o":{"x":[0.455],"y":[0.03]}},{"t":36,"s":[198.9525146484375],"e":[232.29751586914065],"i":{"x":[0.515],"y":[0.955]},"o":{"x":[0.455],"y":[0.03]}},{"t":42,"s":[232.29751586914065],"e":[198.5924987792969],"i":{"x":[0.515],"y":[0.955]},"o":{"x":[0.455],"y":[0.03]}},{"t":48,"s":[198.5924987792969],"e":[232.29751586914065],"i":{"x":[0.515],"y":[0.955]},"o":{"x":[0.455],"y":[0.03]}},{"t":54}]}},"rx":{"a":0,"k":0},"ry":{"a":0,"k":0},"rz":{"a":0,"k":0},"s":{"a":0,"k":[100,100,100]}},"shapes":[{"ty":"gr","nm":"board shape group","it":[{"ty":"sh","ks":{"a":0,"k":{"c":true,"v":[[209.5,160.5],[163.5,323.5]],"i":[[0,0],[0,0]],"o":[[0,0],[0,0]]}}},{"ty":"st","o":{"a":0,"k":100},"c":{"a":0,"k":[0,0,0,1]},"lc":3,"lj":1,"ml":1,"w":{"a":0,"k":1}},{"ty":"fl","o":{"a":0,"k":0},"c":{"a":0,"k":[0,0,0,0]},"r":1},{"ty":"tr","o":{"a":0,"k":100},"a":{"a":0,"k":[0,0]},"s":{"a":0,"k":[100,100]},"p":{"a":0,"k":[0,0]},"r":{"a":0,"k":0}}]},{"ty":"gr","nm":"board shape group","it":[{"ty":"rc","s":{"a":0,"k":[375,111]},"r":{"a":0,"k":0},"p":{"a":0,"k":[226.5,107.5]}},{"ty":"st","o":{"a":0,"k":100},"c":{"a":0,"k":[0.592156862745098,0.592156862745098,0.592156862745098,1]},"lc":3,"lj":1,"ml":1,"w":{"a":0,"k":1}},{"ty":"fl","o":{"a":0,"k":100},"r":2,"c":{"a":0,"k":[0.8470588235294118,0.8470588235294118,0.8470588235294118,1]}},{"ty":"tr","o":{"a":0,"k":100},"a":{"a":0,"k":[0,0]},"s":{"a":0,"k":[100,100]},"p":{"a":0,"k":[35.541,-54.96]},"r":{"a":0,"k":15.01149423242757}}]}],"op":54},{"ty":4,"nm":"smily","ip":0,"st":0,"ind":6,"hix":2,"ks":{"o":{"a":1,"k":[{"t":0,"s":[0],"e":[0],"i":{"x":[1],"y":[1]},"o":{"x":[0],"y":[0]}},{"t":3,"s":[0],"e":[100],"i":{"x":[0.515],"y":[0.955]},"o":{"x":[0.455],"y":[0.03]}},{"t":5}]},"or":{"a":0,"k":[0,0,0]},"a":{"a":0,"k":[98.5,98.5,0]},"p":{"s":true,"x":{"a":1,"k":[{"t":0,"s":[166.93602343749998],"e":[166.93602343749998],"i":{"x":[0.515],"y":[0.955]},"o":{"x":[0.455],"y":[0.03]}},{"t":7,"s":[166.93602343749998],"e":[175.68060302734375],"i":{"x":[0.515],"y":[0.955]},"o":{"x":[0.455],"y":[0.03]}},{"t":18,"s":[175.68060302734375],"e":[306.8050170898437],"i":{"x":[0.515],"y":[0.955]},"o":{"x":[0.455],"y":[0.03]}},{"t":30}]},"y":{"a":1,"k":[{"t":0,"s":[232.29801586914067],"e":[232.29801586914067],"i":{"x":[0.515],"y":[0.955]},"o":{"x":[0.455],"y":[0.03]}},{"t":7,"s":[232.29801586914067],"e":[290.62750244140625],"i":{"x":[0.515],"y":[0.955]},"o":{"x":[0.455],"y":[0.03]}},{"t":18,"s":[290.62750244140625],"e":[365.97357177734375],"i":{"x":[0.515],"y":[0.955]},"o":{"x":[0.455],"y":[0.03]}},{"t":30}]}},"rx":{"a":0,"k":0},"ry":{"a":0,"k":0},"rz":{"a":0,"k":0},"s":{"a":1,"k":[{"t":0,"s":[26.5,26.5],"e":[15,15],"i":{"x":[0.515,0.515],"y":[0.955,0.955]},"o":{"x":[0.455,0.455],"y":[0.03,0.03]}},{"t":3,"s":[15,15],"e":[20,20],"i":{"x":[0.515,0.515],"y":[0.955,0.955]},"o":{"x":[0.455,0.455],"y":[0.03,0.03]}},{"t":5,"s":[20,20],"e":[25,25],"i":{"x":[0.515,0.515],"y":[0.955,0.955]},"o":{"x":[0.455,0.455],"y":[0.03,0.03]}},{"t":7,"s":[25,25],"e":[60,60],"i":{"x":[0.515,0.515],"y":[0.955,0.955]},"o":{"x":[0.455,0.455],"y":[0.03,0.03]}},{"t":30}]}},"shapes":[{"ty":"gr","nm":"smily shape group","it":[{"ty":"el","p":{"a":0,"k":[66,70]},"s":{"a":0,"k":[30,30]}},{"ty":"st","o":{"a":0,"k":100},"c":{"a":0,"k":[0.592156862745098,0.592156862745098,0.592156862745098,1]},"lc":3,"lj":1,"ml":1,"w":{"a":0,"k":1}},{"ty":"fl","o":{"a":0,"k":100},"r":2,"c":{"a":0,"k":[0.6078431372549019,0.6078431372549019,0.6078431372549019,1]}},{"ty":"tr","o":{"a":0,"k":100},"a":{"a":0,"k":[0,0]},"s":{"a":0,"k":[100,100]},"p":{"a":0,"k":[0,0]},"r":{"a":0,"k":0}}]},{"ty":"gr","nm":"smily shape group","it":[{"ty":"el","p":{"a":0,"k":[128,70]},"s":{"a":0,"k":[30,30]}},{"ty":"st","o":{"a":0,"k":100},"c":{"a":0,"k":[0.592156862745098,0.592156862745098,0.592156862745098,1]},"lc":3,"lj":1,"ml":1,"w":{"a":0,"k":1}},{"ty":"fl","o":{"a":0,"k":100},"r":2,"c":{"a":0,"k":[0.6078431372549019,0.6078431372549019,0.6078431372549019,1]}},{"ty":"tr","o":{"a":0,"k":100},"a":{"a":0,"k":[0,0]},"s":{"a":0,"k":[100,100]},"p":{"a":0,"k":[0,0]},"r":{"a":0,"k":0}}]},{"ty":"gr","nm":"smily shape group","it":[{"ty":"sh","ks":{"a":0,"k":{"c":false,"v":[[136.643407,127],[60.946809,127.757908],[60,127],[60,127]],"i":[[0,0],[22.204111299999994,17.774085],[0,0],[0,0]],"o":[[-21.843772,18.215113000000002],[0,0],[0,0],[0,0]]}}},{"ty":"st","o":{"a":0,"k":100},"c":{"a":0,"k":[0.592156862745098,0.592156862745098,0.592156862745098,1]},"lc":3,"lj":1,"ml":1,"w":{"a":0,"k":7}},{"ty":"fl","o":{"a":0,"k":0},"c":{"a":0,"k":[0,0,0,0]},"r":1},{"ty":"tr","o":{"a":0,"k":100},"a":{"a":0,"k":[0,0]},"s":{"a":0,"k":[100,100]},"p":{"a":0,"k":[0,0]},"r":{"a":0,"k":0}}]},{"ty":"gr","nm":"smily shape group","it":[{"ty":"el","p":{"a":0,"k":[98,98]},"s":{"a":0,"k":[197,197]}},{"ty":"st","o":{"a":0,"k":0},"w":{"a":0,"k":0},"c":{"a":0,"k":[0,0,0,0]},"lc":3,"lj":1,"ml":1},{"ty":"fl","o":{"a":0,"k":100},"r":2,"c":{"a":0,"k":[0.9725490196078431,0.9450980392156862,0.13725490196078433,1]}},{"ty":"tr","o":{"a":0,"k":100},"a":{"a":0,"k":[0,0]},"s":{"a":0,"k":[100,100]},"p":{"a":0,"k":[0,0]},"r":{"a":0,"k":0}}]}],"op":54},{"ty":4,"nm":"door window left","ip":0,"st":0,"ind":5,"hix":3,"ks":{"o":{"a":1,"k":[{"t":0,"s":[100],"e":[0],"i":{"x":[0.515],"y":[0.955]},"o":{"x":[0.455],"y":[0.03]}},{"t":3,"s":[0],"e":[0],"i":{"x":[1],"y":[1]},"o":{"x":[0],"y":[0]}},{"t":14,"s":[0],"e":[100],"i":{"x":[0.515],"y":[0.955]},"o":{"x":[0.455],"y":[0.03]}},{"t":15}]},"or":{"a":0,"k":[0,0,0]},"a":{"a":0,"k":[5.5,12,0]},"p":{"s":true,"x":{"a":1,"k":[{"t":0,"s":[154.00048828125],"e":[121],"i":{"x":[0.515],"y":[0.955]},"o":{"x":[0.455],"y":[0.03]}},{"t":14}]},"y":{"a":0,"k":232.0299072265625}},"rx":{"a":0,"k":0},"ry":{"a":0,"k":0},"rz":{"a":0,"k":0},"s":{"a":0,"k":[100,100,100]}},"shapes":[{"ty":"gr","nm":"door window left shape group","it":[{"ty":"rc","s":{"a":1,"k":[{"t":0,"s":[11,24],"e":[3.851366762716964,24],"i":{"x":[0.515,1],"y":[0.955,1]},"o":{"x":[0.455,0],"y":[0.03,0]}},{"t":3,"s":[3.851366762716964],"e":[3.851366762716964],"i":{"x":[1],"y":[1]},"o":{"x":[0],"y":[0]}},{"t":14,"s":[3.851366762716964],"e":[11],"i":{"x":[0.515],"y":[0.955]},"o":{"x":[0.455],"y":[0.03]}},{"t":18}]},"r":{"a":0,"k":5},"p":{"a":0,"k":[5.5,12]}},{"ty":"st","o":{"a":0,"k":0},"w":{"a":0,"k":0},"c":{"a":0,"k":[0,0,0,0]},"lc":3,"lj":1,"ml":1},{"ty":"fl","o":{"a":0,"k":100},"r":2,"c":{"a":0,"k":[0.9686274509803922,0.9647058823529412,0.9686274509803922,1]}},{"ty":"tr","o":{"a":0,"k":100},"a":{"a":0,"k":[0,0]},"s":{"a":0,"k":[100,100]},"p":{"a":0,"k":[0,0]},"r":{"a":0,"k":0}}]}],"op":54},{"ty":4,"nm":"left door","ip":0,"st":0,"ind":4,"hix":4,"ks":{"o":{"a":0,"k":100},"or":{"a":0,"k":[0,0,0]},"a":{"a":0,"k":[21,45,0]},"p":{"s":true,"x":{"a":0,"k":148.834},"y":{"a":0,"k":232.63000068370582}},"rx":{"a":0,"k":0},"ry":{"a":0,"k":0},"rz":{"a":0,"k":0},"s":{"a":0,"k":[74.9,74.9]}},"shapes":[{"ty":"gr","nm":"left door shape group","it":[{"ty":"rc","s":{"a":1,"k":[{"t":0,"s":[42],"e":[4.888],"i":{"x":[0.515],"y":[0.955]},"o":{"x":[0.455],"y":[0.03]}},{"t":9,"s":[4.888],"e":[42],"i":{"x":[0.515],"y":[0.955]},"o":{"x":[0.455],"y":[0.03]}},{"t":18},90]},"r":{"a":0,"k":0},"p":{"a":0,"k":[21,45.334596049405434]}},{"ty":"st","o":{"a":0,"k":0},"w":{"a":0,"k":0},"c":{"a":0,"k":[0,0,0,0]},"lc":3,"lj":1,"ml":1},{"ty":"fl","o":{"a":0,"k":100},"r":2,"c":{"a":0,"k":[0.396078431372549,0.3686274509803922,0.403921568627451,1]}},{"ty":"tr","o":{"a":0,"k":100},"a":{"a":0,"k":[0,0]},"s":{"a":0,"k":[100,100]},"p":{"a":0,"k":[0,0]},"r":{"a":0,"k":0}}]}],"op":54},{"ty":4,"nm":"door window right","ip":0,"st":0,"ind":3,"hix":5,"ks":{"o":{"a":1,"k":[{"t":0,"s":[100],"e":[0],"i":{"x":[0.515],"y":[0.955]},"o":{"x":[0.455],"y":[0.03]}},{"t":3,"s":[0],"e":[0],"i":{"x":[1],"y":[1]},"o":{"x":[0],"y":[0]}},{"t":14,"s":[0],"e":[100],"i":{"x":[0.515],"y":[0.955]},"o":{"x":[0.455],"y":[0.03]}},{"t":15}]},"or":{"a":0,"k":[0,0,0]},"a":{"a":0,"k":[5.5,12,0]},"p":{"s":true,"x":{"a":0,"k":176.01408575059742},"y":{"a":0,"k":231.862391222351}},"rx":{"a":0,"k":0},"ry":{"a":0,"k":0},"rz":{"a":0,"k":0},"s":{"a":0,"k":[100,100,100]}},"shapes":[{"ty":"gr","nm":"door window right shape group","it":[{"ty":"rc","s":{"a":1,"k":[{"t":0,"s":[11],"e":[3.851366762716964],"i":{"x":[0.515],"y":[0.955]},"o":{"x":[0.455],"y":[0.03]}},{"t":3,"s":[3.851366762716964],"e":[3.851],"i":{"x":[0.515],"y":[0.955]},"o":{"x":[0.455],"y":[0.03]}},{"t":14,"s":[3.851],"e":[11],"i":{"x":[0.515],"y":[0.955]},"o":{"x":[0.455],"y":[0.03]}},{"t":18},24]},"r":{"a":0,"k":5},"p":{"a":0,"k":[5.5,12]}},{"ty":"st","o":{"a":0,"k":0},"w":{"a":0,"k":0},"c":{"a":0,"k":[0,0,0,0]},"lc":3,"lj":1,"ml":1},{"ty":"fl","o":{"a":0,"k":100},"r":2,"c":{"a":0,"k":[0.9686274509803922,0.9647058823529412,0.9686274509803922,1]}},{"ty":"tr","o":{"a":0,"k":100},"a":{"a":0,"k":[0,0]},"s":{"a":0,"k":[100,100]},"p":{"a":0,"k":[0,0]},"r":{"a":0,"k":0}}]}],"op":54},{"ty":4,"nm":"right door","ip":0,"st":0,"ind":2,"hix":6,"ks":{"o":{"a":0,"k":100},"or":{"a":0,"k":[0,0,0]},"a":{"a":0,"k":[21,45,0]},"p":{"s":true,"x":{"a":0,"k":183.4469994003067},"y":{"a":0,"k":232.63000068370582}},"rx":{"a":0,"k":0},"ry":{"a":0,"k":0},"rz":{"a":0,"k":0},"s":{"a":0,"k":[78.8,74.1]}},"shapes":[{"ty":"gr","nm":"right door shape group","it":[{"ty":"rc","s":{"a":1,"k":[{"t":0,"s":[42,90],"e":[4.887804911303533,90],"i":{"x":[0.515,0.515],"y":[0.955,0.955]},"o":{"x":[0.455,0.455],"y":[0.03,0.03]}},{"t":9,"s":[4.887804911303533,90],"e":[42,90],"i":{"x":[0.515,0.515],"y":[0.955,0.955]},"o":{"x":[0.455,0.455],"y":[0.03,0.03]}},{"t":18}]},"r":{"a":0,"k":0},"p":{"a":0,"k":[21,45]}},{"ty":"st","o":{"a":0,"k":0},"w":{"a":0,"k":0},"c":{"a":0,"k":[0,0,0,0]},"lc":3,"lj":1,"ml":1},{"ty":"fl","o":{"a":0,"k":100},"r":2,"c":{"a":0,"k":[0.396078431372549,0.3686274509803922,0.403921568627451,1]}},{"ty":"tr","o":{"a":0,"k":100},"a":{"a":0,"k":[0,0]},"s":{"a":0,"k":[100,100]},"p":{"a":0,"k":[0,0]},"r":{"a":0,"k":0}}]}],"op":54},{"ty":4,"nm":"hospital","ip":0,"st":0,"ind":1,"hix":7,"ks":{"o":{"a":0,"k":100},"or":{"a":0,"k":[0,0,0]},"a":{"a":0,"k":[215,206.5,0]},"p":{"s":true,"x":{"a":0,"k":167.27},"y":{"a":0,"k":153.636}},"rx":{"a":0,"k":0},"ry":{"a":0,"k":0},"rz":{"a":0,"k":0},"s":{"a":0,"k":[77.8,74.4]}},"shapes":[{"ty":"gr","nm":"hospital shape group","it":[{"ty":"rc","s":{"a":0,"k":[164,55]},"r":{"a":0,"k":0},"p":{"a":0,"k":[206,206.5]}},{"ty":"st","o":{"a":0,"k":0},"w":{"a":0,"k":0},"c":{"a":0,"k":[0,0,0,0]},"lc":3,"lj":1,"ml":1},{"ty":"fl","o":{"a":0,"k":100},"r":2,"c":{"a":0,"k":[0.9686274509803922,0.9647058823529412,0.9686274509803922,1]}},{"ty":"tr","o":{"a":0,"k":100},"a":{"a":0,"k":[0,0]},"s":{"a":0,"k":[100,100]},"p":{"a":0,"k":[0,0]},"r":{"a":0,"k":0}}]},{"ty":"gr","nm":"hospital shape group","it":[{"ty":"rc","s":{"a":0,"k":[94,90]},"r":{"a":0,"k":0},"p":{"a":0,"k":[217,313]}},{"ty":"st","o":{"a":0,"k":0},"w":{"a":0,"k":0},"c":{"a":0,"k":[0,0,0,0]},"lc":3,"lj":1,"ml":1},{"ty":"fl","o":{"a":0,"k":100},"r":2,"c":{"a":0,"k":[0.9686274509803922,0.9647058823529412,0.9686274509803922,1]}},{"ty":"tr","o":{"a":0,"k":100},"a":{"a":0,"k":[0,0]},"s":{"a":0,"k":[100,100]},"p":{"a":0,"k":[0,0]},"r":{"a":0,"k":0}}]},{"ty":"gr","nm":"hospital shape group","it":[{"ty":"sh","ks":{"a":0,"k":{"c":true,"v":[[202.333333,195],[184,195],[187.666667,198.6],[187.666667,209.4],[184,213],[202.333333,213],[206,209.4],[206,198.6],[202.333333,195]],"i":[[0,0],[0,0],[0,-1.9878339999999923],[0,0],[2.025238999999999,0],[0,0],[0,1.9884160000000008],[0,0],[2.025238999999999,0]],"o":[[0,0],[2.025238999999999,0],[0,0],[0,1.9884160000000008],[0,0],[2.025238999999999,0],[0,0],[0.0005930000000091695,-1.9878339999999923],[0,0]]}}},{"ty":"st","o":{"a":0,"k":0},"w":{"a":0,"k":0},"c":{"a":0,"k":[0,0,0,0]},"lc":3,"lj":1,"ml":1},{"ty":"fl","o":{"a":0,"k":100},"r":1,"c":{"a":0,"k":[0.4627450980392157,0.42745098039215684,0.47058823529411764,1]}},{"ty":"tr","o":{"a":0,"k":100},"a":{"a":0,"k":[0,0]},"s":{"a":0,"k":[100,100]},"p":{"a":0,"k":[64,55]},"r":{"a":0,"k":0}}]},{"ty":"gr","nm":"hospital shape group","it":[{"ty":"sh","ks":{"a":0,"k":{"c":true,"v":[[202.346831,195],[100.652578,195],[97,198.6],[97,209.4],[100.652578,213],[202.347422,213],[206,209.4],[206,198.6]],"i":[[2.017456999999979,0],[0,0],[0,-1.9884160000000008],[0,0],[-2.017456899999999,0],[0,0],[0,1.9884160000000008],[0,0]],"o":[[0,0],[-2.017456899999999,0],[0,0],[0,1.9884160000000008],[0,0],[2.0174570000000074,0],[0,0],[0,-1.9884160000000008]]}}},{"ty":"st","o":{"a":0,"k":0},"w":{"a":0,"k":0},"c":{"a":0,"k":[0,0,0,0]},"lc":3,"lj":1,"ml":1},{"ty":"fl","o":{"a":0,"k":100},"r":1,"c":{"a":0,"k":[0.5450980392156862,0.5019607843137255,0.5568627450980392,1]}},{"ty":"tr","o":{"a":0,"k":100},"a":{"a":0,"k":[0,0]},"s":{"a":0,"k":[100,100]},"p":{"a":0,"k":[64,55]},"r":{"a":0,"k":0}}]},{"ty":"gr","nm":"hospital shape group","it":[{"ty":"sh","ks":{"a":0,"k":{"c":true,"v":[[0.0217647059,119.878504],[27.8823529,119.878504],[32.7300524,124.788971],[32.6288235,147.354344],[27.7811765,152.220327],[0.0217647059,152.220327]],"i":[[0,0],[0,0],[0.012300500000002046,-2.708200000000005],[0,0],[2.6688234999999985,0],[0,0]],"o":[[0,0],[2.6858824000000006,0],[0,0],[-0.01235290000000333,2.6910000000000025],[0,0],[0,0]]}}},{"ty":"st","o":{"a":0,"k":0},"w":{"a":0,"k":0},"c":{"a":0,"k":[0,0,0,0]},"lc":3,"lj":1,"ml":1},{"ty":"fl","o":{"a":0,"k":100},"r":1,"c":{"a":0,"k":[0.7411764705882353,0.8470588235294118,0.9882352941176471,1]}},{"ty":"tr","o":{"a":0,"k":100},"a":{"a":0,"k":[0,0]},"s":{"a":0,"k":[100,100]},"p":{"a":0,"k":[307,178.284]},"r":{"a":0,"k":0}}]},{"ty":"gr","nm":"hospital shape group","it":[{"ty":"sh","ks":{"a":0,"k":{"c":true,"v":[[0.0217647059,60.3058023],[27.8823529,60.3058023],[32.7300524,65.2162693],[32.6288235,87.7816418],[27.7811765,92.6476246],[0.0217647059,92.6476246]],"i":[[0,0],[0,0],[0.012300500000002046,-2.7082004999999967],[0,0],[2.6688234999999985,0],[0,0]],"o":[[0,0],[2.6858824000000006,0],[0,0],[-0.01235290000000333,2.6910000000000025],[0,0],[0,0]]}}},{"ty":"st","o":{"a":0,"k":0},"w":{"a":0,"k":0},"c":{"a":0,"k":[0,0,0,0]},"lc":3,"lj":1,"ml":1},{"ty":"fl","o":{"a":0,"k":100},"r":1,"c":{"a":0,"k":[0.7411764705882353,0.8470588235294118,0.9882352941176471,1]}},{"ty":"tr","o":{"a":0,"k":100},"a":{"a":0,"k":[0,0]},"s":{"a":0,"k":[100,100]},"p":{"a":0,"k":[307,178.284]},"r":{"a":0,"k":0}}]},{"ty":"gr","nm":"hospital shape group","it":[{"ty":"sh","ks":{"a":0,"k":{"c":false,"v":[[0.0217647059,0.468567335],[27.8823529,0.468567335],[32.7300524,5.37903438],[32.6288235,27.9444069],[27.7811765,32.8103897],[0.0217647059,32.8103897]],"i":[[0,0],[0,0],[0.012300500000002046,-2.7082005700000003],[0,0],[2.6688234999999985,0],[0,0]],"o":[[0,0],[2.6858824000000006,0],[0,0],[-0.01235290000000333,2.690999999999999],[0,0],[0,0]]}}},{"ty":"st","o":{"a":0,"k":0},"w":{"a":0,"k":0},"c":{"a":0,"k":[0,0,0,0]},"lc":3,"lj":1,"ml":1},{"ty":"fl","o":{"a":0,"k":100},"r":1,"c":{"a":0,"k":[0.7411764705882353,0.8470588235294118,0.9882352941176471,1]}},{"ty":"tr","o":{"a":0,"k":100},"a":{"a":0,"k":[0,0]},"s":{"a":0,"k":[100,100]},"p":{"a":0,"k":[307,178.284]},"r":{"a":0,"k":0}}]},{"ty":"gr","nm":"hospital shape group","it":[{"ty":"sh","ks":{"a":0,"k":{"c":true,"v":[[41.8205882,0.256229226],[23.6411765,0.256229226],[41.8205882,18.586702],[41.8205882,202.112072],[36.9729412,207],[55.1523529,207],[60,202.112072],[60,18.586702]],"i":[[10.04,0],[0,0],[0,-10.123426929999999],[0,0],[2.6770587999999975,0],[0,0],[0,2.6993029999999862],[0,0]],"o":[[0,0],[10.040588200000002,0],[0,0],[0,2.6998959999999954],[0,0],[2.6776471000000015,0],[0,0],[0,-10.123426929999999]]}}},{"ty":"st","o":{"a":0,"k":0},"w":{"a":0,"k":0},"c":{"a":0,"k":[0,0,0,0]},"lc":3,"lj":1,"ml":1},{"ty":"fl","o":{"a":0,"k":100},"r":1,"c":{"a":0,"k":[0.9294117647058824,0.9215686274509803,0.9294117647058824,1]}},{"ty":"tr","o":{"a":0,"k":100},"a":{"a":0,"k":[0,0]},"s":{"a":0,"k":[100,100]},"p":{"a":0,"k":[307,151]},"r":{"a":0,"k":0}}]},{"ty":"gr","nm":"hospital shape group","it":[{"ty":"sh","ks":{"a":0,"k":{"c":true,"v":[[55.1523529,207],[0.0223529412,207],[0.0223529412,0.256229226],[41.8205882,0.256229226],[60,18.586702],[60,202.111479]],"i":[[2.677058900000006,0],[0,0],[0,0],[0,0],[0,-10.123426929999999],[0,0]],"o":[[0,0],[0,0],[0,0],[10.040588299999996,0],[0,0],[0,2.6998959999999954]]}}},{"ty":"st","o":{"a":0,"k":0},"w":{"a":0,"k":0},"c":{"a":0,"k":[0,0,0,0]},"lc":3,"lj":1,"ml":1},{"ty":"fl","o":{"a":0,"k":100},"r":1,"c":{"a":0,"k":[0.9686274509803922,0.9647058823529412,0.9686274509803922,1]}},{"ty":"tr","o":{"a":0,"k":100},"a":{"a":0,"k":[0,0]},"s":{"a":0,"k":[100,100]},"p":{"a":0,"k":[307,151]},"r":{"a":0,"k":0}}]},{"ty":"gr","nm":"hospital shape group","it":[{"ty":"sh","ks":{"a":0,"k":{"c":true,"v":[[210.17919,135],[192.100615,135],[196.921373,139.858568],[196.820758,162.185446],[192,167],[210.078574,167],[214.899333,162.185446],[215,139.858568],[210.17919,135]],"i":[[0,0],[0,0],[0.012285000000019863,-2.6795769999999948],[0,0],[2.6540200000000027,0],[0,0],[-0.011700000000018917,2.6619719999999916],[0,0],[2.6709840000000042,0]],"o":[[0,0],[2.6709850000000017,0],[0,0],[-0.012284000000022388,2.6625589999999875],[0,0],[2.654021,0],[0,0],[0.012232000000011567,-2.6795769999999948],[0,0]]}}},{"ty":"st","o":{"a":0,"k":0},"w":{"a":0,"k":0},"c":{"a":0,"k":[0,0,0,0]},"lc":3,"lj":1,"ml":1},{"ty":"fl","o":{"a":0,"k":100},"r":1,"c":{"a":0,"k":[0.615686274509804,0.7803921568627451,0.984313725490196,1]}},{"ty":"tr","o":{"a":0,"k":100},"a":{"a":0,"k":[0,0]},"s":{"a":0,"k":[100,100]},"p":{"a":0,"k":[64,55]},"r":{"a":0,"k":0}}]},{"ty":"gr","nm":"hospital shape group","it":[{"ty":"sh","ks":{"a":0,"k":{"c":true,"v":[[169.865115,135],[210.135423,135],[215,139.858568],[214.897828,162.185446],[210.033304,167],[169.864525,167],[165,162.163732],[165,139.836854],[169.865115,135]],"i":[[0,0],[0,0],[0.012342999999987114,-2.6795769999999948],[0,0],[2.6781150000000196,0],[0,0],[0,2.670774999999992],[0,0],[-2.6869700000000023,0]],"o":[[0,0],[2.6952330000000018,0],[0,0],[-0.01239599999999541,2.6625589999999875],[0,0],[-2.686969999999974,0],[0,0],[0,-2.6713609999999903],[0,0]]}}},{"ty":"st","o":{"a":0,"k":0},"w":{"a":0,"k":0},"c":{"a":0,"k":[0,0,0,0]},"lc":3,"lj":1,"ml":1},{"ty":"fl","o":{"a":0,"k":100},"r":1,"c":{"a":0,"k":[0.7411764705882353,0.8470588235294118,0.9882352941176471,1]}},{"ty":"tr","o":{"a":0,"k":100},"a":{"a":0,"k":[0,0]},"s":{"a":0,"k":[100,100]},"p":{"a":0,"k":[64,55]},"r":{"a":0,"k":0}}]},{"ty":"gr","nm":"hospital shape group","it":[{"ty":"sh","ks":{"a":0,"k":{"c":true,"v":[[133.158049,135],[115,135],[119.841951,139.836356],[119.841951,162.163644],[115,167],[133.158049,167],[138,162.163644],[138,139.836356],[133.158049,135]],"i":[[0,0],[0,0],[0,-2.6708229999999844],[0,0],[2.673912999999999,0],[0,0],[0,2.6708229999999844],[0,0],[2.6745009999999922,0]],"o":[[0,0],[2.6745010000000065,0],[0,0],[0,2.6708229999999844],[0,0],[2.6745009999999922,0],[0,0],[0.0005869999999958964,-2.6708229999999844],[0,0]]}}},{"ty":"st","o":{"a":0,"k":0},"w":{"a":0,"k":0},"c":{"a":0,"k":[0,0,0,0]},"lc":3,"lj":1,"ml":1},{"ty":"fl","o":{"a":0,"k":100},"r":1,"c":{"a":0,"k":[0.615686274509804,0.7803921568627451,0.984313725490196,1]}},{"ty":"tr","o":{"a":0,"k":100},"a":{"a":0,"k":[0,0]},"s":{"a":0,"k":[100,100]},"p":{"a":0,"k":[64,55]},"r":{"a":0,"k":0}}]},{"ty":"gr","nm":"hospital shape group","it":[{"ty":"sh","ks":{"a":0,"k":{"c":true,"v":[[133.149619,167],[92.8504334,167],[88,162.141432],[88.1018745,139.814554],[92.9522555,135],[133.149619,135],[138,139.836268],[138,162.163146]],"i":[[2.6791570000000036,0],[0,0],[-0.012307500000005689,2.6795769999999948],[0,0],[-2.670328700000013,0],[0,0],[0,-2.670774999999992],[0,0]],"o":[[0,0],[-2.6873970999999983,0],[0,0],[0.012359900000006974,-2.6625589999999875],[0,0],[2.6791570000000036,0],[0,0],[0.0005879999999933716,2.6713609999999903]]}}},{"ty":"st","o":{"a":0,"k":0},"w":{"a":0,"k":0},"c":{"a":0,"k":[0,0,0,0]},"lc":3,"lj":1,"ml":1},{"ty":"fl","o":{"a":0,"k":100},"r":1,"c":{"a":0,"k":[0.7411764705882353,0.8470588235294118,0.9882352941176471,1]}},{"ty":"tr","o":{"a":0,"k":100},"a":{"a":0,"k":[0,0]},"s":{"a":0,"k":[100,100]},"p":{"a":0,"k":[64,55]},"r":{"a":0,"k":0}}]},{"ty":"gr","nm":"hospital shape group","it":[{"ty":"sh","ks":{"a":0,"k":{"c":true,"v":[[133.5,268],[129,263.304996],[129,253.695004],[133.5,249],[138,253.695004],[138,263.304996]],"i":[[2.485309000000001,0],[0,2.5930079999999975],[0,0],[-2.485309000000001,0],[0,-2.5930079999999975],[0,0]],"o":[[-2.485309000000001,0],[0,0],[0,-2.5930079999999975],[2.485309000000001,0],[0,0],[0,2.5930079999999975]]}}},{"ty":"st","o":{"a":0,"k":0},"w":{"a":0,"k":0},"c":{"a":0,"k":[0,0,0,0]},"lc":3,"lj":1,"ml":1},{"ty":"fl","o":{"a":0,"k":100},"r":1,"c":{"a":0,"k":[0.9686274509803922,0.9647058823529412,0.9686274509803922,1]}},{"ty":"tr","o":{"a":0,"k":100},"a":{"a":0,"k":[0,0]},"s":{"a":0,"k":[100,100]},"p":{"a":0,"k":[64,55]},"r":{"a":0,"k":0}}]},{"ty":"gr","nm":"hospital shape group","it":[{"ty":"sh","ks":{"a":0,"k":{"c":true,"v":[[169.5,268],[165,263.304996],[165,253.695004],[169.5,249],[174,253.695004],[174,263.304996]],"i":[[2.485892000000007,0],[0,2.5930079999999975],[0,0],[-2.485309000000001,0],[0,-2.5930079999999975],[0,0]],"o":[[-2.485309000000001,0],[0,0],[0,-2.5930079999999975],[2.485309000000001,0],[0,0],[0.0005820000000085201,2.5930079999999975]]}}},{"ty":"st","o":{"a":0,"k":0},"w":{"a":0,"k":0},"c":{"a":0,"k":[0,0,0,0]},"lc":3,"lj":1,"ml":1},{"ty":"fl","o":{"a":0,"k":100},"r":1,"c":{"a":0,"k":[0.9686274509803922,0.9647058823529412,0.9686274509803922,1]}},{"ty":"tr","o":{"a":0,"k":100},"a":{"a":0,"k":[0,0]},"s":{"a":0,"k":[100,100]},"p":{"a":0,"k":[64,55]},"r":{"a":0,"k":0}}]},{"ty":"gr","nm":"hospital shape group","it":[{"ty":"sh","ks":{"a":0,"k":{"c":true,"v":[[147,303],[147,213.560717],[151.5,209],[156,213.560717],[156,303]],"i":[[0,0],[0,0],[-2.485309000000001,0],[0,-2.518843000000004],[0,0]],"o":[[0,0],[0,-2.518843000000004],[2.485309000000001,0],[0,0],[0,0]]}}},{"ty":"st","o":{"a":0,"k":0},"w":{"a":0,"k":0},"c":{"a":0,"k":[0,0,0,0]},"lc":3,"lj":1,"ml":1},{"ty":"fl","o":{"a":0,"k":100},"r":1,"c":{"a":0,"k":[0.9686274509803922,0.9647058823529412,0.9686274509803922,1]}},{"ty":"tr","o":{"a":0,"k":100},"a":{"a":0,"k":[0,0]},"s":{"a":0,"k":[100,100]},"p":{"a":0,"k":[64,55]},"r":{"a":0,"k":0}}]},{"ty":"gr","nm":"hospital shape group","it":[{"ty":"sh","ks":{"a":0,"k":{"c":true,"v":[[179,213],[197,213],[197,303],[179,303]],"i":[[0,0],[0,0],[0,0],[0,0]],"o":[[0,0],[0,0],[0,0],[0,0]]}}},{"ty":"st","o":{"a":0,"k":0},"w":{"a":0,"k":0},"c":{"a":0,"k":[0,0,0,0]},"lc":3,"lj":1,"ml":1},{"ty":"fl","o":{"a":0,"k":100},"r":1,"c":{"a":0,"k":[0.32941176470588235,0.30980392156862746,0.33725490196078434,1]}},{"ty":"tr","o":{"a":0,"k":100},"a":{"a":0,"k":[0,0]},"s":{"a":0,"k":[100,100]},"p":{"a":0,"k":[64,