{"ip":0,"fr":60,"v":"5.1.20","assets":[],"layers":[{"ty":4,"nm":"smily","ip":0,"st":0,"ind":3,"hix":2,"ks":{"o":{"a":1,"k":[{"t":0,"s":[0],"e":[100],"i":{"x":[0.515],"y":[0.955]},"o":{"x":[0.455],"y":[0.03]}},{"t":60}]},"or":{"a":0,"k":[0,0,0]},"a":{"a":0,"k":[98.5,98.5,0]},"p":{"s":true,"x":{"a":1,"k":[{"t":0,"s":[233.122],"e":[249.46799894320964],"i":{"x":[0.515],"y":[0.955]},"o":{"x":[0.455],"y":[0.03]}},{"t":84,"s":[249.46799894320964],"e":[394.048],"i":{"x":[0.515],"y":[0.955]},"o":{"x":[0.455],"y":[0.03]}},{"t":165}]},"y":{"a":1,"k":[{"t":0,"s":[322.472],"e":[408.19799894320965],"i":{"x":[0.515],"y":[0.955]},"o":{"x":[0.455],"y":[0.03]}},{"t":84,"s":[408.19799894320965],"e":[465.99],"i":{"x":[0.515],"y":[0.955]},"o":{"x":[0.455],"y":[0.03]}},{"t":165}]}},"rx":{"a":0,"k":0},"ry":{"a":0,"k":0},"rz":{"a":0,"k":0},"s":{"a":1,"k":[{"t":0,"s":[10,10],"e":[20,20],"i":{"x":[0.515,0.515],"y":[0.955,0.955]},"o":{"x":[0.455,0.455],"y":[0.03,0.03]}},{"t":31,"s":[20,20],"e":[30,30],"i":{"x":[0.515,0.515],"y":[0.955,0.955]},"o":{"x":[0.455,0.455],"y":[0.03,0.03]}},{"t":60,"s":[30,30],"e":[45,45],"i":{"x":[0.515,0.515],"y":[0.955,0.955]},"o":{"x":[0.455,0.455],"y":[0.03,0.03]}},{"t":84,"s":[45,45],"e":[80.4,80.4],"i":{"x":[0.515,0.515],"y":[0.955,0.955]},"o":{"x":[0.455,0.455],"y":[0.03,0.03]}},{"t":165}]}},"shapes":[{"ty":"gr","nm":"smily shape group","it":[{"ty":"el","p":{"a":0,"k":[66,70]},"s":{"a":0,"k":[30,30]}},{"ty":"st","o":{"a":0,"k":100},"c":{"a":0,"k":[0.592156862745098,0.592156862745098,0.592156862745098,1]},"lc":3,"lj":1,"ml":1,"w":{"a":0,"k":1}},{"ty":"fl","o":{"a":0,"k":100},"r":2,"c":{"a":0,"k":[0.6078431372549019,0.6078431372549019,0.6078431372549019,1]}},{"ty":"tr","o":{"a":0,"k":100},"a":{"a":0,"k":[0,0]},"s":{"a":0,"k":[100,100]},"p":{"a":0,"k":[0,0]},"r":{"a":0,"k":0}}]},{"ty":"gr","nm":"smily shape group","it":[{"ty":"el","p":{"a":0,"k":[128,70]},"s":{"a":0,"k":[30,30]}},{"ty":"st","o":{"a":0,"k":100},"c":{"a":0,"k":[0.592156862745098,0.592156862745098,0.592156862745098,1]},"lc":3,"lj":1,"ml":1,"w":{"a":0,"k":1}},{"ty":"fl","o":{"a":0,"k":100},"r":2,"c":{"a":0,"k":[0.6078431372549019,0.6078431372549019,0.6078431372549019,1]}},{"ty":"tr","o":{"a":0,"k":100},"a":{"a":0,"k":[0,0]},"s":{"a":0,"k":[100,100]},"p":{"a":0,"k":[0,0]},"r":{"a":0,"k":0}}]},{"ty":"gr","nm":"smily shape group","it":[{"ty":"sh","ks":{"a":0,"k":{"c":false,"v":[[136.643407,127],[60.946809,127.757908],[60,127],[60,127]],"i":[[0,0],[22.204111299999994,17.774085],[0,0],[0,0]],"o":[[-21.843772,18.215113000000002],[0,0],[0,0],[0,0]]}}},{"ty":"st","o":{"a":0,"k":100},"c":{"a":0,"k":[0.592156862745098,0.592156862745098,0.592156862745098,1]},"lc":3,"lj":1,"ml":1,"w":{"a":0,"k":7}},{"ty":"fl","o":{"a":0,"k":0},"c":{"a":0,"k":[0,0,0,0]},"r":1},{"ty":"tr","o":{"a":0,"k":100},"a":{"a":0,"k":[0,0]},"s":{"a":0,"k":[100,100]},"p":{"a":0,"k":[0,0]},"r":{"a":0,"k":0}}]},{"ty":"gr","nm":"smily shape group","it":[{"ty":"el","p":{"a":0,"k":[98,98]},"s":{"a":0,"k":[197,197]}},{"ty":"st","o":{"a":0,"k":0},"w":{"a":0,"k":0},"c":{"a":0,"k":[0,0,0,0]},"lc":3,"lj":1,"ml":1},{"ty":"fl","o":{"a":0,"k":100},"r":2,"c":{"a":0,"k":[0.9725490196078431,0.9450980392156862,0.13725490196078433,1]}},{"ty":"tr","o":{"a":0,"k":100},"a":{"a":0,"k":[0,0]},"s":{"a":0,"k":[100,100]},"p":{"a":0,"k":[0,0]},"r":{"a":0,"k":0}}]}],"op":332},{"ty":4,"nm":"board","ip":0,"st":0,"ind":2,"hix":1,"ks":{"o":{"a":1,"k":[{"t":0,"s":[0],"e":[0],"i":{"x":[0.515],"y":[0.955]},"o":{"x":[0.455],"y":[0.03]}},{"t":154,"s":[0],"e":[100],"i":{"x":[0.515],"y":[0.955]},"o":{"x":[0.455],"y":[0.03]}},{"t":176}]},"or":{"a":0,"k":[0,0,0]},"a":{"a":0,"k":[215,178.5,0]},"p":{"s":true,"x":{"a":1,"k":[{"t":0,"s":[438.5771904297942],"e":[466.2581176757813],"i":{"x":[0.515],"y":[0.955]},"o":{"x":[0.455],"y":[0.03]}},{"t":154,"s":[466.2581176757813],"e":[489.398],"i":{"x":[0.515],"y":[0.955]},"o":{"x":[0.455],"y":[0.03]}},{"t":212,"s":[489.398],"e":[466.25811767578125],"i":{"x":[0.515],"y":[0.955]},"o":{"x":[0.455],"y":[0.03]}},{"t":271,"s":[466.25811767578125],"e":[485.029],"i":{"x":[0.515],"y":[0.955]},"o":{"x":[0.455],"y":[0.03]}},{"t":332}]},"y":{"a":1,"k":[{"t":0,"s":[397.56731568227644],"e":[422.99999999999994],"i":{"x":[0.515],"y":[0.955]},"o":{"x":[0.455],"y":[0.03]}},{"t":154,"s":[422.99999999999994],"e":[362.82],"i":{"x":[0.515],"y":[0.955]},"o":{"x":[0.455],"y":[0.03]}},{"t":212,"s":[362.82],"e":[395.9535522460938],"i":{"x":[0.515],"y":[0.955]},"o":{"x":[0.455],"y":[0.03]}},{"t":271,"s":[395.9535522460938],"e":[345.123],"i":{"x":[0.515],"y":[0.955]},"o":{"x":[0.455],"y":[0.03]}},{"t":332}]}},"rx":{"a":0,"k":0},"ry":{"a":0,"k":0},"rz":{"a":0,"k":0},"s":{"a":0,"k":[100,100,100]}},"shapes":[{"ty":"gr","nm":"board shape group","it":[{"ty":"sh","ks":{"a":0,"k":{"c":true,"v":[[209.5,160.5],[163.5,323.5]],"i":[[0,0],[0,0]],"o":[[0,0],[0,0]]}}},{"ty":"st","o":{"a":0,"k":100},"c":{"a":0,"k":[0,0,0,1]},"lc":3,"lj":1,"ml":1,"w":{"a":0,"k":1}},{"ty":"fl","o":{"a":0,"k":0},"c":{"a":0,"k":[0,0,0,0]},"r":1},{"ty":"tr","o":{"a":0,"k":100},"a":{"a":0,"k":[0,0]},"s":{"a":0,"k":[100,100]},"p":{"a":0,"k":[0,0]},"r":{"a":0,"k":0}}]},{"ty":"gr","nm":"board shape group","it":[{"ty":"sh","ks":{"a":0,"k":{"c":true,"v":[[109.08,122.56],[111.72,121.36],[112.08,120.4],[111.66,119.1],[111.24,117.64],[110.8,102.48],[110.92,95.8],[114.36,94.36],[116.56,94.24],[118.44,93.4],[118.76,92.2],[117.16,89.28],[114.84,88.12],[113.66,88.76],[112.68,89.48],[106.04,91.68],[100.2,93.96],[100.12,94.6],[100.76,96.12],[102.36,97.56],[103.52,98],[104.68,97.72],[105.8,97.32],[105.68,103.08],[105.96,117],[105.22,118.44],[104.6,119.8],[106.18,121.74]],"i":[[-1.013333000000003,0],[-0.5866670000000056,0.7999999999999972],[0,0.3466669999999965],[0.28000000000000114,0.6000000000000085],[0,0.37333300000000236],[0,4.93333299999999],[-0.0799999999999983,2.026666700000007],[-0.9866669999999971,0.4266666999999984],[-1.2533329999999978,0],[-0.29333300000000406,0.5599999999999881],[0,0.3999999999999915],[1.0666670000000096,0.933333300000001],[0.5866669999999914,-0.05333330000000558],[0.35999999999999943,-0.37333329999999876],[0.29333299999998985,-0.10666670000000522],[4.106666999999987,-1.2533333000000084],[0.0799999999999983,-0.37333329999999876],[0,-0.1866666999999893],[-0.426667000000009,-0.480000000000004],[-0.8533330000000063,-0.7199999999999989],[-0.4266669999999948,0],[-0.480000000000004,0.18666670000000352],[-0.026667000000003327,0],[0,-2.3999999999999915],[-0.18666699999999992,-5.3066670000000045],[0.4933330000000069,-0.5066669999999931],[-0.0799999999999983,-0.3999999999999915],[-0.9200000000000017,-0.5466669999999993]],"o":[[1.1733329999999995,0],[0.23999999999999488,-0.29333300000000406],[0,-0.2666670000000124],[-0.28000000000000114,-0.5999999999999943],[-0.29333299999998985,-5.1733329999999995],[0,-2.426667000000009],[1.3066670000000045,-0.5333332999999953],[0.21333300000000577,-0.0799999999999983],[0.9599999999999937,0],[0.21333300000000577,-0.4000000000000057],[0,-1.0133332999999993],[-0.9599999999999937,-0.8266667000000041],[-0.426667000000009,0.05333329999999137],[-0.35999999999999943,0.37333329999999876],[-0.3200000000000074,0.21333330000000217],[-3.813333,1.1466666999999973],[-0.05333300000000918,0.2400000000000091],[0,0.5333333000000096],[0.21333299999999156,0.23999999999999488],[0.3466669999999965,0.29333330000000046],[0.29333300000000406,0],[0.7199999999999989,-0.2666667000000018],[-0.0799999999999983,1.440000000000012],[0,3.9733329999999967],[0,0.45333300000000065],[-0.4933329999999927,0.5066670000000073],[0.13333300000000747,0.7466670000000022],[0.9199999999999875,0.5466669999999993]]}}},{"ty":"sh","ks":{"a":0,"k":{"c":true,"v":[[119.36,122.4],[123.96,120.14],[126.36,115.68],[127.32,119.24],[128.2,121],[129.48,121.28],[132.44,119.32],[132.52,118.76],[131.92,117.36],[131.24,116.04],[130.36,107.68],[129.4,101.24],[125.72,98.68],[118.72,100.36],[115.96,103],[115.64,104.16],[116.48,106.12],[118.36,106.84],[119.68,105.84],[120.92,104.36],[121.94,103.34],[123.32,102.8],[124.48,103.02],[125.16,104.48],[125,105.8],[118.72,109.44],[114.92,115.8],[115.32,118.52]],"i":[[-1.946667000000005,0],[-1.519999999999996,1.506666999999993],[-0.0799999999999983,1.4666669999999868],[-0.3199999999999932,-1.519999999999996],[-0.4266669999999948,-0.29333300000000406],[-0.533332999999999,0],[-0.4000000000000057,1.3066670000000045],[0,0.18666699999999992],[0.4000000000000057,0.533332999999999],[0.05333299999998076,0.3466669999999965],[0.23999999999998067,3.813333],[0.4266669999999806,1.1466670000000079],[1.7866669999999942,0],[1.8666670000000067,-1.1200000000000045],[0.6133330000000115,-1.013333000000003],[0,-0.4266669999999948],[-0.5600000000000023,-0.5600000000000023],[-0.6933329999999955,0.0799999999999983],[-0.4000000000000057,0.6133329999999972],[-0.3200000000000074,0.21333300000000577],[-0.35999999999999943,0.35999999999999943],[-0.5599999999999881,0],[-0.45333300000000065,-0.14666699999999366],[0,-0.8266670000000005],[0.10666700000000162,-0.45333300000000065],[2.0799999999999983,-1.226666999999992],[0,-2.480000000000004],[-0.2666669999999982,-0.9599999999999937]],"o":[[1.5466669999999993,0],[1.5200000000000102,-1.5066670000000073],[0.3200000000000074,0.8533329999999921],[0.1600000000000108,0.8800000000000097],[0.3200000000000216,0.18666699999999992],[1.5733330000000194,0],[0.05333300000000918,-0.18666699999999992],[0,-0.4000000000000057],[-0.39999999999997726,-0.533332999999999],[-0.3466669999999965,-1.7600000000000051],[-0.21333300000000577,-3.146667000000008],[-0.6666670000000181,-1.7066666999999995],[-2.799999999999997,0],[-1.226666999999992,0.7466670000000022],[-0.21333299999999156,0.3466669999999965],[0,0.7466670000000022],[0.5600000000000023,0.5600000000000023],[0.480000000000004,-0.05333300000000918],[0.5066669999999931,-0.773333000000008],[0.3199999999999932,-0.3199999999999932],[0.35999999999999943,-0.35999999999999943],[0.3200000000000074,0],[0.45333300000000065,0.14666700000000787],[0,0.4266669999999948],[-2.1066670000000016,1.2000000000000028],[-2.533332999999999,1.7600000000000051],[0,0.8533330000000063],[0.7466670000000022,2.5866670000000056]]}}},{"ty":"sh","ks":{"a":0,"k":{"c":true,"v":[[121.08,117.96],[120.2,117.4],[119.48,115.4],[120.92,112.6],[123.1,110.8],[125.48,109.48],[123.34,115.64]],"i":[[0.6933329999999955,0],[0.2666669999999982,0.37333299999998815],[0,0.6400000000000006],[-0.960000000000008,1.0933330000000012],[-0.7866669999999942,0.45333300000000065],[-0.7999999999999972,0.4266669999999948],[0.8133330000000001,-1.5466669999999993]],"o":[[-0.3199999999999932,0],[-0.480000000000004,-0.6933330000000097],[0,-0.773333000000008],[0.6666670000000039,-0.746666999999988],[0.7866670000000084,-0.45333300000000065],[-0.6133329999999972,2.5600000000000023],[-0.8133330000000001,1.5466669999999993]]}}},{"ty":"sh","ks":{"a":0,"k":{"c":true,"v":[[141.4,122],[146.6,118.16],[148.04,116.16],[148.8,114.36],[147.8,112.8],[145.72,112.28],[144.32,112.58],[143.84,113.84],[143.48,115.28],[141.16,117.8],[139.96,113.8],[140.72,106.42],[142.16,102.48],[142.8,104.28],[142.8,104.28],[142.8,105.44],[142.76,106.6],[143.16,108.64],[145.56,109.52],[147.84,108.16],[147.96,106.76],[146.6,101.36],[142.32,98.44],[136.84,102.6],[134.92,111.44],[136.48,118.8]],"i":[[-2.106667000000016,0],[-1.6800000000000068,2.5600000000000023],[-0.7466670000000022,0.8800000000000097],[-0.026667000000003327,0.5866670000000056],[0.6933329999999955,0.4000000000000057],[0.8000000000000114,0],[0.3199999999999932,-0.20000000000000284],[0,-0.6400000000000006],[0.21333300000000577,-0.23999999999999488],[1.039999999999992,0],[0,2.666667000000004],[-0.5066669999999931,2.6266669999999976],[-0.45333299999998644,0],[0,-1.2000000000000028],[0,0],[0,0],[0,-0.2666669999999982],[-0.266666999999984,-0.29333300000000406],[-1.039999999999992,0],[-0.18666699999999992,0.9066669999999988],[0,0.533332999999999],[0.9066669999999988,1.6533330000000035],[1.7600000000000193,0],[1.4133329999999944,-2.7733332999999902],[0,-3.3866670000000028],[-1.039999999999992,-1.9466669999999908]],"o":[[1.7866669999999942,0],[0.21333300000000577,-0.45333300000000065],[0.4800000000000182,-0.6133329999999972],[0.026666999999974905,-0.6400000000000006],[-0.5866670000000056,-0.3466669999999965],[-0.6133330000000115,0],[-0.3199999999999932,0.20000000000000284],[-0.026667000000003327,0.7199999999999989],[-0.5066669999999931,1.6799999999999926],[-0.799999999999983,0],[0,-2.293333000000004],[0.5066669999999931,-2.6266669999999976],[0.426667000000009,0],[0,0],[0,0],[-0.026667000000003327,0.5066670000000073],[0,1.0666670000000096],[0.5600000000000023,0.5866670000000056],[1.3333330000000103,0],[0.07999999999998408,-0.3999999999999915],[0,-1.946667000000005],[-1.0933330000000012,-1.9466666999999944],[-2.2399999999999807,0],[-1.2800000000000011,2.5066670000000073],[0,2.960000000000008],[1.1733330000000137,2.1333330000000075]]}}},{"ty":"sh","ks":{"a":0,"k":{"c":true,"v":[[154.6,122.04],[157.48,121],[157.92,120.08],[157.7,119.26],[157.48,118.36],[157.48,118.36],[157.48,115],[164.68,120.04],[165.8,121.16],[167.12,121.84],[168.04,121.68],[170.72,118.44],[170.68,117.88],[169.64,116.6],[168.04,115.96],[168.04,115.96],[160.92,110.84],[167.56,103.96],[169.16,102.44],[169.96,101.08],[168.74,99.2],[166.36,98.32],[165.8,98.4],[164.48,99.36],[163.24,101.08],[157.48,106.72],[157.48,93.64],[157.78,92.2],[158.08,90.84],[157.72,89.8],[154.64,88.92],[152.44,89.8],[152.28,91.96],[152.28,91.96],[152.28,118.28],[152.12,119.68],[152.28,120.84]],"i":[[-1.1999999999999886,0],[-0.6666669999999897,0.6933329999999955],[0,0.29333300000000406],[0.14666700000000787,0.35999999999999943],[0,0.23999999999999488],[0,0],[0,0],[0,0],[-0.6133330000000115,-0.6666669999999897],[-0.4800000000000182,0],[-0.3466669999999965,0.10666699999998741],[0,1.6000000000000085],[0.026667000000003327,0.18666699999999992],[0.5866670000000056,0.2400000000000091],[0.05333300000000918,0.05333300000000918],[0,0],[0,0],[0,0],[-0.533332999999999,0.533332999999999],[0,0.37333300000000236],[0.8133330000000001,0.586666699999995],[0.7733329999999796,0],[0.1599999999999966,-0.05333330000000558],[0.2933330000000183,-0.480000000000004],[0.3199999999999932,-0.3199999999999932],[1.493333000000007,-1.4399999999999977],[-0.05333299999998076,1.546666700000003],[-0.19999999999998863,0.6133332999999936],[0,0.29333330000000046],[0.2400000000000091,0.3200000000000074],[1.6000000000000227,0],[0.2400000000000091,-0.586666699999995],[-0.026667000000003327,-0.47999999999998977],[0,0],[0,0],[0.10666699999998741,-0.6933330000000097],[-0.1599999999999966,-0.37333300000000236]],"o":[[1.2533329999999978,0],[0.2933330000000183,-0.3199999999999932],[0,-0.18666699999999992],[-0.14666699999997945,-0.35999999999999943],[0,0],[0,0],[0,0],[0.13333299999999326,0.0799999999999983],[0.39999999999997726,0.45333300000000065],[0.266666999999984,0],[1.7866669999999942,-0.5600000000000023],[0,-0.18666699999999992],[-0.10666700000001583,-0.6133329999999972],[-1.0133329999999887,-0.37333299999998815],[0,0],[0,0],[0,0],[0.533332999999999,-0.47999999999998977],[0.533332999999999,-0.533332999999999],[0,-0.6666670000000039],[-0.8133330000000001,-0.5866667000000092],[-0.21333300000000577,0],[-0.5866670000000056,0.1599999999999966],[-0.5066669999999931,0.8266670000000005],[-2.3466669999999965,2.3200000000000074],[-0.05333299999998076,-7.173333299999996],[0,-0.3466667000000001],[0.19999999999998863,-0.6133333000000079],[0,-0.37333329999999876],[-0.45333299999998644,-0.586666699999995],[-1.226666999999992,0],[-0.13333299999999326,0.960000000000008],[0,0],[0,0],[0,0.23999999999999488],[-0.05333300000000918,0.3999999999999915],[0.3466669999999965,0.7999999999999972]]}}},{"ty":"sh","ks":{"a":0,"k":{"c":true,"v":[[187.4,122.4],[192.12,120.42],[194.12,115.64],[193.04,111.84],[190.6,110.04],[188,108.44],[186.48,104.72],[187.64,102.44],[188.4,103.48],[188.34,104.42],[188.28,105.44],[188.56,106.72],[190.92,108.52],[192.72,107.68],[193.6,105.64],[193.16,104.04],[192.16,100.56],[187.88,98.44],[183.4,100.7],[181.64,105.96],[183.36,110.44],[186.72,113.04],[188.88,114.88],[189.08,116.08],[188.62,117.74],[187.64,118.44],[186.12,117.16],[185.72,116],[184.64,114.68],[183.12,114.4],[180.36,115.4],[181.24,117.52],[183.84,120.76]],"i":[[-1.1466670000000079,0],[-1.3333330000000103,1.3199999999999932],[0,1.8666669999999925],[0.7199999999999989,0.9333329999999904],[1.1466670000000079,0.5866669999999914],[0.4000000000000057,0.37333300000000236],[0,1.5466669999999993],[-0.7733329999999796,0],[0,-0.6933330000000097],[0.03999999999999204,-0.4399999999999977],[0,-0.23999999999999488],[-0.18666699999999992,-0.3199999999999932],[-0.9066669999999988,0],[-0.5866670000000056,0.5599999999999881],[0,0.7999999999999972],[0.29333299999998985,0.3199999999999932],[0.8000000000000114,1.1466669999999937],[1.8666670000000067,0],[1.1733329999999853,-1.5066666999999967],[0,-2],[-1.1466670000000079,-1.2800000000000011],[-1.573332999999991,-0.9866670000000113],[-0.13333299999999326,-0.3999999999999915],[0,-0.3999999999999915],[0.30666700000000446,-0.46666700000000105],[0.3466670000000249,0],[0.5600000000000023,0.8533330000000063],[0.0800000000000125,0.6133329999999972],[0.6400000000000148,0.3466669999999965],[0.6399999999999864,0],[0.29333299999998985,-0.6666670000000039],[-0.6666670000000181,-1.1199999999999903],[-0.960000000000008,-0.8800000000000097]],"o":[[1.813333,0],[1.333332999999982,-1.3200000000000074],[0,-1.5999999999999943],[-0.47999999999998977,-0.6133329999999972],[-1.333332999999982,-0.6933330000000097],[-1.0133329999999887,-0.9333330000000046],[0,-1.519999999999996],[0.5066670000000215,0],[0,0.18666699999999992],[-0.03999999999999204,0.4399999999999977],[0,0.533332999999999],[0.6666669999999897,1.2000000000000028],[0.6133330000000115,0],[0.5866670000000056,-0.5600000000000023],[0,-0.7466670000000022],[0.13333299999999326,-1.1733329999999995],[-0.9866669999999829,-1.413333300000005],[-1.813333,0],[-1.1733330000000137,1.506666999999993],[0,1.7066670000000101],[0.6666669999999897,0.7466670000000022],[1.3066670000000045,0.8266670000000005],[0.13333299999999326,0.4000000000000057],[0,0.6400000000000006],[-0.30666700000000446,0.46666700000000105],[-0.45333299999998644,0],[-0.18666699999999992,-0.1599999999999966],[-0.0800000000000125,-0.533332999999999],[-0.37333299999997394,-0.18666699999999992],[-1.5466670000000136,0],[-0.0800000000000125,0.29333299999998985],[0.7733329999999796,1.2800000000000011],[1.226666999999992,1.0933330000000012]]}}},{"ty":"sh","ks":{"a":0,"k":{"c":true,"v":[[203.76,97.16],[207.36,95.56],[208.96,91.96],[207.94,89.42],[205.32,88.36],[201.6,90.04],[200.16,93.52],[201.22,96.12]],"i":[[-0.9866669999999829,0],[-1.0666670000000238,1.066666699999999],[0,1.3333333000000067],[0.6800000000000068,0.7066666999999995],[1.0666669999999954,0],[1.0666669999999954,-1.1200000000000045],[0,-1.2800000000000011],[-0.7066670000000101,-0.6933333000000061]],"o":[[1.3333330000000103,0],[1.0666669999999954,-1.066666699999999],[0,-0.9866667000000007],[-0.6800000000000068,-0.7066666999999995],[-1.4133329999999944,0],[-0.960000000000008,1.039999999999992],[0,1.0400000000000063],[0.7066670000000101,0.6933332999999919]]}}},{"ty":"sh","ks":{"a":0,"k":{"c":true,"v":[[203.44,95.28],[202.32,94.08],[203.54,91.94],[205.64,90.76],[206.72,91.96],[205.92,93.76]],"i":[[0.8799999999999955,0],[0,0.7999999999999972],[-0.8133330000000001,0.7866666999999978],[-0.5866669999999772,0],[0,-0.7999999999999972],[0.533332999999999,-0.7199999999999989]],"o":[[-0.7466670000000022,0],[0,-0.6400000000000006],[0.8133330000000001,-0.7866666999999978],[0.7200000000000273,0],[0,0.480000000000004],[-0.7733329999999796,1.0133332999999993]]}}},{"ty":"sh","ks":{"a":0,"k":{"c":true,"v":[[199.52,122.4],[204.12,120.14],[206.52,115.68],[207.48,119.24],[208.36,121],[209.64,121.28],[212.6,119.32],[212.68,118.76],[212.08,117.36],[211.4,116.04],[210.52,107.68],[209.56,101.24],[205.88,98.68],[198.88,100.36],[196.12,103],[195.8,104.16],[196.64,106.12],[198.52,106.84],[199.84,105.84],[201.08,104.36],[201.406667,104.033333],[202.1,103.34],[203.48,102.8],[204.64,103.02],[205.32,104.48],[205.16,105.8],[198.88,109.44],[195.08,115.8],[195.48,118.52]],"i":[[-1.9466670000000192,0],[-1.5200000000000102,1.506666999999993],[-0.0800000000000125,1.4666669999999868],[-0.3199999999999932,-1.519999999999996],[-0.426667000000009,-0.29333300000000406],[-0.533332999999999,0],[-0.4000000000000057,1.3066670000000045],[0,0.18666699999999992],[0.39999999999997726,0.533332999999999],[0.05333299999998076,0.3466669999999965],[0.23999999999998067,3.813333],[0.426667000000009,1.1466670000000079],[1.7866669999999942,0],[1.8666670000000067,-1.1200000000000045],[0.613332999999983,-1.013333000000003],[0,-0.4266669999999948],[-0.5599999999999739,-0.5600000000000023],[-0.693333000000024,0.0799999999999983],[-0.4000000000000057,0.6133329999999972],[-0.3200000000000216,0.21333300000000577],[-0.11111099999999396,0.11111099999999396],[0,0],[-0.5600000000000023,0],[-0.45333299999998644,-0.14666699999999366],[0,-0.8266670000000005],[0.10666700000001583,-0.45333300000000065],[2.0800000000000125,-1.226666999999992],[0,-2.480000000000004],[-0.266666999999984,-0.9599999999999937]],"o":[[1.5466669999999851,0],[1.5199999999999818,-1.5066670000000073],[0.3199999999999932,0.8533329999999921],[0.1599999999999966,0.8800000000000097],[0.3199999999999932,0.18666699999999992],[1.5733330000000194,0],[0.05333300000000918,-0.18666699999999992],[0,-0.4000000000000057],[-0.4000000000000057,-0.533332999999999],[-0.3466669999999965,-1.7600000000000051],[-0.21333300000000577,-3.146667000000008],[-0.6666669999999897,-1.7066666999999995],[-2.799999999999983,0],[-1.226666999999992,0.7466670000000022],[-0.21333300000000577,0.3466669999999965],[0,0.7466670000000022],[0.5600000000000023,0.5600000000000023],[0.47999999999998977,-0.05333300000000918],[0.5066669999999931,-0.773333000000008],[0.10666699999998741,-0.10666700000000162],[0,0],[0.36000000000001364,-0.35999999999999943],[0.3200000000000216,0],[0.45333300000001486,0.14666700000000787],[0,0.4266669999999948],[-2.1066669999999874,1.2000000000000028],[-2.533332999999999,1.7600000000000051],[0,0.8533330000000063],[0.7466670000000022,2.5866670000000056]]}}},{"ty":"sh","ks":{"a":0,"k":{"c":true,"v":[[201.24,117.96],[200.36,117.4],[199.64,115.4],[201.08,112.6],[203.26,110.8],[205.64,109.48],[203.5,115.64]],"i":[[0.6933329999999955,0],[0.266666999999984,0.37333299999998815],[0,0.6400000000000006],[-0.960000000000008,1.0933330000000012],[-0.7866669999999942,0.45333300000000065],[-0.799999999999983,0.4266669999999948],[0.8133330000000001,-1.5466669999999993]],"o":[[-0.3200000000000216,0],[-0.4800000000000182,-0.6933330000000097],[0,-0.773333000000008],[0.6666669999999897,-0.746666999999988],[0.7866670000000227,-0.45333300000000065],[-0.613332999999983,2.5600000000000023],[-0.8133330000000001,1.5466669999999993]]}}},{"ty":"sh","ks":{"a":0,"k":{"c":true,"v":[[238.32,122.84],[239.48,122.56],[240.28,121],[240.4375,119.11875],[240.44,119.08],[244.52,107.88],[244.8,110.76],[244.7996,110.8804],[244.76,112.72],[244.76,112.72],[244.760765,115.203112],[245.36,120.88],[248.8,122.48],[251.16,121],[251.32,120.24],[250.52,118.94],[249.72,117.88],[249.72,101.56],[246.4,99.72],[243.8,100.36],[241.8,104.92],[239.48,111.72],[239.48,111.72],[239.56,103.08],[239.9,102.18],[240.2,100.6],[238.54,98.88],[235.32,98.16],[233.84,98.56],[233.18,99.48],[232.72,100.52],[229.56,106.92],[229.56,106.92],[229.56,102.36],[229.94,101.24],[230.32,100.2],[230.2,99.64],[227.08,98.36],[224.44,99.16],[224.24,99.84],[224.52,100.92],[224.84,102.04],[224.84,102.04],[224.84,111.48],[225.56,117.32],[226.98,118.54],[228.92,119.08],[230.32,118.64],[230.68,117],[230.72,115.12],[232.6,109.52],[234.2,106.6],[234.44,108.32],[234.36,114.44],[234.72,120.28],[236.08,122.08]],"i":[[-0.7733329999999796,0],[-0.3466669999999965,0.18666699999999992],[-0.05333300000000918,0.7733329999999938],[-0.011666999999988548,0.15749999999999886],[0,0],[-0.4000000000000057,-0.1599999999999966],[0,-1.8666670000000067],[0,0],[0.02400000000000091,-0.8400000000000034],[0,0],[0,0],[-0.3857140000000072,-0.5657139999999998],[-1.5466670000000136,0],[-0.3466669999999965,0.9866669999999971],[0,0.21333300000000577],[0.533332999999999,0.4133330000000086],[0,0.29333300000000406],[-0.026667000000003327,3.253332999999998],[2.1333329999999933,0],[0.5866669999999772,-0.4266666999999984],[0.8799999999999955,-2.719999999999999],[0.426667000000009,-0.9599999999999937],[0,0],[0,0],[-0.22666699999999196,0.35999999999999943],[0.026667000000003327,0.6933330000000097],[1.0800000000000125,0.480000000000004],[1.0666669999999954,0],[0.29333299999998985,-0.2666667000000018],[0.14666699999997945,-0.3466667000000001],[0.1599999999999966,-0.3466669999999965],[0.8000000000000114,-1.6800000000000068],[0,0],[0,0],[-0.2533329999999978,0.45333300000000065],[0,0.23999999999999488],[0.0800000000000125,0.18666670000000352],[1.7333329999999876,0],[0.3466669999999965,-0.5333332999999953],[0,-0.2400000000000091],[-0.18666699999999992,-0.480000000000004],[-0.026667000000003327,-0.2666670000000124],[0,0],[0,0],[-0.426667000000009,-0.6666669999999897],[-0.6533330000000035,-0.35999999999999943],[-0.6399999999999864,0],[-0.3466669999999965,0.29333300000000406],[0.10666699999998741,0.7999999999999972],[-0.13333299999999326,0.3199999999999932],[-1.0933330000000012,2.240000000000009],[-0.613332999999983,1.013333000000003],[-0.026667000000003327,-1.1199999999999903],[0.05333299999998076,-4.239999999999995],[-0.2666670000000124,-0.9866669999999971],[-0.7199999999999989,-0.5066669999999931]],"o":[[0.426667000000009,0],[0.4800000000000182,-0.2666669999999982],[0.09333300000000122,-1.0966669999999965],[0,0],[2.319999999999993,-7.626666999999998],[0.18666699999999992,0.05333300000000918],[0,0],[-0.0023999999999944066,0.38640000000000896],[0,0],[0,0],[0.013776000000007116,3.2188779999999895],[0.7466669999999738,1.0666670000000096],[1.226666999999992,0],[0.10666700000001583,-0.29333300000000406],[0,-0.45333300000000065],[-0.533332999999999,-0.4133329999999944],[-0.026667000000003327,-7.626666999999998],[-0.0800000000000125,-1.2266670000000062],[-1.1466670000000079,0],[-0.45333300000001486,0.3200000000000074],[-1.1200000000000045,3.573333000000005],[0,0],[0,0],[0,-0.23999999999999488],[0.22666699999999196,-0.36000000000001364],[-0.026666999999974905,-0.6666666999999933],[-1.079999999999984,-0.47999999999998977],[-0.6933329999999955,0],[-0.29333299999998985,0.2666667000000018],[-0.14666700000000787,0.3466667000000001],[-1.3066670000000045,2.5866670000000056],[0,0],[0,0],[0,-0.29333300000000406],[0.2533329999999978,-0.45333300000000065],[0,-0.18666699999999992],[-0.3466669999999965,-0.8533333000000027],[-1.4133330000000228,0],[-0.13333299999999326,0.21333330000000217],[0,0.23999999999999488],[0.18666699999999992,0.480000000000004],[0,0],[0,0],[0.05333300000000918,3.226666999999992],[0.29333299999998985,0.45333300000000065],[0.6533330000000035,0.35999999999999943],[0.5866670000000056,0],[0.3466669999999965,-0.29333300000000406],[-0.10666700000001583,-0.9333330000000046],[0.1599999999999966,-1.493333000000007],[0.45333300000001486,-0.9333329999999904],[0.13333300000002168,0.026667000000003327],[0,-0.1599999999999966],[-0.026667000000003327,2.906666999999999],[0.18666699999999992,0.6933329999999955],[0.7199999999999989,0.5066670000000073]]}}},{"ty":"sh","ks":{"a":0,"k":{"c":true,"v":[[261,128.52],[262.92,127.68],[263.2,126.36],[263.24,124.96],[265.24,117.32],[270.44,104.44],[271.4,102.8],[271.8,101.08],[270.48,99.06],[268.16,98.2],[267.24,98.44],[266.4,99.8],[266.04,101.56],[266.04,101.56],[261.96,111.88],[259.32,103.56],[259.04,100.8],[257.88,98.68],[255.6,98.2],[252.88,99.64],[252.8,100.2],[253.16,101.44],[253.8,102.76],[253.8,102.76],[259.56,119.32],[258.6,124.32],[258.2,125.14],[257.88,126.04],[258.04,126.8]],"i":[[-1.5199999999999818,0],[-0.426667000000009,0.5600000000000023],[0.02666700000003175,0.5866670000000056],[-0.05333300000000918,0.21333300000000577],[-1.0666669999999954,2.8266670000000005],[-1.1200000000000045,2.666667000000004],[-0.6133329999999546,1.013333000000003],[0.07999999999998408,0.533332999999999],[0.7733329999999796,0.5733333000000016],[0.7733329999999796,0],[0.266666999999984,-0.1599999999999966],[0.1333330000000501,-0.6666666999999933],[0.026666999999974905,-0.0799999999999983],[0,0],[0,0],[0,0],[0.13333299999999326,1.6533330000000035],[0.6666670000000181,0.3999999999999915],[0.960000000000008,0],[0.2666670000000124,-0.9599999999999937],[0,-0.18666699999999992],[-0.2400000000000091,-0.480000000000004],[-0.0800000000000125,-0.21333300000000577],[0,0],[0,0],[0,0],[0.2133330000000342,-0.3333329999999961],[0,-0.2666670000000124],[-0.10666700000001583,-0.29333300000000406]],"o":[[0.8533330000000205,0],[0.21333299999997735,-0.29333300000000406],[-0.026666999999974905,-0.7199999999999989],[0.266666999999984,-2.266666999999998],[2.346666999999968,-5.9199999999999875],[0.026666999999974905,-0.0799999999999983],[0.3466670000000249,-0.6133329999999972],[-0.10666700000001583,-0.7733329999999938],[-0.7733330000000365,-0.5733333000000016],[-0.3466670000000249,0],[-0.426667000000009,0.2400000000000091],[-0.21333299999997735,1.0933330000000012],[0,0],[0,0],[0,0],[-0.05333300000000918,-0.18666699999999992],[-0.10666700000001583,-1.0133332999999993],[-0.5600000000000023,-0.3200000000000074],[-1.5466669999999851,0],[-0.05333300000000918,0.18666670000000352],[0,0.3466669999999965],[0.3466669999999965,0.6666670000000039],[0,0],[0,0],[0,0],[-0.05333300000000918,0.21333300000000577],[-0.21333299999997735,0.3333329999999961],[0,0.21333299999999156],[0.45333299999998644,1.1466670000000079]]}}},{"ty":"sh","ks":{"a":0,"k":{"c":true,"v":[[279.24,122],[284.44,118.16],[285.88,116.16],[286.64,114.36],[285.64,112.8],[283.56,112.28],[282.16,112.58],[281.68,113.84],[281.32,115.28],[279,117.8],[277.8,113.8],[278.56,106.42],[280,102.48],[280.64,104.28],[280.64,104.28],[280.64,105.44],[280.6,106.6],[281,108.64],[283.4,109.52],[285.68,108.16],[285.8,106.76],[284.44,101.36],[280.16,98.44],[274.68,102.6],[272.76,111.44],[274.32,118.8]],"i":[[-2.106667000000016,0],[-1.6800000000000068,2.5600000000000023],[-0.7466670000000022,0.8800000000000097],[-0.026666999999974905,0.5866670000000056],[0.6933329999999955,0.4000000000000057],[0.8000000000000114,0],[0.3199999999999932,-0.20000000000000284],[0,-0.6400000000000006],[0.2133330000000342,-0.23999999999999488],[1.0400000000000205,0],[0,2.666667000000004],[-0.5066669999999931,2.6266669999999976],[-0.45333299999998644,0],[0,-1.2000000000000028],[0,0],[0,0],[0,-0.2666669999999982],[-0.266666999999984,-0.29333300000000406],[-1.0399999999999636,0],[-0.18666699999999992,0.9066669999999988],[0,0.533332999999999],[0.9066670000000272,1.6533330000000035],[1.759999999999991,0],[1.413332999999966,-2.7733332999999902],[0,-3.3866670000000028],[-1.0400000000000205,-1.9466669999999908]],"o":[[1.7866669999999658,0],[0.21333299999997735,-0.45333300000000065],[0.4800000000000182,-0.6133329999999972],[0.02666700000003175,-0.6400000000000006],[-0.5866669999999772,-0.3466669999999965],[-0.6133330000000115,0],[-0.32000000000005,0.20000000000000284],[-0.02666700000003175,0.7199999999999989],[-0.5066669999999931,1.6799999999999926],[-0.8000000000000114,0],[0,-2.293333000000004],[0.5066669999999931,-2.6266669999999976],[0.426667000000009,0],[0,0],[0,0],[-0.026666999999974905,0.5066670000000073],[0,1.0666670000000096],[0.5600000000000023,0.5866670000000056],[1.3333330000000387,0],[0.07999999999998408,-0.3999999999999915],[0,-1.946667000000005],[-1.0933329999999728,-1.9466666999999944],[-2.240000000000009,0],[-1.2800000000000296,2.5066670000000073],[0,2.960000000000008],[1.1733330000000137,2.1333330000000075]]}}},{"ty":"sh","ks":{"a":0,"k":{"c":true,"v":[[292.44,122.04],[295.32,121],[295.76,120.08],[295.54,119.26],[295.32,118.36],[295.32,118.36],[295.32,115],[302.52,120.04],[303.64,121.16],[304.96,121.84],[305.88,121.68],[308.56,118.44],[308.52,117.88],[307.48,116.6],[305.88,115.96],[305.88,115.96],[298.76,110.84],[305.4,103.96],[307,102.44],[307.8,101.08],[306.58,99.2],[304.2,98.32],[303.64,98.4],[302.32,99.36],[301.08,101.08],[295.32,106.72],[295.32,93.64],[295.62,92.2],[295.92,90.84],[295.56,89.8],[292.48,88.92],[290.28,89.8],[290.12,91.96],[290.12,91.96],[290.12,118.28],[289.96,119.68],[290.12,120.84]],"i":[[-1.1999999999999886,0],[-0.6666670000000181,0.6933329999999955],[0,0.29333300000000406],[0.14666699999997945,0.35999999999999943],[0,0.23999999999999488],[0,0],[0,0],[0,0],[-0.6133330000000115,-0.6666669999999897],[-0.47999999999996135,0],[-0.3466669999999681,0.10666699999998741],[0,1.6000000000000085],[0.02666700000003175,0.18666699999999992],[0.5866669999999772,0.2400000000000091],[0.05333300000000918,0.05333300000000918],[0,0],[0,0],[0,0],[-0.5333330000000274,0.533332999999999],[0,0.37333300000000236],[0.8133330000000001,0.586666699999995],[0.7733330000000365,0],[0.160000000000025,-0.05333330000000558],[0.2933330000000183,-0.480000000000004],[0.3199999999999932,-0.3199999999999932],[1.493333000000007,-1.4399999999999977],[-0.05333300000000918,1.546666700000003],[-0.19999999999998863,0.6133332999999936],[0,0.29333330000000046],[0.2400000000000091,0.3200000000000074],[1.599999999999966,0],[0.2400000000000091,-0.586666699999995],[-0.02666700000003175,-0.47999999999998977],[0,0],[0,0],[0.10666700000001583,-0.6933330000000097],[-0.160000000000025,-0.37333300000000236]],"o":[[1.2533329999999978,0],[0.2933330000000183,-0.3199999999999932],[0,-0.18666699999999992],[-0.1466670000000363,-0.35999999999999943],[0,0],[0,0],[0,0],[0.13333299999999326,0.0799999999999983],[0.4000000000000341,0.45333300000000065],[0.26666700000004084,0],[1.7866670000000227,-0.5600000000000023],[0,-0.18666699999999992],[-0.10666699999995899,-0.6133329999999972],[-1.0133330000000456,-0.37333299999998815],[0,0],[0,0],[0,0],[0.5333330000000274,-0.47999999999998977],[0.5333330000000274,-0.533332999999999],[0,-0.6666670000000039],[-0.8133330000000001,-0.5866667000000092],[-0.21333299999997735,0],[-0.5866669999999772,0.1599999999999966],[-0.5066669999999931,0.8266670000000005],[-2.346666999999968,2.3200000000000074],[-0.05333300000000918,-7.173333299999996],[0,-0.3466667000000001],[0.19999999999998863,-0.6133333000000079],[0,-0.37333329999999876],[-0.45333299999998644,-0.586666699999995],[-1.2266670000000204,0],[-0.13333299999999326,0.960000000000008],[0,0],[0,0],[0,0.23999999999999488],[-0.053332999999952335,0.3999999999999915],[0.3466669999999681,0.7999999999999972]]}}},{"ty":"sh","ks":{"a":0,"k":{"c":true,"v":[[316.96,121.92],[320.76,121.2],[322.96,120.04],[325.12,116.8],[324.42,114.86],[322.56,113.92],[322,114.04],[321.16,115.22],[320.84,116.12],[319.64,117.28],[317.68,118],[316.16,117],[315.48,114.92],[322.04,110.04],[324.16,104.2],[318.92,98.36],[317.68,98.44],[312.44,102.84],[310.68,111.12],[312.24,118.48]],"i":[[-2,-0.13333300000000747],[-1.4666669999999726,0.5600000000000023],[-0.18666699999999992,0.29333299999998985],[-0.21333299999997735,1.013333000000003],[0.5999999999999659,0.6266669999999976],[0.6399999999999864,0],[0.160000000000025,-0.0800000000000125],[0.10666699999995899,-0.5466669999999993],[0.10666700000001583,-0.05333300000000918],[0.586667000000034,-0.4000000000000057],[0.6133330000000115,0],[0.37333300000000236,0.6666670000000039],[0.29333299999996143,1.0666669999999954],[-1.7066670000000386,2.319999999999993],[0.15999999999996817,1.7866669999999942],[3.173332999999957,0],[0.426667000000009,-0.05333329999999137],[1.3066670000000045,-2.6133329999999972],[0,-3.146667000000008],[-1.0400000000000205,-2]],"o":[[1.0666669999999954,0.0799999999999983],[1.2800000000000296,-0.480000000000004],[1.2266670000000204,-1.1466670000000079],[0.13333299999999326,-0.6666670000000039],[-0.6000000000000227,-0.6266669999999976],[-0.21333299999997735,0],[-0.45333299999998644,0.23999999999999488],[-0.10666700000001583,0.5466669999999993],[-0.21333299999997735,0.37333300000000236],[-0.6933329999999955,0.480000000000004],[-0.6399999999999864,0],[-0.160000000000025,-0.3199999999999932],[2.6666669999999613,-0.9333330000000046],[1.573332999999991,-2.1066670000000016],[-0.32000000000005,-3.8933329999999984],[-0.4000000000000341,0],[-2.186667,0.3200000000000074],[-1.1733330000000137,2.3733330000000024],[0,2.906666999999999],[1.1466669999999795,2.1599999999999966]]}}},{"ty":"sh","ks":{"a":0,"k":{"c":true,"v":[[315.16,111],[316.24,105],[318.84,102.72],[320.24,104.28],[318.64,108.2]],"i":[[1.2533329999999978,-0.4000000000000057],[-0.8799999999999955,2.0266670000000033],[-1.0666669999999954,0],[0,-1.0400000000000063],[1.0666669999999954,-1.466667000000001]],"o":[[-0.160000000000025,-1.9733329999999967],[0.6666670000000181,-1.519999999999996],[0.9333330000000046,0],[0,1.1466669999999937],[-1.0666669999999954,1.466667000000001]]}}},{"ty":"sh","ks":{"a":0,"k":{"c":true,"v":[[335.92,122.68],[338.02,122.16],[339.2,120.76],[338.54,118.84],[337.72,116.88],[337.72,116.88],[337.72,103.2],[339.2,102.44],[339.76,102.32],[340.8,102.58],[341.8,102.84],[342.98,102.16],[343.44,100.72],[340.92,97.68],[340.48,97.6],[339.32,98.16],[337.72,99.24],[337.72,99.24],[337.72,97.28],[338.2,96.32],[338.68,95.32],[338.36,94.28],[335.48,92.68],[332.68,94.28],[332.48,94.96],[332.7,95.94],[332.92,97],[332.92,97],[332.92,100.48],[329.56,102.2],[328.16,102.48],[327.12,103.2],[327,103.72],[329.8,105.68],[330.92,105.92],[332.04,105.46],[332.84,104.92],[332.76,111],[332.72,117.24],[333,120.8]],"i":[[-1.4133330000000228,0],[-0.6533329999999751,0.3466669999999965],[-0.13333299999999326,0.5866669999999914],[0.5466669999999567,0.7999999999999972],[0,0.5066670000000073],[0,0],[0,0],[0,0],[-0.18666699999999992,0],[-0.45333299999998644,-0.17333299999999952],[-0.2133330000000342,0],[-0.30666700000000446,0.45333300000000065],[0,0.5066670000000073],[1.6800000000000068,0.45333329999999705],[0.13333299999999326,0],[0.45333299999998644,-0.37333329999999876],[0.47999999999996135,-0.21333329999998796],[0,0],[0,0],[-0.3199999999999932,0.3466667000000001],[0,0.3200000000000074],[0.21333299999997735,0.4266666999999984],[1.3599999999999568,0],[0.6933329999999955,-1.066666699999999],[0,-0.23999999999999488],[-0.14666699999997945,-0.4399999999999977],[0,-0.2666667000000018],[0,0],[0,0],[0.6133330000000115,-0.2400000000000091],[0.7733329999999796,-0.10666700000000162],[0.18666699999999992,-0.426667000000009],[0,-0.1599999999999966],[-1.8666670000000067,-0.6400000000000006],[-0.2933330000000183,0],[-0.37333300000000236,0.30666700000000446],[-0.15999999999996817,0.05333299999999497],[0.05333300000000918,-3.200000000000003],[-0.02666700000003175,-1.333332999999996],[-0.160000000000025,-0.37333300000000236]],"o":[[0.7466670000000022,0],[0.6533330000000319,-0.3466669999999965],[0.10666700000001583,-0.480000000000004],[-0.5466670000000136,-0.7999999999999972],[0,0],[0,0],[0,0],[0.18666699999999992,-0.0799999999999983],[0.2400000000000091,0],[0.45333299999998644,0.17333299999999952],[0.47999999999996135,0],[0.30666700000000446,-0.45333300000000065],[0,-1.5733333000000016],[-0.160000000000025,-0.05333330000000558],[-0.3199999999999932,0],[-0.5866669999999772,0.5066666999999967],[0,0],[0,0],[0,-0.29333330000000046],[0.3199999999999932,-0.3466667000000001],[0,-0.2666666999999876],[-0.5600000000000023,-1.066666699999999],[-1.1733330000000137,0],[-0.13333299999999326,0.21333330000000217],[0,0.21333330000000217],[0.1466670000000363,0.4399999999999977],[0,0],[0,0],[-1.6266669999999976,0.9066669999999988],[-0.160000000000025,0.0799999999999983],[-0.5066670000000499,0.05333299999999497],[-0.07999999999998408,0.18666699999999992],[0,0.6666670000000039],[0.45333299999998644,0.1599999999999966],[0.37333300000000236,0],[0.37333300000000236,-0.30666699999999025],[0,0.8533329999999921],[-0.05333300000000918,2.8266670000000005],[0.026666999999974905,2],[0.5333330000000274,1.2533329999999978]]}}},{"ty":"sh","ks":{"a":0,"k":{"c":true,"v":[[350.16,111.64],[351.74,111.18],[352.36,109.96],[352.06,108.48],[351.76,106.84],[351.76,106.84],[351.76,93.56],[352.04,92.26],[352.32,91.08],[352.24,90.52],[348.96,89.04],[346.96,89.56],[346.36,97.16],[346.72,107.48],[346.68,108.38],[346.6,109.12],[346.96,110.2]],"i":[[-1.3866670000000454,0],[-0.4133330000000228,0.30666699999999025],[0,0.5066670000000073],[0.19999999999998863,0.6933329999999955],[0,0.3999999999999915],[0,0],[0,0],[-0.18666699999999992,0.519999999999996],[0,0.2666667000000018],[0.05333300000000918,0.18666670000000352],[1.920000000000016,0],[0.2933330000000183,-0.3466667000000001],[0,-4.613333299999994],[-0.2400000000000091,-3.3333330000000103],[0.05333300000000918,-0.35999999999999943],[0,-0.13333300000000747],[-0.23999999999995225,-0.3200000000000074]],"o":[[0.6399999999999864,0],[0.413332999999966,-0.30666700000000446],[0,-0.29333299999998985],[-0.19999999999998863,-0.6933330000000097],[0,0],[0,0],[0,-0.3466667000000001],[0.18666699999999992,-0.5200000000000102],[0,-0.18666670000000352],[-0.266666999999984,-0.9866667000000007],[-1.0399999999999636,0],[-0.39999999999997726,0.45333329999999705],[0,3.5466669999999993],[0.026666999999974905,0.23999999999999488],[-0.05333300000000918,0.35999999999999943],[0,0.3999999999999915],[0.7466670000000022,0.9599999999999937]]}}},{"ty":"sh","ks":{"a":0,"k":{"c":true,"v":[[352.162857,118.946939],[352.3,117.84],[352.44,116.68],[352.24,115.72],[348.76,114],[346.96,114.76],[346.92,115.6],[347.04,116.44],[347,118.08],[346.92,119.52],[347.2,120.76],[350.36,122.16],[352,121.44],[352.28,120.28],[352.16,119.08]],"i":[[0,0],[-0.07999999999998408,0.4571430000000021],[0,0.23999999999999488],[0.13333299999999326,0.29333300000000406],[1.813333,0],[0.2133330000000342,-0.5066670000000073],[-0.08000000000004093,-0.3199999999999932],[0,-0.0799999999999983],[0.05333300000000918,-0.6666670000000039],[0,-0.21333299999999156],[-0.18666699999999992,-0.2666669999999982],[-1.3866669999999885,0],[-0.2933330000000183,0.480000000000004],[0.02666700000003175,0.45333300000000065],[0,-0.05333299999999497]],"o":[[0.011429000000021006,-0.280816999999999],[0.0933329999999728,-0.533332999999999],[0,-0.3466670000000107],[-0.5066669999999931,-1.1466669999999937],[-0.9866670000000113,0],[-0.10666699999995899,0.23999999999999488],[0.07999999999998408,0.480000000000004],[0.026666999999974905,0.426667000000009],[-0.05333300000000918,0.7466670000000022],[0,0.5600000000000023],[0.7200000000000273,0.9333329999999904],[0.8000000000000114,0],[0.21333299999997735,-0.3199999999999932],[-0.07999999999998408,-0.8533330000000063],[0,0]]}}},{"ty":"st","o":{"a":0,"k":0},"w":{"a":0,"k":0},"c":{"a":0,"k":[0,0,0,0]},"lc":3,"lj":1,"ml":1},{"ty":"fl","o":{"a":0,"k":100},"r":1,"c":{"a":0,"k":[0,0,0,1]}},{"ty":"tr","o":{"a":0,"k":100},"a":{"a":0,"k":[0,0]},"s":{"a":0,"k":[100,100]},"p":{"a":0,"k":[35.745,-54.875]},"r":{"a":0,"k":15.01149423242757}}]},{"ty":"gr","nm":"board shape group","it":[{"ty":"rc","s":{"a":0,"k":[375,111]},"r":{"a":0,"k":0},"p":{"a":0,"k":[226.5,107.5]}},{"ty":"st","o":{"a":0,"k":100},"c":{"a":0,"k":[0.592156862745098,0.592156862745098,0.592156862745098,1]},"lc":3,"lj":1,"ml":1,"w":{"a":0,"k":1}},{"ty":"fl","o":{"a":0,"k":100},"r":2,"c":{"a":0,"k":[0.8470588235294118,0.8470588235294118,0.8470588235294118,1]}},{"ty":"tr","o":{"a":0,"k":100},"a":{"a":0,"k":[0,0]},"s":{"a":0,"k":[100,100]},"p":{"a":0,"k":[35.541,-54.96]},"r":{"a":0,"k":15.01149423242757}}]}],"op":332},{"ty":4,"nm":"hospital","ip":0,"st":0,"ind":1,"hix":3,"ks":{"o":{"a":0,"k":100},"or":{"a":0,"k":[0,0,0]},"a":{"a":0,"k":[215,206.5,0]},"p":{"s":true,"x":{"a":0,"k":235.11},"y":{"a":0,"k":206.5}},"rx":{"a":0,"k":0},"ry":{"a":0,"k":0},"rz":{"a":0,"k":0},"s":{"a":0,"k":[100,100,100]}},"shapes":[{"ty":"gr","nm":"hospital shape group","it":[{"ty":"rc","s":{"a":0,"k":[11,24]},"r":{"a":0,"k":5},"p":{"a":0,"k":[150.5,315]}},{"ty":"st","o":{"a":0,"k":0},"w":{"a":0,"k":0},"c":{"a":0,"k":[0,0,0,0]},"lc":3,"lj":1,"ml":1},{"ty":"fl","o":{"a":0,"k":100},"r":2,"c":{"a":0,"k":[0.9686274509803922,0.9647058823529412,0.9686274509803922,1]}},{"ty":"tr","o":{"a":0,"k":100},"a":{"a":0,"k":[0,0]},"s":{"a":0,"k":[100,100]},"p":{"a":0,"k":[0,0]},"r":{"a":0,"k":0}}]},{"ty":"gr","nm":"hospital shape group","it":[{"ty":"rc","s":{"a":0,"k":[11,24]},"r":{"a":0,"k":5},"p":{"a":0,"k":[276.5,315]}},{"ty":"st","o":{"a":0,"k":0},"w":{"a":0,"k":0},"c":{"a":0,"k":[0,0,0,0]},"lc":3,"lj":1,"ml":1},{"ty":"fl","o":{"a":0,"k":100},"r":2,"c":{"a":0,"k":[0.9686274509803922,0.9647058823529412,0.9686274509803922,1]}},{"ty":"tr","o":{"a":0,"k":100},"a":{"a":0,"k":[0,0]},"s":{"a":0,"k":[100,100]},"p":{"a":0,"k":[0,0]},"r":{"a":0,"k":0}}]},{"ty":"gr","nm":"hospital shape group","it":[{"ty":"rc","s":{"a":0,"k":[42,90]},"r":{"a":0,"k":0},"p":{"a":0,"k":[21,45]}},{"ty":"st","o":{"a":0,"k":0},"w":{"a":0,"k":0},"c":{"a":0,"k":[0,0,0,0]},"lc":3,"lj":1,"ml":1},{"ty":"fl","o":{"a":0,"k":100},"r":2,"c":{"a":0,"k":[0.396078431372549,0.3686274509803922,0.403921568627451,1]}},{"ty":"tr","o":{"a":0,"k":100},"a":{"a":0,"k":[0,0]},"s":{"a":0,"k":[100,100]},"p":{"a":0,"k":[139,268]},"r":{"a":0,"k":0}}]},{"ty":"gr","nm":"hospital shape group","it":[{"ty":"rc","s":{"a":0,"k":[42,90]},"r":{"a":0,"k":0},"p":{"a":0,"k":[21,45]}},{"ty":"st","o":{"a":0,"k":0},"w":{"a":0,"k":0},"c":{"a":0,"k":[0,0,0,0]},"lc":3,"lj":1,"ml":1},{"ty":"fl","o":{"a":0,"k":100},"r":2,"c":{"a":0,"k":[0.396078431372549,0.3686274509803922,0.403921568627451,1]}},{"ty":"tr","o":{"a":0,"k":100},"a":{"a":0,"k":[0,0]},"s":{"a":0,"k":[100,100]},"p":{"a":0,"k":[246,268]},"r":{"a":0,"k":0}}]},{"ty":"gr","nm":"hospital shape group","it":[{"ty":"sh","ks":{"a":0,"k":{"c":true,"v":[[146.158,217.204],[147.838,216.364],[148.902,214.376],[152.542,210.54],[154.362,206.536],[153.998,204.954],[152.43,203.736],[152.43,203.736],[149.854,202.952],[153.018,196.792],[152.598,195.056],[150.022,193.824],[145.598,194.832],[143.134,193.684],[142.238,193.992],[141.818,195.168],[142.406,197.072],[142.602,204.716],[143.134,213.06],[142.518,214.124],[142.966,215.216]],"i":[[-1.269332999999989,-0.14933300000001282],[-0.46666700000000105,0.6346670000000074],[-0.35466699999997786,0.671999999999997],[-0.2426670000000115,0.28000000000000114],[0,1.1759999999999877],[0.2426670000000115,0.5133329999999887],[0.8026669999999854,0.2986670000000231],[0,0],[0,0],[0,1.960000000000008],[0.2799999999999727,0.5226669999999842],[1.288000000000011,0],[1.8106669999999951,-0.671999999999997],[1.0080000000000098,0],[0.205332999999996,-0.205332999999996],[0,-0.48533299999999713],[-0.3919999999999959,-0.6160000000000139],[-0.13066700000001674,-3.733333000000016],[-0.18666699999999992,-1.0266670000000033],[0,-0.37333300000000236],[-0.2986669999999947,-0.3919999999999959]],"o":[[0.6533330000000035,0.07466700000000515],[0.3546670000000063,-0.6533330000000035],[2.184000000000026,-2.2773329999999987],[1.2133330000000058,-1.4933329999999785],[0,-0.5413330000000087],[-0.2426669999999831,-0.5133330000000171],[0,0],[0,0],[2.1093329999999924,-2.146667000000008],[0,-0.6346670000000074],[-0.42933300000001395,-0.8213330000000099],[-1.138666999999998,0],[-0.6346670000000074,-0.7653329999999983],[-0.3919999999999959,0],[-0.28000000000000114,0.2986670000000231],[0,0.6533330000000035],[0,1.3626669999999876],[0.16800000000000637,4.536000000000001],[-0.41066699999998946,0.3359999999999843],[0,0.33600000000001273],[0.858666999999997,1.1759999999999877]]}}},{"ty":"sh","ks":{"a":0,"k":{"c":true,"v":[[145.934,202],[145.878,200.166],[145.822,198.528],[148.398,197.296],[148.93,197.744],[147.992,199.718]],"i":[[0.7466670000000022,-0.6346670000000074],[0.037333000000018046,0.9240000000000066],[0,0.16800000000000637],[-0.46666700000000105,0],[0,-0.2986669999999947],[0.6253330000000119,-0.8866669999999885]],"o":[[0,-0.2986669999999947],[-0.037332999999989624,-0.9240000000000066],[1.2506669999999929,-0.8213329999999814],[0.3546670000000063,0],[0,0.42933300000001395],[-0.6253329999999835,0.886667000000017]]}}},{"ty":"sh","ks":{"a":0,"k":{"c":true,"v":[[146.382,211.688],[146.27,207.432],[149.35,206.2],[150.386,206.956],[146.382,211.688]],"i":[[0,0],[0,0],[-1.0826669999999865,0],[0,-0.5039999999999907],[2.6693329999999946,-2.1093329999999924]],"o":[[0,0],[0.9706669999999917,-0.8213329999999814],[0.690667000000019,0],[0,1.0453329999999994],[0,0]]}}},{"ty":"sh","ks":{"a":0,"k":{"c":true,"v":[[158.226,216.98],[161.446,215.398],[163.126,212.276],[163.798,214.768],[164.414,216],[165.31,216.196],[167.382,214.824],[167.438,214.432],[167.018,213.452],[166.542,212.528],[165.926,206.676],[165.254,202.168],[162.678,200.376],[157.778,201.552],[155.846,203.4],[155.622,204.212],[156.21,205.584],[157.526,206.088],[158.45,205.388],[159.318,204.352],[160.032,203.638],[160.998,203.26],[161.81,203.414],[162.286,204.436],[162.174,205.36],[157.778,207.908],[155.118,212.36],[155.398,214.264]],"i":[[-1.3626669999999876,0],[-1.063999999999993,1.054666999999995],[-0.056000000000011596,1.0266670000000033],[-0.22399999999998954,-1.063999999999993],[-0.2986669999999947,-0.205332999999996],[-0.37333300000000236,0],[-0.28000000000000114,0.9146669999999801],[0,0.13066700000001674],[0.28000000000000114,0.37333300000000236],[0.037332999999989624,0.2426670000000115],[0.16800000000000637,2.669333000000023],[0.2986670000000231,0.8026669999999854],[1.2506669999999929,0],[1.3066670000000045,-0.7839999999999918],[0.42933299999998553,-0.7093330000000151],[0,-0.2986669999999947],[-0.3919999999999959,-0.3919999999999959],[-0.48533299999999713,0.056000000000011596],[-0.28000000000000114,0.42933299999998553],[-0.22400000000001796,0.1493329999999844],[-0.25200000000000955,0.25199999999998113],[-0.3919999999999959,0],[-0.31733299999999076,-0.10266699999999673],[0,-0.5786669999999958],[0.07466700000000515,-0.3173330000000192],[1.4560000000000173,-0.858666999999997],[0,-1.7360000000000184],[-0.18666699999999992,-0.671999999999997]],"o":[[1.082667000000015,0],[1.063999999999993,-1.054666999999995],[0.22399999999998954,0.5973329999999919],[0.11199999999999477,0.6159999999999854],[0.22400000000001796,0.13066699999998832],[1.101333000000011,0],[0.037332999999989624,-0.13066700000001674],[0,-0.28000000000000114],[-0.28000000000000114,-0.37333300000000236],[-0.2426670000000115,-1.2319999999999993],[-0.1493329999999844,-2.202666999999991],[-0.46666700000000105,-1.1946670000000097],[-1.960000000000008,0],[-0.858666999999997,0.5226670000000126],[-0.14933300000001282,0.2426669999999831],[0,0.5226670000000126],[0.3919999999999959,0.3919999999999959],[0.3359999999999843,-0.037332999999989624],[0.3546670000000063,-0.5413330000000087],[0.22399999999998954,-0.22400000000001796],[0.25199999999998113,-0.25200000000000955],[0.22400000000001796,0],[0.31733299999999076,0.10266700000002515],[0,0.2986669999999947],[-1.4746670000000108,0.839999999999975],[-1.7733329999999796,1.2319999999999993],[0,0.5973329999999919],[0.5226670000000126,1.8106669999999951]]}}},{"ty":"sh","ks":{"a":0,"k":{"c":true,"v":[[159.43,213.872],[158.814,213.48],[158.31,212.08],[159.318,210.12],[160.844,208.86],[162.51,207.936],[161.012,212.248]],"i":[[0.48533299999999713,0],[0.18666699999999992,0.2613330000000076],[0,0.4479999999999791],[-0.6720000000000255,0.7653329999999983],[-0.5506670000000042,0.31733299999999076],[-0.5600000000000023,0.2986669999999947],[0.5693330000000003,-1.0826669999999865]],"o":[[-0.22400000000001796,0],[-0.3359999999999843,-0.48533299999999713],[0,-0.5413330000000087],[0.46666700000000105,-0.5226670000000126],[0.5506670000000042,-0.3173330000000192],[-0.42933299999998553,1.7920000000000016],[-0.5693330000000003,1.082667000000015]]}}},{"ty":"sh","ks":{"a":0,"k":{"c":true,"v":[[171.862,216.728],[173.794,215.664],[173.99,214.908],[173.64,213.942],[173.29,212.696],[173.29,212.696],[173.29,208.44],[177.854,203.176],[179.282,202.532],[180.346,201.72],[180.374,201.44],[179.492,200.124],[177.658,199.704],[176.58,200.236],[175.698,201.188],[175.698,201.188],[173.29,203.736],[173.234,202.728],[173.458,202.392],[173.682,201.916],[173.598,201.44],[171.918,200.74],[169.65,201.412],[169.538,201.804],[169.762,202.392],[169.986,203.008],[169.986,203.008],[169.986,213.48],[169.93,214.292],[169.874,215.02],[170.266,216.084]],"i":[[-0.671999999999997,0],[-0.3173330000000192,0.7093330000000151],[0,0.22400000000001796],[0.233333000000016,0.4199999999999875],[0,0.41066699999998946],[0,0],[0,0],[0,0],[-0.7466670000000022,0.18666699999999992],[-0.07466700000000515,0.3919999999999959],[0,0.09333300000000122],[0.5880000000000223,0.33600000000001273],[0.6346670000000074,-0.056000000000011596],[0.3079999999999927,-0.31733299999999076],[0.28000000000000114,-0.31733299999999076],[0,0],[0,0],[0,0],[-0.1493329999999844,0.11199999999999477],[0,0.205332999999996],[0.055999999999983174,0.18666699999999992],[0.9893329999999878,0],[0.2426669999999831,-0.4480000000000075],[0,-0.11199999999999477],[-0.14933300000001282,-0.2426669999999831],[0,-0.16800000000000637],[0,0],[0,0],[0.037332999999989624,-0.33600000000001273],[0,-0.14933300000001282],[-0.26133299999997917,-0.28000000000000114]],"o":[[0.9706669999999917,0],[0.13066699999998832,-0.28000000000000114],[0,-0.22399999999998954],[-0.23333299999998758,-0.4200000000000159],[0,0],[0,0],[0,0],[0.205332999999996,-0.2426669999999831],[0.634666999999979,-0.14933300000001282],[0.01866699999999355,-0.09333300000000122],[0,-0.5413330000000087],[-0.5879999999999939,-0.3359999999999843],[-0.41066699999998946,0.037332999999989624],[-0.30800000000002115,0.3173330000000192],[0,0],[0,0],[0,0],[0,-0.11199999999999477],[0.14933300000001282,-0.11199999999999477],[0,-0.13066699999998832],[-0.13066700000001674,-0.46666700000000105],[-1.2693330000000174,0],[-0.07466700000000515,0.1493329999999844],[0,0.1493329999999844],[0.14933300000001282,0.2426670000000115],[0,0],[0,0],[0,0.2053330000000244],[-0.037333000000018046,0.3359999999999843],[0,0.42933299999998553],[0.3919999999999959,0.42933299999998553]]}}},{"ty":"sh","ks":{"a":0,"k":{"c":true,"v":[[182.224609,212.296379],[182.586,216.252],[184.742,217.344],[185.848,216.924],[186.394,215.496],[186.394,215.496],[186.394,213.816],[189.81,206.088],[190.314,214.824],[192.19,215.692],[193.87,215.258],[194.682,214.208],[194.514,213.508],[194.122,212.808],[194.122,212.808],[194.122,207.768],[193.702,202.952],[191.994,200.712],[188.382,202.644],[185.722,207.6],[185.722,207.6],[185.722,203.736],[185.946,202.896],[186.17,202.112],[186.058,201.552],[185.064,200.67],[183.482,200.208],[182.418,200.712],[182.138,201.636],[182.194,202.266],[182.25,202.952],[182.223866,212.145162],[182.222,212.101]],"i":[[0,0],[-0.21538500000002614,-0.17948700000002304],[-0.671999999999997,0],[-0.34533300000001077,0.28000000000000114],[-0.01866699999999355,0.671999999999997],[0,0],[0,0],[-0.46666700000000105,-0.07466700000000515],[0.14933300000001282,-5.749333000000007],[-0.9146670000000086,0],[-0.5039999999999907,0.2893329999999992],[-0.037332999999989624,0.41066699999998946],[0.13066699999998832,0.18666699999999992],[0.037332999999989624,0.13066700000001674],[0,0],[0,0],[0.2613330000000076,1.082667000000015],[0.8026670000000138,0.056000000000011596],[1.063999999999993,-1.3813330000000121],[1.1759999999999877,-2.5013329999999883],[0,0],[0,0],[-0.1493329999999844,0.33600000000001273],[0,0.18666699999999992],[0.07466700000000515,0.18666699999999992],[0.5506670000000042,0.30800000000002115],[0.5039999999999907,0],[0.22399999999998954,-0.3359999999999843],[0,-0.3546670000000063],[-0.037332999999989624,-0.2893329999999992],[0,-0.16800000000000637],[0.01742300000000796,1.2651240000000143],[0,0]],"o":[[0.025543000000027405,2.457593000000003],[0.7653329999999983,0.7279999999999802],[0.3919999999999959,0],[0.34533299999998235,-0.28000000000000114],[0,0],[0,0],[1.8106669999999951,-5.226666999999992],[0.48533299999999713,0.07466700000000515],[0.33600000000001273,0.5786669999999958],[0.6160000000000139,0],[0.5039999999999907,-0.2893329999999992],[0.01866700000002197,-0.28000000000000114],[-0.22400000000001796,-0.33600000000001273],[0,0],[0,0],[-0.01866700000002197,-2.1280000000000143],[-0.3359999999999843,-1.4373329999999953],[-1.343999999999994,-0.09333300000000122],[-0.5973329999999919,0.8026669999999854],[0,0],[0,0],[0,-0.22399999999998954],[0.14933300000001282,-0.3359999999999843],[0,-0.18666699999999992],[-0.11199999999999477,-0.28000000000000114],[-0.5506670000000042,-0.3079999999999927],[-0.48533299999999713,0],[-0.18666699999999992,0.2613330000000076],[0,0.13066700000001674],[0.037333000000018046,0.2893329999999992],[0,7.393898000000007],[0,0],[0,0]]}}},{"ty":"sh","ks":{"a":0,"k":{"c":true,"v":[[199.946,216.98],[203.166,215.398],[204.846,212.276],[205.518,214.768],[206.134,216],[207.03,216.196],[209.102,214.824],[209.158,214.432],[208.738,213.452],[208.262,212.528],[207.646,206.676],[206.974,202.168],[204.398,200.376],[199.498,201.552],[197.566,203.4],[197.342,204.212],[197.93,205.584],[199.246,206.088],[200.17,205.388],[201.038,204.352],[201.752,203.638],[202.718,203.26],[203.53,203.414],[204.006,204.436],[203.894,205.36],[199.498,207.908],[196.838,212.36],[197.118,214.264]],"i":[[-1.3626669999999876,0],[-1.063999999999993,1.054666999999995],[-0.056000000000011596,1.0266670000000033],[-0.22399999999998954,-1.063999999999993],[-0.2986669999999947,-0.205332999999996],[-0.37333300000000236,0],[-0.28000000000000114,0.9146669999999801],[0,0.13066700000001674],[0.28000000000000114,0.37333300000000236],[0.037332999999989624,0.2426670000000115],[0.16800000000000637,2.669333000000023],[0.2986670000000231,0.8026669999999854],[1.2506669999999929,0],[1.3066670000000045,-0.7839999999999918],[0.42933299999998553,-0.7093330000000151],[0,-0.2986669999999947],[-0.3919999999999959,-0.3919999999999959],[-0.48533299999999713,0.056000000000011596],[-0.28000000000000114,0.42933299999998553],[-0.22400000000001796,0.1493329999999844],[-0.25200000000000955,0.25199999999998113],[-0.3919999999999959,0],[-0.31733299999999076,-0.10266699999999673],[0,-0.5786669999999958],[0.07466700000000515,-0.3173330000000192],[1.4560000000000173,-0.858666999999997],[0,-1.7360000000000184],[-0.18666699999999992,-0.671999999999997]],"o":[[1.082667000000015,0],[1.063999999999993,-1.054666999999995],[0.22399999999998954,0.5973329999999919],[0.11199999999999477,0.6159999999999854],[0.22400000000001796,0.13066699999998832],[1.101333000000011,0],[0.037332999999989624,-0.13066700000001674],[0,-0.28000000000000114],[-0.28000000000000114,-0.37333300000000236],[-0.2426670000000115,-1.2319999999999993],[-0.1493329999999844,-2.202666999999991],[-0.46666700000000105,-1.1946670000000097],[-1.960000000000008,0],[-0.858666999999997,0.5226670000000126],[-0.14933300000001282,0.2426669999999831],[0,0.5226670000000126],[0.3919999999999959,0.3919999999999959],[0.3359999999999843,-0.037332999999989624],[0.3546670000000063,-0.5413330000000087],[0.22399999999998954,-0.22400000000001796],[0.25199999999998113,-0.25200000000000955],[0.22400000000001796,0],[0.31733299999999076,0.10266700000002515],[0,0.2986669999999947],[-1.4746670000000108,0.839999999999975],[-1.7733329999999796,1.2319999999999993],[0,0.5973329999999919],[0.5226670000000126,1.8106669999999951]]}}},{"ty":"sh","ks":{"a":0,"k":{"c":true,"v":[[201.15,213.872],[200.534,213.48],[200.03,212.08],[201.038,210.12],[202.564,208.86],[204.23,207.936],[202.732,212.248]],"i":[[0.48533299999999713,0],[0.18666699999999992,0.2613330000000076],[0,0.4479999999999791],[-0.671999999999997,0.7653329999999983],[-0.5506670000000042,0.31733299999999076],[-0.5600000000000023,0.2986669999999947],[0.5693330000000003,-1.0826669999999865]],"o":[[-0.22400000000001796,0],[-0.3359999999999843,-0.48533299999999713],[0,-0.5413330000000087],[0.46666700000000105,-0.5226670000000126],[0.5506670000000042,-0.3173330000000192],[-0.42933299999998553,1.7920000000000016],[-0.5693330000000003,1.082667000000015]]}}},{"ty":"sh","ks":{"a":0,"k":{"c":true,"v":[[213.33,216.728],[215.346,216],[215.654,215.356],[215.5,214.782],[215.346,214.152],[215.346,214.152],[215.346,211.8],[220.386,215.328],[221.17,216.112],[222.094,216.588],[222.738,216.476],[224.614,214.208],[224.586,213.816],[223.858,212.92],[222.738,212.472],[222.738,212.472],[217.754,208.888],[222.402,204.072],[223.522,203.008],[224.082,202.056],[223.228,200.74],[221.562,200.124],[221.17,200.18],[220.246,200.852],[219.378,202.056],[215.346,206.004],[215.346,196.848],[215.556,195.84],[215.766,194.888],[215.514,194.16],[213.358,193.544],[211.818,194.16],[211.706,195.672],[211.706,195.672],[211.706,214.096],[211.594,215.076],[211.706,215.888]],"i":[[-0.8400000000000034,0],[-0.46666700000000105,0.48533299999999713],[0,0.205332999999996],[0.10266699999999673,0.25199999999998113],[0,0.16800000000000637],[0,0],[0,0],[0,0],[-0.42933299999998553,-0.46666700000000105],[-0.3359999999999843,0],[-0.2426670000000115,0.07466700000000515],[0,1.1200000000000045],[0.01866699999999355,0.13066699999998832],[0.41066699999998946,0.16800000000000637],[0.037332999999989624,0.037332999999989624],[0,0],[0,0],[0,0],[-0.37333300000000236,0.37333300000000236],[0,0.26133299999997917],[0.5693330000000003,0.41066699999998946],[0.5413329999999803,0],[0.11200000000002319,-0.037333000000018046],[0.205332999999996,-0.33600000000001273],[0.22400000000001796,-0.22400000000001796],[1.0453329999999994,-1.0079999999999814],[-0.037332999999989624,1.0826669999999865],[-0.14000000000001478,0.42933299999998553],[0,0.205332999999996],[0.16799999999997794,0.22399999999998954],[1.1200000000000045,0],[0.16799999999997794,-0.41066699999998946],[-0.01866699999999355,-0.3359999999999843],[0,0],[0,0],[0.07466700000000515,-0.48533299999999713],[-0.11199999999999477,-0.2613330000000076]],"o":[[0.877332999999993,0],[0.205332999999996,-0.22399999999998954],[0,-0.13066699999998832],[-0.10266699999999673,-0.25200000000000955],[0,0],[0,0],[0,0],[0.09333300000000122,0.055999999999983174],[0.28000000000000114,0.3173330000000192],[0.18666699999999992,0],[1.2506669999999929,-0.3919999999999959],[0,-0.13066699999998832],[-0.07466700000000515,-0.42933300000001395],[-0.7093330000000151,-0.26133299999997917],[0,0],[0,0],[0,0],[0.37333300000000236,-0.33600000000001273],[0.37333300000000236,-0.37333300000000236],[0,-0.46666700000000105],[-0.5693330000000003,-0.4106670000000179],[-0.14933300000001282,0],[-0.41066699999998946,0.11199999999999477],[-0.3546670000000063,0.5786669999999958],[-1.6426669999999888,1.6239999999999952],[-0.037332999999989624,-5.0213329999999985],[0,-0.2426670000000115],[0.13999999999998636,-0.42933300000001395],[0,-0.2613330000000076],[-0.3173330000000192,-0.41066699999998946],[-0.858666999999997,0],[-0.09333300000000122,0.671999999999997],[0,0],[0,0],[0,0.16800000000000637],[-0.037332999999989624,0.28000000000000114],[0.2426670000000115,0.5600000000000023]]}}},{"ty":"sh","ks":{"a":0,"k":{"c":true,"v":[[231.166,217.036],[235.562,212.276],[236.038,204.184],[236.374,203.232],[236.542,202.336],[235.506,201.076],[233.798,200.684],[233.014,200.824],[232.51,201.748],[232.594,202.532],[232.678,203.344],[232.482,209.672],[230.942,213.648],[229.85,211.8],[229.542,207.796],[229.822,203.848],[230.074,202.546],[230.382,201.384],[230.326,200.992],[229.598,200.306],[228.282,200.012],[226.966,200.488],[226.434,201.86],[226.63,203.008],[226.266,208.104]],"i":[[-3.266666999999984,0],[-0.690667000000019,3.1733329999999853],[0,3.882666999999998],[-0.18666699999999992,0.42933300000001395],[0.037332999999989624,0.28000000000000114],[0.6160000000000139,0.3173330000000192],[0.6159999999999854,0],[0.18666699999999992,-0.09333300000000122],[0,-0.4479999999999791],[-0.055999999999983174,-0.3546670000000063],[0,-0.18666699999999992],[0.13066699999998832,-1.3253330000000005],[0.7839999999999918,0],[0.2613330000000076,1.2319999999999993],[0,1.6053330000000017],[-0.18666699999999992,1.0453329999999994],[-0.2053330000000244,0.5320000000000107],[0,0.2426670000000115],[0.037333000000018046,0.13066700000001674],[0.41066699999998946,0.19599999999999795],[0.46666700000000105,0],[0.2986669999999947,-0.31733299999999076],[0,-0.5413330000000087],[-0.13066699999998832,-0.42933300000001395],[0,-1.6053330000000017]],"o":[[2.240000000000009,0],[0.31733299999999076,-1.5120000000000005],[0.037332999999989624,-0.205332999999996],[0.14933300000001282,-0.31733299999999076],[-0.07466700000000515,-0.5226670000000126],[-0.5226670000000126,-0.2613330000000076],[-0.33600000000001273,0],[-0.33600000000001273,0.16799999999997794],[0,0.16800000000000637],[0.056000000000011596,0.35466699999997786],[0,2.8933330000000126],[-0.2426670000000115,2.6506669999999986],[-0.46666700000000105,0],[-0.205332999999996,-1.0640000000000214],[0,-1.5866670000000056],[-0.037332999999989624,-0.33600000000001273],[0.205332999999996,-0.5319999999999823],[0,-0.13066699999998832],[-0.07466700000000515,-0.26133299999997917],[-0.4106670000000179,-0.19599999999999795],[-0.5786670000000242,0],[-0.3546670000000063,0.37333300000000236],[0,0.3359999999999843],[-0.2426669999999831,1.7920000000000016],[0,5.954667000000001]]}}},{"ty":"sh","ks":{"a":0,"k":{"c":true,"v":[[244.522,217.176],[245.992,216.812],[246.818,215.832],[246.356,214.488],[245.782,213.116],[245.782,213.116],[245.782,203.54],[246.818,203.008],[247.21,202.924],[247.938,203.106],[248.638,203.288],[249.464,202.812],[249.786,201.804],[248.022,199.676],[247.714,199.62],[246.902,200.012],[245.782,200.768],[245.782,200.768],[245.782,199.396],[246.118,198.724],[246.454,198.024],[246.23,197.296],[244.214,196.176],[242.254,197.296],[242.114,197.772],[242.268,198.458],[242.422,199.2],[242.422,199.2],[242.422,201.636],[240.07,202.84],[239.09,203.036],[238.362,203.54],[238.278,203.904],[240.238,205.276],[241.022,205.444],[241.806,205.122],[242.366,204.744],[242.31,209],[242.282,213.368],[242.478,215.86]],"i":[[-0.9893329999999878,0],[-0.4573329999999771,0.2426669999999831],[-0.09333300000000122,0.4106670000000179],[0.38266699999999787,0.5600000000000023],[0,0.35466699999997786],[0,0],[0,0],[0,0],[-0.13066700000001674,0],[-0.31733299999999076,-0.12133299999999281],[-0.14933300000001282,0],[-0.2146669999999915,0.31733299999999076],[0,0.3546670000000063],[1.1760000000000161,0.3173330000000192],[0.09333300000000122,0],[0.3173330000000192,-0.2613330000000076],[0.3359999999999843,-0.14933300000001282],[0,0],[0,0],[-0.22399999999998954,0.2426670000000115],[0,0.22399999999998954],[0.14933300000001282,0.2986669999999947],[0.9519999999999982,0],[0.48533299999999713,-0.7466670000000022],[0,-0.16799999999997794],[-0.10266699999999673,-0.3079999999999927],[0,-0.18666699999999992],[0,0],[0,0],[0.42933300000001395,-0.16800000000000637],[0.5413330000000087,-0.07466700000000515],[0.13066700000001674,-0.2986669999999947],[0,-0.11199999999999477],[-1.3066670000000045,-0.4480000000000075],[-0.205332999999996,0],[-0.2613330000000076,0.2146669999999915],[-0.11200000000002319,0.037332999999989624],[0.037332999999989624,-2.240000000000009],[-0.01866700000002197,-0.9333330000000046],[-0.11199999999999477,-0.2613330000000076]],"o":[[0.5226670000000126,0],[0.45733300000000554,-0.2426670000000115],[0.07466699999997672,-0.3359999999999843],[-0.38266699999999787,-0.5600000000000023],[0,0],[0,0],[0,0],[0.13066699999998832,-0.056000000000011596],[0.16799999999997794,0],[0.3173330000000192,0.12133299999999281],[0.3359999999999843,0],[0.2146669999999915,-0.3173330000000192],[0,-1.101333000000011],[-0.11199999999999477,-0.037332999999989624],[-0.22399999999998954,0],[-0.41066699999998946,0.3546670000000063],[0,0],[0,0],[0,-0.205332999999996],[0.22400000000001796,-0.2426669999999831],[0,-0.18666699999999992],[-0.3919999999999959,-0.7466670000000022],[-0.8213330000000099,0],[-0.09333300000000122,0.14933300000001282],[0,0.14933300000001282],[0.10266699999999673,0.3079999999999927],[0,0],[0,0],[-1.138666999999998,0.6346670000000074],[-0.11199999999999477,0.055999999999983174],[-0.3546670000000063,0.037332999999989624],[-0.055999999999983174,0.13066700000001674],[0,0.46666700000000105],[0.31733299999999076,0.11199999999999477],[0.2613330000000076,0],[0.26133299999997917,-0.21466700000001993],[0,0.5973329999999919],[-0.037332999999989624,1.9786670000000015],[0.01866699999999355,1.4000000000000057],[0.37333300000000236,0.877332999999993]]}}},{"ty":"sh","ks":{"a":0,"k":{"c":true,"v":[[254.882,216.644],[257.542,216.14],[259.082,215.328],[260.594,213.06],[260.104,211.702],[258.802,211.044],[258.41,211.128],[257.822,211.954],[257.598,212.584],[256.758,213.396],[255.386,213.9],[254.322,213.2],[253.846,211.744],[258.438,208.328],[259.922,204.24],[256.254,200.152],[255.386,200.208],[251.718,203.288],[250.486,209.084],[251.578,214.236]],"i":[[-1.4000000000000057,-0.09333300000000122],[-1.026666999999975,0.39200000000002433],[-0.13066700000001674,0.205332999999996],[-0.14933300000001282,0.7093329999999867],[0.4200000000000159,0.43866700000000947],[0.4479999999999791,0],[0.11199999999996635,-0.055999999999983174],[0.07466699999997672,-0.38266699999999787],[0.07466699999997672,-0.037332999999989624],[0.4106670000000463,-0.2799999999999727],[0.42933300000001395,0],[0.2613330000000076,0.46666700000000105],[0.205332999999996,0.7466670000000022],[-1.1946669999999813,1.6239999999999952],[0.11199999999996635,1.2506669999999929],[2.2213329999999587,0],[0.2986669999999947,-0.037332999999989624],[0.9146670000000086,-1.8293330000000196],[0,-2.202666999999991],[-0.7280000000000086,-1.3999999999999773]],"o":[[0.7466670000000022,0.055999999999983174],[0.896000000000015,-0.3359999999999843],[0.8586670000000254,-0.8026670000000138],[0.09333300000002964,-0.46666700000000105],[-0.4199999999999591,-0.43866700000000947],[-0.14933300000001282,0],[-0.3173330000000192,0.16800000000000637],[-0.07466699999997672,0.38266699999999787],[-0.14933300000001282,0.2613330000000076],[-0.4853329999999687,0.33600000000001273],[-0.4480000000000075,0],[-0.11199999999999477,-0.22399999999998954],[1.8666670000000067,-0.6533330000000035],[1.101333000000011,-1.4746670000000108],[-0.22400000000004638,-2.7253330000000062],[-0.28000000000002956,0],[-1.530666999999994,0.22399999999998954],[-0.8213329999999814,1.6613329999999848],[0,2.0346669999999847],[0.8026669999999854,1.5120000000000005]]}}},{"ty":"sh","ks":{"a":0,"k":{"c":true,"v":[[253.622,209],[254.378,204.8],[256.198,203.204],[257.178,204.296],[256.058,207.04]],"i":[[0.877332999999993,-0.28000000000000114],[-0.6159999999999854,1.4186669999999992],[-0.7466669999999738,0],[0,-0.7279999999999802],[0.7466670000000022,-1.0266670000000033]],"o":[[-0.11200000000002319,-1.3813330000000121],[0.46666700000000105,-1.0640000000000214],[0.6533330000000319,0],[0,0.8026670000000138],[-0.7466670000000022,1.0266670000000033]]}}},{"ty":"sh","ks":{"a":0,"k":{"c":true,"v":[[263.088609,212.296379],[263.45,216.252],[265.606,217.344],[266.712,216.924],[267.258,215.496],[267.258,215.496],[267.258,213.816],[270.674,206.088],[271.178,214.824],[273.054,215.692],[274.734,215.258],[275.546,214.208],[275.378,213.508],[274.986,212.808],[274.986,212.808],[274.986,207.768],[274.566,202.952],[272.858,200.712],[269.246,202.644],[266.586,207.6],[266.586,207.6],[266.586,203.736],[266.81,202.896],[267.034,202.112],[266.922,201.552],[265.928,200.67],[264.346,200.208],[263.282,200.712],[263.002,201.636],[263.058,202.266],[263.114,202.952],[263.088775,212.207749],[263.087,212.146]],"i":[[0,0],[-0.2153849999999693,-0.17948700000002304],[-0.6719999999999686,0],[-0.34533299999998235,0.28000000000000114],[-0.01866699999999355,0.671999999999997],[0,0],[0,0],[-0.46666699999997263,-0.07466700000000515],[0.14933300000001282,-5.749333000000007],[-0.9146669999999517,0],[-0.5039999999999623,0.2893329999999992],[-0.037332999999989624,0.41066699999998946],[0.13066700000001674,0.18666699999999992],[0.037332999999989624,0.13066700000001674],[0,0],[0,0],[0.261333000000036,1.082667000000015],[0.8026669999999854,0.056000000000011596],[1.0640000000000214,-1.3813330000000121],[1.1759999999999877,-2.5013329999999883],[0,0],[0,0],[-0.14933300000001282,0.33600000000001273],[0,0.18666699999999992],[0.07466699999997672,0.18666699999999992],[0.5506669999999758,0.30800000000002115],[0.5040000000000191,0],[0.22399999999998954,-0.3359999999999843],[0,-0.3546670000000063],[-0.037332999999989624,-0.2893329999999992],[0,-0.16800000000000637],[0.01681700000000319,1.0936820000000012],[0,0]],"o":[[0.02554299999997056,2.457593000000003],[0.7653329999999983,0.7279999999999802],[0.3919999999999959,0],[0.3453330000000392,-0.28000000000000114],[0,0],[0,0],[1.8106670000000236,-5.226666999999992],[0.48533300000002555,0.07466700000000515],[0.33600000000001273,0.5786669999999958],[0.6160000000000423,0],[0.5040000000000191,-0.2893329999999992],[0.01866699999999355,-0.28000000000000114],[-0.22399999999998954,-0.33600000000001273],[0,0],[0,0],[-0.01866699999999355,-2.1280000000000143],[-0.3359999999999559,-1.4373329999999953],[-1.343999999999994,-0.09333300000000122],[-0.5973329999999919,0.8026669999999854],[0,0],[0,0],[0,-0.22399999999998954],[0.14933300000001282,-0.3359999999999843],[0,-0.18666699999999992],[-0.11200000000002319,-0.28000000000000114],[-0.5506669999999758,-0.3079999999999927],[-0.48533300000002555,0],[-0.18666699999999992,0.2613330000000076],[0,0.13066700000001674],[0.037332999999989624,0.2893329999999992],[0,7.264181000000008],[0,0],[0,0]]}}},{"ty":"st","o":{"a":0,"k":0},"w":{"a":0,"k":0},"c":{"a":0,"k":[0,0,0,0]},"lc":3,"lj":1,"ml":1},{"ty":"fl","o":{"a":0,"k":100},"r":1,"c":{"a":0,"k":[0,0,0,1]}},{"ty":"tr","o":{"a":0,"k":100},"a":{"a":0,"k":[0,0]},"s":{"a":0,"k":[100,100]},"p":{"a":0,"k":[0,0]},"r":{"a":0,"k":0}}]},{"ty":"gr","nm":"hospital shape group","it":[{"ty":"rc","s":{"a":0,"k":[164,55]},"r":{"a":0,"k":0},"p":{"a":0,"k":[206,206.5]}},{"ty":"st","o":{"a":0,"k":0},"w":{"a":0,"k":0},"c":{"a":0,"k":[0,0,0,0]},"lc":3,"lj":1,"ml":1},{"ty":"fl","o":{"a":0,"k":100},"r":2,"c":{"a":0,"k":[0.9686274509803922,0.9647058823529412,0.9686274509803922,1]}},{"ty":"tr","o":{"a":0,"k":100},"a":{"a":0,"k":[0,0]},"s":{"a":0,"k":[100,100]},"p":{"a":0,"k":[0,0]},"r":{"a":0,"k":0}}]},{"ty":"gr","nm":"hospital shape group","it":[{"ty":"rc","s":{"a":0,"k":[94,90]},"r":{"a":0,"k":0},"p":{"a":0,"k":[217,313]}},{"ty":"st","o":{"a":0,"k":0},"w":{"a":0,"k":0},"c":{"a":0,"k":[0,0,0,0]},"lc":3,"lj":1,"ml":1},{"ty":"fl","o":{"a":0,"k":100},"r":2,"c":{"a":0,"k":[0.9686274509803922,0.9647058823529412,0.9686274509803922,1]}},{"ty":"tr","o":{"a":0,"k":100},"a":{"a":0,"k":[0,0]},"s":{"a":0,"k":[100,100]},"p":{"a":0,"k":[0,0]},"r":{"a":0,"k":0}}]},{"ty":"gr","nm":"hospital shape group","it":[{"ty":"sh","ks":{"a":0,"k":{"c":true,"v":[[202.333333,195],[184,195],[187.666667,198.6],[187.666667,209.4],[184,213],[202.333333,213],[206,209.4],[206,198.6],[202.333333,195]],"i":[[0,0],[0,0],[0,-1.9878339999999923],[0,0],[2.025238999999999,0],[0,0],[0,1.9884160000000008],[0,0],[2.025238999999999,0]],"o":[[0,0],[2.025238999999999,0],[0,0],[0,1.9884160000000008],[0,0],[2.025238999999999,0],[0,0],[0.0005930000000091695,-1.9878339999999923],[0,0]]}}},{"ty":"st","o":{"a":0,"k":0},"w":{"a":0,"k":0},"c":{"a":0,"k":[0,0,0,0]},"lc":3,"lj":1,"ml":1},{"ty":"fl","o":{"a":0,"k":100},"r":1,"c":{"a":0,"k":[0.4627450980392157,0.42745098039215684,0.47058823529411764,1]}},{"ty":"tr","o":{"a":0,"k":100},"a":{"a":0,"k":[0,0]},"s":{"a":0,"k":[100,100]},"p":{"a":0,"k":[64,55]},"r":{"a":0,"k":0}}]},{"ty":"gr","nm":"hospital shape group","it":[{"ty":"sh","ks":{"a":0,"k":{"c":true,"v":[[202.346831,195],[100.652578,195],[97,198.6],[97,209.4],[100.652578,213],[202.347422,213],[206,209.4],[206,198.6]],"i":[[2.017456999999979,0],[0,0],[0,-1.9884160000000008],[0,0],[-2.017456899999999,0],[0,0],[0,1.9884160000000008],[0,0]],"o":[[0,0],[-2.017456899999999,0],[0,0],[0,1.9884160000000008],[0,0],[2.0174570000000074,0],[0,0],[0,-1.9884160000000008]]}}},{"ty":"st","o":{"a":0,"k":0},"w":{"a":0,"k":0},"c":{"a":0,"k":[0,0,0,0]},"lc":3,"lj":1,"ml":1},{"ty":"fl","o":{"a":0,"k":100},"r":1,"c":{"a":0,"k":[0.5450980392156862,0.5019607843137255,0.5568627450980392,1]}},{"ty":"tr","o":{"a":0,"k":100},"a":{"a":0,"k":[0,0]},"s":{"a":0,"k":[100,100]},"p":{"a":0,"k":[64,55]},"r":{"a":0,"k":0}}]},{"ty":"gr","nm":"hospital shape group","it":[{"ty":"sh","ks":{"a":0,"k":{"c":true,"v":[[0.0217647059,119.878504],[27.8823529,119.878504],[32.7300524,124.788971],[32.6288235,147.354344],[27.7811765,152.220327],[0.0217647059,152.220327]],"i":[[0,0],[0,0],[0.012300500000002046,-2.708200000000005],[0,0],[2.6688234999999985,0],[0,0]],"o":[[0,0],[2.6858824000000006,0],[0,0],[-0.01235290000000333,2.6910000000000025],[0,0],[0,0]]}}},{"ty":"st","o":{"a":0,"k":0},"w":{"a":0,"k":0},"c":{"a":0,"k":[0,0,0,0]},"lc":3,"lj":1,"ml":1},{"ty":"fl","o":{"a":0,"k":100},"r":1,"c":{"a":0,"k":[0.7411764705882353,0.8470588235294118,0.9882352941176471,1]}},{"ty":"tr","o":{"a":0,"k":100},"a":{"a":0,"k":[0,0]},"s":{"a":0,"k":[100,100]},"p":{"a":0,"k":[307,178.284]},"r":{"a":0,"k":0}}]},{"ty":"gr","nm":"hospital shape group","it":[{"ty":"sh","ks":{"a":0,"k":{"c":true,"v":[[0.0217647059,60.3058023],[27.8823529,60.3058023],[32.7300524,65.2162693],[32.6288235,87.7816418],[27.7811765,92.6476246],[0.0217647059,92.6476246]],"i":[[0,0],[0,0],[0.012300500000002046,-2.7082004999999967],[0,0],[2.6688234999999985,0],[0,0]],"o":[[0,0],[2.6858824000000006,0],[0,0],[-0.01235290000000333,2.6910000000000025],[0,0],[0,0]]}}},{"ty":"st","o":{"a":0,"k":0},"w":{"a":0,"k":0},"c":{"a":0,"k":[0,0,0,0]},"lc":3,"lj":1,"ml":1},{"ty":"fl","o":{"a":0,"k":100},"r":1,"c":{"a":0,"k":[0.7411764705882353,0.8470588235294118,0.9882352941176471,1]}},{"ty":"tr","o":{"a":0,"k":100},"a":{"a":0,"k":[0,0]},"s":{"a":0,"k":[100,100]},"p":{"a":0,"k":[307,178.284]},"r":{"a":0,"k":0}}]},{"ty":"gr","nm":"hospital shape group","it":[{"ty":"sh","ks":{"a":0,"k":{"c":false,"v":[[0.0217647059,0.468567335],[27.8823529,0.468567335],[32.7300524,5.37903438],[32.6288235,27.9444069],[27.7811765,32.8103897],[0.0217647059,32.8103897]],"i":[[0,0],[0,0],[0.012300500000002046,-2.7082005700000003],[0,0],[2.6688234999999985,0],[0,0]],"o":[[0,0],[2.6858824000000006,0],[0,0],[-0.01235290000000333,2.690999999999999],[0,0],[0,0]]}}},{"ty":"st","o":{"a":0,"k":0},"w":{"a":0,"k":0},"c":{"a":0,"k":[0,0,0,0]},"lc":3,"lj":1,"ml":1},{"ty":"fl","o":{"a":0,"k":100},"r":1,"c":{"a":0,"k":[0.7411764705882353,0.8470588235294118,0.9882352941176471,1]}},{"ty":"tr","o":{"a":0,"k":100},"a":{"a":0,"k":[0,0]},"s":{"a":0,"k":[100,100]},"p":{"a":0,"k":[307,178.284]},"r":{"a":0,"k":0}}]},{"ty":"gr","nm":"hospital shape group","it":[{"ty":"sh","ks":{"a":0,"k":{"c":true,"v":[[41.8205882,0.256229226],[23.6411765,0.256229226],[41.8205882,18.586702],[41.8205882,202.112072],[36.9729412,207],[55.1523529,207],[60,202.112072],[60,18.586702]],"i":[[10.04,0],[0,0],[0,-10.123426929999999],[0,0],[2.6770587999999975,0],[0,0],[0,2.6993029999999862],[0,0]],"o":[[0,0],[10.040588200000002,0],[0,0],[0,2.6998959999999954],[0,0],[2.6776471000000015,0],[0,0],[0,-10.123426929999999]]}}},{"ty":"st","o":{"a":0,"k":0},"w":{"a":0,"k":0},"c":{"a":0,"k":[0,0,0,0]},"lc":3,"lj":1,"ml":1},{"ty":"fl","o":{"a":0,"k":100},"r":1,"c":{"a":0,"k":[0.9294117647058824,0.9215686274509803,0.9294117647058824,1]}},{"ty":"tr","o":{"a":0,"k":100},"a":{"a":0,"k":[0,0]},"s":{"a":0,"k":[100,100]},"p":{"a":0,"k":[307,151]},"r":{"a":0,"k":0}}]},{"ty":"gr","nm":"hospital shape group","it":[{"ty":"sh","ks":{"a":0,"k":{"c":true,"v":[[55.1523529,207],[0.0223529412,207],[0.0223529412,0.256229226],[41.8205882,0.256229226],[60,18.586702],[60,202.111479]],"i":[[2.677058900000006,0],[0,0],[0,0],[0,0],[0,-10.123426929999999],[0,0]],"o":[[0,0],[0,0],[0,0],[10.040588299999996,0],[0,0],[0,2.6998959999999954]]}}},{"ty":"st","o":{"a":0,"k":0},"w":{"a":0,"k":0},"c":{"a":0,"k":[0,0,0,0]},"lc":3,"lj":1,"ml":1},{"ty":"fl","o":{"a":0,"k":100},"r":1,"c":{"a":0,"k":[0.9686274509803922,0.9647058823529412,0.9686274509803922,1]}},{"ty":"tr","o":{"a":0,"k":100},"a":{"a":0,"k":[0,0]},"s":{"a":0,"k":[100,100]},"p":{"a":0,"k":[307,151]},"r":{"a":0,"k":0}}]},{"ty":"gr","nm":"hospital shape group","it":[{"ty":"sh","ks":{"a":0,"k":{"c":true,"v":[[210.17919,135],[192.100615,135],[196.921373,139.858568],[196.820758,162.185446],[192,167],[210.078574,167],[214.899333,162.185446],[215,139.858568],[210.17919,135]],"i":[[0,0],[0,0],[0.012285000000019863,-2.6795769999999948],[0,0],[2.6540200000000027,0],[0,0],[-0.011700000000018917,2.6619719999999916],[0,0],[2.6709840000000042,0]],"o":[[0,0],[2.6709850000000017,0],[0,0],[-0.012284000000022388,2.6625589999999875],[0,0],[2.654021,0],[0,0],[0.012232000000011567,-2.6795769999999948],[0,0]]}}},{"ty":"st","o":{"a":0,"k":0},"w":{"a":0,"k":0},"c":{"a":0,"k":[0,0,0,0]},"lc":3,"lj":1,"ml":1},{"ty":"fl","o":{"a":0,"k":100},"r":1,"c":{"a":0,"k":[0.615686274509804,0.7803921568627451,0.984313725490196,1]}},{"ty":"tr","o":{"a":0,"k":100},"a":{"a":0,"k":[0,0]},"s":{"a":0,"k":[100,100]},"p":{"a":0,"k":[64,55]},"r":{"a":0,"k":0}}]},{"ty":"gr","nm":"hospital shape group","it":[{"ty":"sh","ks":{"a":0,"k":{"c":true,"v":[[169.865115,135],[210.135423,135],[215,139.858568],[214.897828,162.185446],[210.033304,167],[169.864525,167],[165,162.163732],[165,139.836854],[169.865115,135]],"i":[[0,0],[0,0],[0.012342999999987114,-2.6795769999999948],[0,0],[2.6781150000000196,0],[0,0],[0,2.670774999999992],[0,0],[-2.6869700000000023,0]],"o":[[0,0],[2.6952330000000018,0],[0,0],[-0.01239599999999541,2.6625589999999875],[0,0],[-2.686969999999974,0],[0,0],[0,-2.6713609999999903],[0,0]]}}},{"ty":"st","o":{"a":0,"k":0},"w":{"a":0,"k":0},"c":{"a":0,"k":[0,0,0,0]},"lc":3,"lj":1,"ml":1},{"ty":"fl","o":{"a":0,"k":100},"r":1,"c":{"a":0,"k":[0.7411764705882353,0.8470588235294118,0.9882352941176471,1]}},{"ty":"tr","o":{"a":0,"k":100},"a":{"a":0,"k":[0,0]},"s":{"a":0,"k":[100,100]},"p":{"a":0,"k":[64,55]},"r":{"a":0,"k":0}}]},{"ty":"gr","nm":"hospital shape group","it":[{"ty":"sh","ks":{"a":0,"k":{"c":true,"v":[[133.158049,135],[115,135],[119.841951,139.836356],[119.841951,162.163644],[115,167],[133.158049,167],[138,162.163644],[138,139.836356],[133.158049,135]],"i":[[0,0],[0,0],[0,-2.6708229999999844],[0,0],[2.673912999999999,0],[0,0],[0,2.6708229999999844],[0,0],[2.6745009999999922,0]],"o":[[0,0],[2.6745010000000065,0],[0,0],[0,2.6708229999999844],[0,0],[2.6745009999999922,0],[0,0],[0.0005869999999958964,-2.6708229999999844],[0,0]]}}},{"ty":"st","o":{"a":0,"k":0},"w":{"a":0,"k":0},"c":{"a":0,"k":[0,0,0,0]},"lc":3,"lj":1,"ml":1},{"ty":"fl","o":{"a":0,"k":100},"r":1,"c":{"a":0,"k":[0.615686274509804,0.7803921568627451,0.984313725490196,1]}},{"ty":"tr","o":{"a":0,"k":100},"a":{"a":0,"k":[0,0]},"s":{"a":0,"k":[100,100]},"p":{"a":0,"k":[64,55]},"r":{"a":0,"k":0}}]},{"ty":"gr","nm":"hospital shape group","it":[{"ty":"sh","ks":{"a":0,"k":{"c":true,"v":[[133.149619,167],[92.8504334,167],[88,162.141432],[88.1018745,139.814554],[92.9522555,135],[133.149619,135],[138,139.836268],[138,162.163146]],"i":[[2.6791570000000036,0],[0,0],[-0.012307500000005689,2.6795769999999948],[0,0],[-2.670328700000013,0],[0,0],[0,-2.670774999999992],[0,0]],"o":[[0,0],[-2.6873970999999983,0],[0,0],[0.012359900000006974,-2.6625589999999875],[0,0],[2.6791570000000036,0],[0,0],[0.0005879999999933716,2.6713609999999903]]}}},{"ty":"st","o":{"a":0,"k":0},"w":{"a":0,"k":0},"c":{"a":0,"k":[0,0,0,0]},"lc":3,"lj":1,"ml":1},{"ty":"fl","o":{"a":0,"k":100},"r":1,"c":{"a":0,"k":[0.7411764705882353,0.8470588235294118,0.9882352941176471,1]}},{"ty":"tr","o":{"a":0,"k":100},"a":{"a":0,"k":[0,0]},"s":{"a":0,"k":[100,100]},"p":{"a":0,"k":[64,55]},"r":{"a":0,"k":0}}]},{"ty":"gr","nm":"hospital shape group","it":[{"ty":"sh","ks":{"a":0,"k":{"c":true,"v":[[133.5,268],[129,263.304996],[129,253.695004],[133.5,249],[138,253.695004],[138,263.304996]],"i":[[2.485309000000001,0],[0,2.5930079999999975],[0,0],[-2.485309000000001,0],[0,-2.5930079999999975],[0,0]],"o":[[-2.485309000000001,0],[0,0],[0,-2.5930079999999975],[2.485309000000001,0],[0,0],[0,2.5930079999999975]]}}},{"ty":"st","o":{"a":0,"k":0},"w":{"a":0,"k":0},"c":{"a":0,"k":[0,0,0,0]},"lc":3,"lj":1,"ml":1},{"ty":"fl","o":{"a":0,"k":100},"r":1,"c":{"a":0,"k":[0.9686274509803922,0.9647058823529412,0.9686274509803922,1]}},{"ty":"tr","o":{"a":0,"k":100},"a":{"a":0,"k":[0,0]},"s":{"a":0,"k":[100,100]},"p":{"a":0,"k":[64,55]},"r":{"a":0,"k":0}}]},{"ty":"gr","nm":"hospital shape group","it":[{"ty":"sh","ks":{"a":0,"k":{"c":true,"v":[[169.5,268],[165,263.304996],[165,253.695004],[169.5,249],[174,253.695004],[174,263.304996]],"i":[[2.485892000000007,0],[0,2.5930079999999975],[0,0],[-2.485309000000001,0],[0,-2.5930079999999975],[0,0]],"o":[[-2.485309000000001,0],[0,0],[0,-2.5930079999999975],[2.485309000000001,0],[0,0],[0.0005820000000085201,2.5930079999999975]]}}},{"ty":"st","o":{"a":0,"k":0},"w":{"a":0,"k":0},"c":{"a":0,"k":[0,0,0,0]},"lc":3,"lj":1,"ml":1},{"ty":"fl","o":{"a":0,"k":100},"r":1,"c":{"a":0,"k":[0.9686274509803922,0.9647058823529412,0.9686274509803922,1]}},{"ty":"tr","o":{"a":0,"k":100},"a":{"a":0,"k":[0,0]},"s":{"a":0,"k":[100,100]},"p":{"a":0,"k":[64,55]},"r":{"a":0,"k":0}}]},{"ty":"gr","nm":"hospital shape group","it":[{"ty":"sh","ks":{"a":0,"k":{"c":true,"v":[[147,303],[147,213.560717],[151.5,209],[156,213.560717],[156,303]],"i":[[0,0],[0,0],[-2.485309000000001,0],[0,-2.518843000000004],[0,0]],"o":[[0,0],[0,-2.518843000000004],[2.485309000000001,0],[0,0],[0,0]]}}},{"ty":"st","o":{"a":0,"k":0},"w":{"a":0,"k":0},"c":{"a":0,"k":[0,0,0,0]},"lc":3,"lj":1,"ml":1},{"ty":"fl","o":{"a":0,"k":100},"r":1,"c":{"a":0,"k":[0.9686274509803922,0.9647058823529412,0.9686274509803922,1]}},{"ty":"tr","o":{"a":0,"k":100},"a":{"a":0,"k":[0,0]},"s":{"a":0,"k":[100,100]},"p":{"a":0,"k":[64,55]},"r":{"a":0,"k":0}}]},{"ty":"gr","nm":"hospital shape group","it":[{"ty":"sh","ks":{"a":0,"k":{"c":true,"v":[[179,213],[197,213],[197,303],[179,303]],"i":[[0,0],[0,0],[0,0],[0,0]],"o":[[0,0],[0,0],[0,0],[0,0]]}}},{"ty":"st","o":{"a":0,"k":0},"w":{"a":0,"k":0},"c":{"a":0,"k":[0,0,0,0]},"lc":3,"lj":1,"ml":1},{"ty":"fl","o":{"a":0,"k":100},"r":1,"c":{"a":0,"k":[0.32941176470588235,0.30980392156862746,0.33725490196078434,1]}},{"ty":"tr","o":{"a":0,"k":100},"a":{"a":0,"k":[0,0]},"s":{"a":0,"k":[100,100]},"p":{"a":0,"k":[64,55]},"r":{"a":0,"k":0}}]},{"ty":"gr","nm":"hospital shape group","it":[{"ty":"sh","ks":{"a":0,"k":{"c":true,"v":[[106,213],[197,213],[197,303],[106,303]],"i":[[0,0],[0,0],[0,0],[0,0]],"o":[[0,0],[0,0],[0,0],[0,0]]}}},{"ty":"st","o":{"a":0,"k":0},"w":{"a":0,"k":0},"c":{"a":0,"k":[0,0,0,0]},"lc":3,"lj":1,"ml":1},{"ty":"fl","o":{"a":0,"k":100},"r":1,"c":{"a":0,"k":[0.396078431372549,0.3686274509803922,0.403921568627451,1]}},{"ty":"tr","o":{"a":0,"k":100},"a":{"a":0,"k":[0,0]},"s":{"a":0,"k":[100,100]},"p":{"a":0,"k":[64,55]},"r":{"a":0,"k":0}}]},{"ty":"gr","nm":"hospital shape group","it":[{"ty":"sh","ks":{"a":0,"k":{"c":true,"v":[[86.5394837,44.6860328],[65.4853043,44.6860328],[63.6542228,42.8618361],[63.6542228,21.8874098],[59.9926522,18.2396066],[49.0079402,18.2396066],[45.3463696,21.8874098],[45.3463696,42.8624262],[43.515288,44.686623],[22.4611087,44.686623],[18.799538,48.3344262],[18.799538,59.2778361],[22.4611087,62.9256393],[43.515288,62.9256393],[45.3463696,64.7498361],[45.3463696,85.7248525],[49.0079402,89.3726557],[59.9926522,89.3726557],[63.6542228,85.7248525],[63.6542228,64.7498361],[65.4853043,62.9256393],[86.5394837,62.9256393],[90.2010543,59.2778361],[90.2010543,48.3338361]],"i":[[2.0218314999999905,0],[0,0],[0,1.007409800000005],[0,0],[2.0224238999999997,0],[0,0],[0,-2.014819599999999],[0,0],[1.0112120000000004,0],[0,0],[0,-2.0148196000000027],[0,0],[-2.0224238999999997,0],[0,0],[0,-1.007409899999999],[0,0],[-2.0224238999999997,0],[0,0],[0,2.01481960000001],[0,0],[-1.0112118999999922,0],[0,0],[0,2.0148195999999956],[0,0]],"o":[[0,0],[-1.0112118999999922,0],[0,0],[0,-2.014819599999999],[0,0],[-2.0224238999999997,0],[0,0],[0,1.007409899999999],[0,0],[-2.0224238999999997,0],[0,0],[0,2.0148195999999956],[0,0],[1.0112120000000004,0],[0,0],[0,2.01481960000001],[0,0],[2.0224238999999997,0],[0,0],[0,-1.007409899999999],[0,0],[2.0224238999999926,0],[0,0],[0,-2.014229499999999]]}}},{"ty":"st","o":{"a":0,"k":0},"w":{"a":0,"k":0},"c":{"a":0,"k":[0,0,0,0]},"lc":3,"lj":1,"ml":1},{"ty":"fl","o":{"a":0,"k":100},"r":1,"c":{"a":0,"k":[1,1,1,1]}},{"ty":"tr","o":{"a":0,"k":100},"a":{"a":0,"k":[0,0]},"s":{"a":0,"k":[100,100]},"p":{"a":0,"k":[161,55]},"r":{"a":0,"k":0}}]},{"ty":"gr","nm":"hospital shape group","it":[{"ty":"sh","ks":{"a":0,"k":{"c":true,"v":[[54.5,0],[45.3457772,0.776655738],[90.200462,53.8058361],[45.3457772,106.835016],[54.5,107.611672],[108.508908,53.8058361]],"i":[[29.780695699999995,0],[2.9767663000000013,-0.5081311479999999],[0,-26.5603279],[25.435505399999997,-4.344785999999999],[-3.1201250000000016,0],[0,29.668721299999994]],"o":[[-3.1195325999999994,0],[25.435505399999997,4.344786882],[0,26.560327800000003],[2.9767663000000013,0.5081320000000034],[29.780695699999995,0],[0,-29.6687213]]}}},{"ty":"st","o":{"a":0,"k":0},"w":{"a":0,"k":0},"c":{"a":0,"k":[0,0,0,0]},"lc":3,"lj":1,"ml":1},{"ty":"fl","o":{"a":0,"k":100},"r":1,"c":{"a":0,"k":[0.8823529411764706,0.4980392156862745,0.5215686274509804,1]}},{"ty":"tr","o":{"a":0,"k":100},"a":{"a":0,"k":[0,0]},"s":{"a":0,"k":[100,100]},"p":{"a":0,"k":[161,55]},"r":{"a":0,"k":0}}]},{"ty":"gr","nm":"hospital shape group","it":[{"ty":"el","p":{"a":0,"k":[54,53]},"s":{"a":0,"k":[108.0178152,107.6116722]}},{"ty":"st","o":{"a":0,"k":0},"w":{"a":0,"k":0},"c":{"a":0,"k":[0,0,0,0]},"lc":3,"lj":1,"ml":1},{"ty":"fl","o":{"a":0,"k":100},"r":1,"c":{"a":0,"k":[0.8980392156862745,0.592156862745098,0.615686274509804,1]}},{"ty":"tr","o":{"a":0,"k":100},"a":{"a":0,"k":[0,0]},"s":{"a":0,"k":[100,100]},"p":{"a":0,"k":[161,55]},"r":{"a":0,"k":0}}]},{"ty":"gr","nm":"hospital shape group","it":[{"ty":"sh","ks":{"a":0,"k":{"c":true,"v":[[224.5,54],[206,54],[224.5,72.2861566],[224.5,303],[243,303],[243,72.2861566],[224.5,54]],"i":[[0,0],[0,0],[0,-10.0989523],[0,0],[0,0],[0,0],[10.21765099999999,0]],"o":[[0,0],[10.21765099999999,0],[0,0],[0,0],[0,0],[0,-10.0989523],[0,0]]}}},{"ty":"st","o":{"a":0,"k":0},"w":{"a":0,"k":0},"c":{"a":0,"k":[0,0,0,0]},"lc":3,"lj":1,"ml":1},{"ty":"fl","o":{"a":0,"k":100},"r":1,"c":{"a":0,"k":[0.9294117647058824,0.9215686274509803,0.9294117647058824,1]}},{"ty":"tr","o":{"a":0,"k":100},"a":{"a":0,"k":[0,0]},"s":{"a":0,"k":[100,100]},"p":{"a":0,"k":[64,55]},"r":{"a":0,"k":0}}]},{"ty":"gr","nm":"hospital shape group","it":[{"ty":"sh","ks":{"a":0,"k":{"c":true,"v":[[243,303],[197.177052,303],[151.645302,293.856626],[106.112959,303],[60,303],[60,72.2861566],[78.3288232,54],[224.671177,54],[243,72.2861566]],"i":[[0,0],[0,0],[0,0],[0,0],[0,0],[0,0],[-10.122515899999996,0],[0,0],[0,-10.0989523]],"o":[[0,0],[0,0],[0,0],[0,0],[0,0],[0,-10.099544000000002],[0,0],[10.123109,0],[0,0]]}}},{"ty":"st","o":{"a":0,"k":0},"w":{"a":0,"k":0},"c":{"a":0,"k":[0,0,0,0]},"lc":3,"lj":1,"ml":1},{"ty":"fl","o":{"a":0,"k":100},"r":1,"c":{"a":0,"k":[0.9686274509803922,0.9647058823529412,0.9686274509803922,1]}},{"ty":"tr","o":{"a":0,"k":100},"a":{"a":0,"k":[0,0]},"s":{"a":0,"k":[100,100]},"p":{"a":0,"k":[64,55]},"r":{"a":0,"k":0}}]},{"ty":"gr","nm":"hospital shape group","it":[{"ty":"sh","ks":{"a":0,"k":{"c":true,"v":[[14.7394118,119.878504],[32.9188235,119.878504],[32.9188235,152.220327],[14.7394118,152.220327]],"i":[[0,0],[0,0],[0,0],[0,0]],"o":[[0,0],[0,0],[0,0],[0,0]]}}},{"ty":"st","o":{"a":0,"k":0},"w":{"a":0,"k":0},"c":{"a":0,"k":[0,0,0,0]},"lc":3,"lj":1,"ml":1},{"ty":"fl","o":{"a":0,"k":100},"r":1,"c":{"a":0,"k":[0.615686274509804,0.7803921568627451,0.984313725490196,1]}},{"ty":"tr","o":{"a":0,"k":100},"a":{"a":0,"k":[0,0]},"s":{"a":0,"k":[100,100]},"p":{"a":0,"k":[91.059,178.284]},"r":{"a":0,"k":0}}]},{"ty":"gr","nm":"hospital shape group","it":[{"ty":"sh","ks":{"a":0,"k":{"c":true,"v":[[32.9194118,119.878504],[5.05882353,119.878504],[0.21112409,124.788971],[0.312941176,147.354344],[5.16058824,152.220327],[32.92,152.220327],[32.92,119.878504]],"i":[[0,0],[0,0],[-0.012300560999999988,-2.708200000000005],[0,0],[-2.66882353,0],[0,0],[0,0]],"o":[[0,0],[-2.6858823499999995,0],[0,0],[0.012352942000000033,2.6910000000000025],[0,0],[0,0],[0,0]]}}},{"ty":"st","o":{"a":0,"k":0},"w":{"a":0,"k":0},"c":{"a":0,"k":[0,0,0,0]},"lc":3,"lj":1,"ml":1},{"ty":"fl","o":{"a":0,"k":100},"r":1,"c":{"a":0,"k":[0.7411764705882353,0.8470588235294118,0.9882352941176471,1]}},{"ty":"tr","o":{"a":0,"k":100},"a":{"a":0,"k":[0,0]},"s":{"a":0,"k":[100,100]},"p":{"a":0,"k":[91.059,178.284]},"r":{"a":0,"k":0}}]},{"ty":"gr","nm":"hospital shape group","it":[{"ty":"sh","ks":{"a":0,"k":{"c":true,"v":[[14.7394118,60.3063954],[32.9188235,60.3063954],[32.9188235,92.6476246],[14.7394118,92.6476246]],"i":[[0,0],[0,0],[0,0],[0,0]],"o":[[0,0],[0,0],[0,0],[0,0]]}}},{"ty":"st","o":{"a":0,"k":0},"w":{"a":0,"k":0},"c":{"a":0,"k":[0,0,0,0]},"lc":3,"lj":1,"ml":1},{"ty":"fl","o":{"a":0,"k":100},"r":1,"c":{"a":0,"k":[0.615686274509804,0.7803921568627451,0.984313725490196,1]}},{"ty":"tr","o":{"a":0,"k":100},"a":{"a":0,"k":[0,0]},"s":{"a":0,"k":[100,100]},"p":{"a":0,"k":[91.059,178.284]},"r":{"a":0,"k":0}}]},{"ty":"gr","nm":"hospital shape group","it":[{"ty":"sh","ks":{"a":0,"k":{"c":true,"v":[[14.7394118,0.468567335],[32.9188235,0.468567335],[32.9188235,32.8103897],[14.7394118,32.8103897]],"i":[[0,0],[0,0],[0,0],[0,0]],"o":[[0,0],[0,0],[0,0],[0,0]]}}},{"ty":"st","o":{"a":0,"k":0},"w":{"a":0,"k":0},"c":{"a":0,"k":[0,0,0,0]},"lc":3,"lj":1,"ml":1},{"ty":"fl","o":{"a":0,"k":100},"r":1,"c":{"a":0,"k":[0.615686274509804,0.7803921568627451,0.984313725490196,1]}},{"ty":"tr","o":{"a":0,"k":100},"a":{"a":0,"k":[0,0]},"s":{"a":0,"k":[100,100]},"p":{"a":0,"k":[91.059,178.284]},"r":{"a":0,"k":0}}]},{"ty":"gr","nm":"hospital shape group","it":[{"ty":"sh","ks":{"a":0,"k":{"c":true,"v":[[32.9194118,60.3058023],[5.05882353,60.3058023],[0.21112409,65.2162693],[0.312941176,87.7816418],[5.16058824,92.6476246],[32.92,92.6476246],[32.92,60.3058023]],"i":[[0,0],[0,0],[-0.012300560999999988,-2.7082004999999967],[0,0],[-2.66882353,0],[0,0],[0,0]],"o":[[0,0],[-2.6858823499999995,0],[0,0],[0.012352942000000033,2.6910000000000025],[0,0],[0,0],[0,0]]}}},{"ty":"st","o":{"a":0,"k":0},"w":{"a":0,"k":0},"c":{"a":0,"k":[0,0,0,0]},"lc":3,"lj":1,"ml":1},{"ty":"fl","o":{"a":0,"k":100},"r":1,"c":{"a":0,"k":[0.7411764705882353,0.8470588235294118,0.9882352941176471,1]}},{"ty":"tr","o":{"a":0,"k":100},"a":{"a":0,"k":[0,0]},"s":{"a":0,"k":[100,100]},"p":{"a":0,"k":[91.059,178.284]},"r":{"a":0,"k":0}}]},{"ty":"gr","nm":"hospital shape group","it":[{"ty":"sh","ks":{"a":0,"k":{"c":true,"v":[[32.9194118,0.468567335],[5.05882353,0.468567335],[0.21112409,5.37903438],[0.312941176,27.9444069],[5.16058824,32.8103897],[32.92,32.8103897],[32.92,0.468567335]],"i":[[0,0],[0,0],[-0.012300560999999988,-2.7082005700000003],[0,0],[-2.66882353,0],[0,0],[0,0]],"o":[[0,0],[-2.6858823499999995,0],[0,0],[0.012352942000000033,2.690999999999999],[0,0],[0,0],[0,0]]}}},{"ty":"st","o":{"a":0,"k":0},"w":{"a":0,"k":0},"c":{"a":0,"k":[0,0,0,0]},"lc":3,"lj":1,"ml":1},{"ty":"fl","o":{"a":0,"k":100},"r":1,"c":{"a":0,"k":[0.7411764705882353,0.8470588235294118,0.9882352941176471,1]}},{"ty":"tr","o":{"a":0,"k":100},"a":{"a":0,"k":[0,0]},"s":{"a":0,"k":[100,100]},"p":{"a":0,"k":[91.059,178.284]},"r":{"a":0,"k":0}}]},{"ty":"gr","nm":"hospital shape group","it":[{"ty":"sh","ks":{"a":0,"k":{"c":true,"v":[[41.7982353,0.256229226],[59.9776471,0.256229226],[59.9776471,207],[41.7982353,207]],"i":[[0,0],[0,0],[0,0],[0,0]],"o":[[0,0],[0,0],[0,0],[0,0]]}}},{"ty":"st","o":{"a":0,"k":0},"w":{"a":0,"k":0},"c":{"a":0,"k":[0,0,0,0]},"lc":3,"lj":1,"ml":1},{"ty":"fl","o":{"a":0,"k":100},"r":1,"c":{"a":0,"k":[0.9294117647058824,0.9215686274509803,0.9294117647058824,1]}},{"ty":"tr","o":{"a":0,"k":100},"a":{"a":0,"k":[0,0]},"s":{"a":0,"k":[100,100]},"p":{"a":0,"k":[64,151]},"r":{"a":0,"k":0}}]},{"ty":"gr","nm":"hospital shape group","it":[{"ty":"sh","ks":{"a":0,"k":{"c":true,"v":[[4.84764706,207],[59.9776471,207],[59.9776471,0.256229226],[18.1794118,0.256229226],[0,18.586702],[0,202.111479]],"i":[[-2.67705882,0],[0,0],[0,0],[0,0],[0,-10.124020049999999],[0,0]],"o":[[0,0],[0,0],[0,0],[-10.04000004,0],[0,0],[0,2.6998959999999954]]}}},{"ty":"st","o":{"a":0,"k":0},"w":{"a":0,"k":0},"c":{"a":0,"k":[0,0,0,0]},"lc":3,"lj":1,"ml":1},{"ty":"fl","o":{"a":0,"k":100},"r":1,"c":{"a":0,"k":[0.9686274509803922,0.9647058823529412,0.9686274509803922,1]}},{"ty":"tr","o":{"a":0,"k":100},"a":{"a":0,"k":[0,0]},"s":{"a":0,"k":[100,100]},"p":{"a":0,"k":[64,151]},"r":{"a":0,"k":0}}]}],"op":332}],"op":332,"w":850,"h":650}
